digraph Tree {
node [shape=box, style="filled, rounded", color="black", fontname="helvetica"] ;
edge [fontname="helvetica"] ;
0 [label="stalk-surface-above-ring_s <= 0.5\ngini = 0.5\nsamples = 4072\nvalue = [3314, 3185]\nclass = 0", fillcolor="#fefaf7"] ;
1 [label="habitat_g <= 0.5\ngini = 0.312\nsamples = 1489\nvalue = [458, 1912]\nclass = 1", fillcolor="#68b4eb"] ;
0 -> 1 [labeldistance=2.5, labelangle=45, headlabel="True"] ;
2 [label="stalk-surface-above-ring_f <= 0.5\ngini = 0.042\nsamples = 955\nvalue = [32, 1468]\nclass = 1", fillcolor="#3d9fe6"] ;
1 -> 2 ;
3 [label="ring-number_t <= 0.5\ngini = 0.019\nsamples = 908\nvalue = [14, 1417]\nclass = 1", fillcolor="#3b9ee5"] ;
2 -> 3 ;
4 [label="gini = 0.0\nsamples = 899\nvalue = [0, 1417]\nclass = 1", fillcolor="#399de5"] ;
3 -> 4 ;
5 [label="gini = 0.0\nsamples = 9\nvalue = [14, 0]\nclass = 0", fillcolor="#e58139"] ;
3 -> 5 ;
6 [label="cap-shape_x <= 0.5\ngini = 0.386\nsamples = 47\nvalue = [18, 51]\nclass = 1", fillcolor="#7fc0ee"] ;
2 -> 6 ;
7 [label="stalk-color-below-ring_w <= 0.5\ngini = 0.429\nsamples = 30\nvalue = [14, 31]\nclass = 1", fillcolor="#92c9f1"] ;
6 -> 7 ;
8 [label="gini = 0.0\nsamples = 10\nvalue = [14, 0]\nclass = 0", fillcolor="#e58139"] ;
7 -> 8 ;
9 [label="gini = 0.0\nsamples = 20\nvalue = [0, 31]\nclass = 1", fillcolor="#399de5"] ;
7 -> 9 ;
10 [label="gill-spacing_w <= 0.5\ngini = 0.278\nsamples = 17\nvalue = [4, 20]\nclass = 1", fillcolor="#61b1ea"] ;
6 -> 10 ;
11 [label="gini = 0.0\nsamples = 15\nvalue = [0, 20]\nclass = 1", fillcolor="#399de5"] ;
10 -> 11 ;
12 [label="gini = 0.0\nsamples = 2\nvalue = [4, 0]\nclass = 0", fillcolor="#e58139"] ;
10 -> 12 ;
13 [label="stalk-root_e <= 0.5\ngini = 0.5\nsamples = 534\nvalue = [426, 444]\nclass = 1", fillcolor="#f7fbfe"] ;
1 -> 13 ;
14 [label="ring-number_t <= 0.5\ngini = 0.356\nsamples = 348\nvalue = [134, 444]\nclass = 1", fillcolor="#75bbed"] ;
13 -> 14 ;
15 [label="gini = 0.0\nsamples = 273\nvalue = [0, 444]\nclass = 1", fillcolor="#399de5"] ;
14 -> 15 ;
16 [label="gini = 0.0\nsamples = 75\nvalue = [134, 0]\nclass = 0", fillcolor="#e58139"] ;
14 -> 16 ;
17 [label="gini = 0.0\nsamples = 186\nvalue = [292, 0]\nclass = 0", fillcolor="#e58139"] ;
13 -> 17 ;
18 [label="ring-type_e <= 0.5\ngini = 0.427\nsamples = 2583\nvalue = [2856, 1273]\nclass = 0", fillcolor="#f1b991"] ;
0 -> 18 [labeldistance=2.5, labelangle=-45, headlabel="False"] ;
19 [label="stalk-color-above-ring_w <= 0.5\ngini = 0.298\nsamples = 1815\nvalue = [2382, 531]\nclass = 0", fillcolor="#eb9d65"] ;
18 -> 19 ;
20 [label="gini = 0.0\nsamples = 649\nvalue = [1023, 0]\nclass = 0", fillcolor="#e58139"] ;
19 -> 20 ;
21 [label="cap-surface_s <= 0.5\ngini = 0.404\nsamples = 1166\nvalue = [1359, 531]\nclass = 0", fillcolor="#efb286"] ;
19 -> 21 ;
22 [label="stalk-color-below-ring_w <= 0.5\ngini = 0.265\nsamples = 761\nvalue = [1048, 196]\nclass = 0", fillcolor="#ea995e"] ;
21 -> 22 ;
23 [label="gini = 0.0\nsamples = 179\nvalue = [295, 0]\nclass = 0", fillcolor="#e58139"] ;
22 -> 23 ;
24 [label="spore-print-color_r <= 0.5\ngini = 0.328\nsamples = 582\nvalue = [753, 196]\nclass = 0", fillcolor="#eca26d"] ;
22 -> 24 ;
25 [label="cap-color_p <= 0.5\ngini = 0.299\nsamples = 566\nvalue = [753, 169]\nclass = 0", fillcolor="#eb9d65"] ;
24 -> 25 ;
26 [label="odor_a <= 0.5\ngini = 0.279\nsamples = 553\nvalue = [749, 151]\nclass = 0", fillcolor="#ea9a61"] ;
25 -> 26 ;
27 [label="stalk-shape_t <= 0.5\ngini = 0.34\nsamples = 431\nvalue = [544, 151]\nclass = 0", fillcolor="#eca470"] ;
26 -> 27 ;
28 [label="odor_n <= 0.5\ngini = 0.424\nsamples = 313\nvalue = [345, 151]\nclass = 0", fillcolor="#f0b890"] ;
27 -> 28 ;
29 [label="gill-size_b <= 0.5\ngini = 0.495\nsamples = 204\nvalue = [178, 147]\nclass = 0", fillcolor="#fae9dd"] ;
28 -> 29 ;
30 [label="gini = 0.0\nsamples = 94\nvalue = [0, 147]\nclass = 1", fillcolor="#399de5"] ;
29 -> 30 ;
31 [label="gini = 0.0\nsamples = 110\nvalue = [178, 0]\nclass = 0", fillcolor="#e58139"] ;
29 -> 31 ;
32 [label="cap-shape_k <= 0.5\ngini = 0.046\nsamples = 109\nvalue = [167, 4]\nclass = 0", fillcolor="#e6843e"] ;
28 -> 32 ;
33 [label="population_v <= 0.5\ngini = 0.037\nsamples = 100\nvalue = [154, 3]\nclass = 0", fillcolor="#e6833d"] ;
32 -> 33 ;
34 [label="stalk-surface-below-ring_k <= 0.5\ngini = 0.061\nsamples = 57\nvalue = [93, 3]\nclass = 0", fillcolor="#e6853f"] ;
33 -> 34 ;
35 [label="population_c <= 0.5\ngini = 0.084\nsamples = 41\nvalue = [65, 3]\nclass = 0", fillcolor="#e68742"] ;
34 -> 35 ;
36 [label="gini = 0.0\nsamples = 38\nvalue = [65, 0]\nclass = 0", fillcolor="#e58139"] ;
35 -> 36 ;
37 [label="gini = 0.0\nsamples = 3\nvalue = [0, 3]\nclass = 1", fillcolor="#399de5"] ;
35 -> 37 ;
38 [label="gini = 0.0\nsamples = 16\nvalue = [28, 0]\nclass = 0", fillcolor="#e58139"] ;
34 -> 38 ;
39 [label="gini = 0.0\nsamples = 43\nvalue = [61, 0]\nclass = 0", fillcolor="#e58139"] ;
33 -> 39 ;
40 [label="gill-size_b <= 0.5\ngini = 0.133\nsamples = 9\nvalue = [13, 1]\nclass = 0", fillcolor="#e78b48"] ;
32 -> 40 ;
41 [label="gini = 0.0\nsamples = 1\nvalue = [0, 1]\nclass = 1", fillcolor="#399de5"] ;
40 -> 41 ;
42 [label="gini = 0.0\nsamples = 8\nvalue = [13, 0]\nclass = 0", fillcolor="#e58139"] ;
40 -> 42 ;
43 [label="gini = 0.0\nsamples = 118\nvalue = [199, 0]\nclass = 0", fillcolor="#e58139"] ;
27 -> 43 ;
44 [label="gini = 0.0\nsamples = 122\nvalue = [205, 0]\nclass = 0", fillcolor="#e58139"] ;
26 -> 44 ;
45 [label="habitat_d <= 0.5\ngini = 0.298\nsamples = 13\nvalue = [4, 18]\nclass = 1", fillcolor="#65b3eb"] ;
25 -> 45 ;
46 [label="gini = 0.0\nsamples = 1\nvalue = [4, 0]\nclass = 0", fillcolor="#e58139"] ;
45 -> 46 ;
47 [label="gini = 0.0\nsamples = 12\nvalue = [0, 18]\nclass = 1", fillcolor="#399de5"] ;
45 -> 47 ;
48 [label="gini = 0.0\nsamples = 16\nvalue = [0, 27]\nclass = 1", fillcolor="#399de5"] ;
24 -> 48 ;
49 [label="gill-size_n <= 0.5\ngini = 0.499\nsamples = 405\nvalue = [311, 335]\nclass = 1", fillcolor="#f1f8fd"] ;
21 -> 49 ;
50 [label="odor_f <= 0.5\ngini = 0.467\nsamples = 273\nvalue = [273, 162]\nclass = 0", fillcolor="#f4ccae"] ;
49 -> 50 ;
51 [label="spore-print-color_w <= 0.5\ngini = 0.188\nsamples = 196\nvalue = [273, 32]\nclass = 0", fillcolor="#e89050"] ;
50 -> 51 ;
52 [label="spore-print-color_r <= 0.5\ngini = 0.234\nsamples = 147\nvalue = [204, 32]\nclass = 0", fillcolor="#e99558"] ;
51 -> 52 ;
53 [label="gini = 0.0\nsamples = 129\nvalue = [204, 0]\nclass = 0", fillcolor="#e58139"] ;
52 -> 53 ;
54 [label="gini = 0.0\nsamples = 18\nvalue = [0, 32]\nclass = 1", fillcolor="#399de5"] ;
52 -> 54 ;
55 [label="gini = 0.0\nsamples = 49\nvalue = [69, 0]\nclass = 0", fillcolor="#e58139"] ;
51 -> 55 ;
56 [label="gini = 0.0\nsamples = 77\nvalue = [0, 130]\nclass = 1", fillcolor="#399de5"] ;
50 -> 56 ;
57 [label="gill-spacing_w <= 0.5\ngini = 0.295\nsamples = 132\nvalue = [38, 173]\nclass = 1", fillcolor="#64b3eb"] ;
49 -> 57 ;
58 [label="gini = 0.0\nsamples = 87\nvalue = [0, 136]\nclass = 1", fillcolor="#399de5"] ;
57 -> 58 ;
59 [label="odor_c <= 0.5\ngini = 0.5\nsamples = 45\nvalue = [38, 37]\nclass = 0", fillcolor="#fefcfa"] ;
57 -> 59 ;
60 [label="gini = 0.0\nsamples = 21\nvalue = [38, 0]\nclass = 0", fillcolor="#e58139"] ;
59 -> 60 ;
61 [label="gini = 0.0\nsamples = 24\nvalue = [0, 37]\nclass = 1", fillcolor="#399de5"] ;
59 -> 61 ;
62 [label="gill-size_n <= 0.5\ngini = 0.476\nsamples = 768\nvalue = [474, 742]\nclass = 1", fillcolor="#b7dcf6"] ;
18 -> 62 ;
63 [label="gini = 0.0\nsamples = 295\nvalue = [455, 0]\nclass = 0", fillcolor="#e58139"] ;
62 -> 63 ;
64 [label="gill-color_w <= 0.5\ngini = 0.049\nsamples = 473\nvalue = [19, 742]\nclass = 1", fillcolor="#3ea0e6"] ;
62 -> 64 ;
65 [label="gini = 0.0\nsamples = 462\nvalue = [0, 742]\nclass = 1", fillcolor="#399de5"] ;
64 -> 65 ;
66 [label="gini = 0.0\nsamples = 11\nvalue = [19, 0]\nclass = 0", fillcolor="#e58139"] ;
64 -> 66 ;
}