digraph Tree {
node [shape=box, style="filled, rounded", color="black", fontname="helvetica"] ;
edge [fontname="helvetica"] ;
0 [label="gill-size_b <= 0.5\ngini = 0.499\nsamples = 4096\nvalue = [3362, 3137]\nclass = 0", fillcolor="#fdf7f2"] ;
1 [label="gill-color_w <= 0.5\ngini = 0.176\nsamples = 1270\nvalue = [197, 1825]\nclass = 1", fillcolor="#4ea8e8"] ;
0 -> 1 [labeldistance=2.5, labelangle=45, headlabel="True"] ;
2 [label="spore-print-color_w <= 0.5\ngini = 0.134\nsamples = 1182\nvalue = [137, 1758]\nclass = 1", fillcolor="#48a5e7"] ;
1 -> 2 ;
3 [label="ring-type_p <= 0.5\ngini = 0.436\nsamples = 270\nvalue = [137, 289]\nclass = 1", fillcolor="#97cbf1"] ;
2 -> 3 ;
4 [label="gini = 0.0\nsamples = 17\nvalue = [26, 0]\nclass = 0", fillcolor="#e58139"] ;
3 -> 4 ;
5 [label="population_y <= 0.5\ngini = 0.401\nsamples = 253\nvalue = [111, 289]\nclass = 1", fillcolor="#85c3ef"] ;
3 -> 5 ;
6 [label="cap-color_p <= 0.5\ngini = 0.327\nsamples = 229\nvalue = [75, 289]\nclass = 1", fillcolor="#6cb6ec"] ;
5 -> 6 ;
7 [label="odor_p <= 0.5\ngini = 0.351\nsamples = 205\nvalue = [75, 255]\nclass = 1", fillcolor="#73baed"] ;
6 -> 7 ;
8 [label="stalk-root_b <= 0.5\ngini = 0.487\nsamples = 109\nvalue = [75, 104]\nclass = 1", fillcolor="#c8e4f8"] ;
7 -> 8 ;
9 [label="gini = 0.0\nsamples = 23\nvalue = [38, 0]\nclass = 0", fillcolor="#e58139"] ;
8 -> 9 ;
10 [label="odor_a <= 0.5\ngini = 0.387\nsamples = 86\nvalue = [37, 104]\nclass = 1", fillcolor="#7fc0ee"] ;
8 -> 10 ;
11 [label="odor_c <= 0.5\ngini = 0.261\nsamples = 74\nvalue = [19, 104]\nclass = 1", fillcolor="#5dafea"] ;
10 -> 11 ;
12 [label="gini = 0.0\nsamples = 11\nvalue = [19, 0]\nclass = 0", fillcolor="#e58139"] ;
11 -> 12 ;
13 [label="gini = 0.0\nsamples = 63\nvalue = [0, 104]\nclass = 1", fillcolor="#399de5"] ;
11 -> 13 ;
14 [label="gini = 0.0\nsamples = 12\nvalue = [18, 0]\nclass = 0", fillcolor="#e58139"] ;
10 -> 14 ;
15 [label="gini = 0.0\nsamples = 96\nvalue = [0, 151]\nclass = 1", fillcolor="#399de5"] ;
7 -> 15 ;
16 [label="gini = 0.0\nsamples = 24\nvalue = [0, 34]\nclass = 1", fillcolor="#399de5"] ;
6 -> 16 ;
17 [label="gini = 0.0\nsamples = 24\nvalue = [36, 0]\nclass = 0", fillcolor="#e58139"] ;
5 -> 17 ;
18 [label="gini = 0.0\nsamples = 912\nvalue = [0, 1469]\nclass = 1", fillcolor="#399de5"] ;
2 -> 18 ;
19 [label="stalk-surface-below-ring_y <= 0.5\ngini = 0.498\nsamples = 88\nvalue = [60, 67]\nclass = 1", fillcolor="#eaf5fc"] ;
1 -> 19 ;
20 [label="stalk-shape_e <= 0.5\ngini = 0.491\nsamples = 72\nvalue = [60, 46]\nclass = 0", fillcolor="#f9e2d1"] ;
19 -> 20 ;
21 [label="gini = 0.0\nsamples = 19\nvalue = [28, 0]\nclass = 0", fillcolor="#e58139"] ;
20 -> 21 ;
22 [label="stalk-color-below-ring_w <= 0.5\ngini = 0.484\nsamples = 53\nvalue = [32, 46]\nclass = 1", fillcolor="#c3e1f7"] ;
20 -> 22 ;
23 [label="gini = 0.0\nsamples = 17\nvalue = [24, 0]\nclass = 0", fillcolor="#e58139"] ;
22 -> 23 ;
24 [label="spore-print-color_n <= 0.5\ngini = 0.252\nsamples = 36\nvalue = [8, 46]\nclass = 1", fillcolor="#5baeea"] ;
22 -> 24 ;
25 [label="population_y <= 0.5\ngini = 0.339\nsamples = 22\nvalue = [8, 29]\nclass = 1", fillcolor="#70b8ec"] ;
24 -> 25 ;
26 [label="gini = 0.0\nsamples = 17\nvalue = [0, 29]\nclass = 1", fillcolor="#399de5"] ;
25 -> 26 ;
27 [label="gini = 0.0\nsamples = 5\nvalue = [8, 0]\nclass = 0", fillcolor="#e58139"] ;
25 -> 27 ;
28 [label="gini = 0.0\nsamples = 14\nvalue = [0, 17]\nclass = 1", fillcolor="#399de5"] ;
24 -> 28 ;
29 [label="gini = 0.0\nsamples = 16\nvalue = [0, 21]\nclass = 1", fillcolor="#399de5"] ;
19 -> 29 ;
30 [label="spore-print-color_n <= 0.5\ngini = 0.414\nsamples = 2826\nvalue = [3165, 1312]\nclass = 0", fillcolor="#f0b58b"] ;
0 -> 30 [labeldistance=2.5, labelangle=-45, headlabel="False"] ;
31 [label="stalk-surface-below-ring_s <= 0.5\ngini = 0.485\nsamples = 1986\nvalue = [1862, 1312]\nclass = 0", fillcolor="#f7dac5"] ;
30 -> 31 ;
32 [label="odor_f <= 0.5\ngini = 0.372\nsamples = 962\nvalue = [374, 1141]\nclass = 1", fillcolor="#7abdee"] ;
31 -> 32 ;
33 [label="habitat_d <= 0.5\ngini = 0.122\nsamples = 244\nvalue = [374, 26]\nclass = 0", fillcolor="#e78a47"] ;
32 -> 33 ;
34 [label="gini = 0.0\nsamples = 225\nvalue = [368, 0]\nclass = 0", fillcolor="#e58139"] ;
33 -> 34 ;
35 [label="cap-shape_x <= 0.5\ngini = 0.305\nsamples = 19\nvalue = [6, 26]\nclass = 1", fillcolor="#67b4eb"] ;
33 -> 35 ;
36 [label="cap-surface_s <= 0.5\ngini = 0.432\nsamples = 12\nvalue = [6, 13]\nclass = 1", fillcolor="#94caf1"] ;
35 -> 36 ;
37 [label="gini = 0.0\nsamples = 9\nvalue = [0, 13]\nclass = 1", fillcolor="#399de5"] ;
36 -> 37 ;
38 [label="gini = 0.0\nsamples = 3\nvalue = [6, 0]\nclass = 0", fillcolor="#e58139"] ;
36 -> 38 ;
39 [label="gini = 0.0\nsamples = 7\nvalue = [0, 13]\nclass = 1", fillcolor="#399de5"] ;
35 -> 39 ;
40 [label="gini = 0.0\nsamples = 718\nvalue = [0, 1115]\nclass = 1", fillcolor="#399de5"] ;
32 -> 40 ;
41 [label="cap-color_p <= 0.5\ngini = 0.185\nsamples = 1024\nvalue = [1488, 171]\nclass = 0", fillcolor="#e88f50"] ;
31 -> 41 ;
42 [label="spore-print-color_r <= 0.5\ngini = 0.168\nsamples = 989\nvalue = [1450, 148]\nclass = 0", fillcolor="#e88e4d"] ;
41 -> 42 ;
43 [label="stalk-surface-above-ring_f <= 0.5\ngini = 0.139\nsamples = 966\nvalue = [1450, 118]\nclass = 0", fillcolor="#e78b49"] ;
42 -> 43 ;
44 [label="cap-surface_s <= 0.5\ngini = 0.08\nsamples = 886\nvalue = [1379, 60]\nclass = 0", fillcolor="#e68642"] ;
43 -> 44 ;
45 [label="gini = 0.0\nsamples = 607\nvalue = [1005, 0]\nclass = 0", fillcolor="#e58139"] ;
44 -> 45 ;
46 [label="spore-print-color_h <= 0.5\ngini = 0.238\nsamples = 279\nvalue = [374, 60]\nclass = 0", fillcolor="#e99559"] ;
44 -> 46 ;
47 [label="gini = 0.0\nsamples = 239\nvalue = [374, 0]\nclass = 0", fillcolor="#e58139"] ;
46 -> 47 ;
48 [label="gini = 0.0\nsamples = 40\nvalue = [0, 60]\nclass = 1", fillcolor="#399de5"] ;
46 -> 48 ;
49 [label="gill-spacing_w <= 0.5\ngini = 0.495\nsamples = 80\nvalue = [71, 58]\nclass = 0", fillcolor="#fae8db"] ;
43 -> 49 ;
50 [label="gini = 0.0\nsamples = 34\nvalue = [0, 58]\nclass = 1", fillcolor="#399de5"] ;
49 -> 50 ;
51 [label="gini = 0.0\nsamples = 46\nvalue = [71, 0]\nclass = 0", fillcolor="#e58139"] ;
49 -> 51 ;
52 [label="gini = 0.0\nsamples = 23\nvalue = [0, 30]\nclass = 1", fillcolor="#399de5"] ;
42 -> 52 ;
53 [label="ring-type_e <= 0.5\ngini = 0.47\nsamples = 35\nvalue = [38, 23]\nclass = 0", fillcolor="#f5cdb1"] ;
41 -> 53 ;
54 [label="spore-print-color_r <= 0.5\ngini = 0.147\nsamples = 13\nvalue = [2, 23]\nclass = 1", fillcolor="#4aa6e7"] ;
53 -> 54 ;
55 [label="gini = 0.0\nsamples = 2\nvalue = [2, 0]\nclass = 0", fillcolor="#e58139"] ;
54 -> 55 ;
56 [label="gini = 0.0\nsamples = 11\nvalue = [0, 23]\nclass = 1", fillcolor="#399de5"] ;
54 -> 56 ;
57 [label="gini = 0.0\nsamples = 22\nvalue = [36, 0]\nclass = 0", fillcolor="#e58139"] ;
53 -> 57 ;
58 [label="gini = 0.0\nsamples = 840\nvalue = [1303, 0]\nclass = 0", fillcolor="#e58139"] ;
30 -> 58 ;
}