digraph Tree {
node [shape=box, style="filled, rounded", color="black", fontname="helvetica"] ;
edge [fontname="helvetica"] ;
0 [label="odor_f <= 0.5\ngini = 0.5\nsamples = 4068\nvalue = [3324, 3175]\nclass = 0", fillcolor="#fef9f6"] ;
1 [label="gill-color_b <= 0.5\ngini = 0.417\nsamples = 2966\nvalue = [3324, 1402]\nclass = 0", fillcolor="#f0b68d"] ;
0 -> 1 [labeldistance=2.5, labelangle=45, headlabel="True"] ;
2 [label="stalk-color-above-ring_w <= 0.5\ngini = 0.214\nsamples = 2375\nvalue = [3324, 462]\nclass = 0", fillcolor="#e99355"] ;
1 -> 2 ;
3 [label="stalk-root_c <= 0.5\ngini = 0.052\nsamples = 727\nvalue = [1127, 31]\nclass = 0", fillcolor="#e6843e"] ;
2 -> 3 ;
4 [label="gini = 0.0\nsamples = 708\nvalue = [1127, 0]\nclass = 0", fillcolor="#e58139"] ;
3 -> 4 ;
5 [label="gini = 0.0\nsamples = 19\nvalue = [0, 31]\nclass = 1", fillcolor="#399de5"] ;
3 -> 5 ;
6 [label="stalk-surface-below-ring_s <= 0.5\ngini = 0.274\nsamples = 1648\nvalue = [2197, 431]\nclass = 0", fillcolor="#ea9a60"] ;
2 -> 6 ;
7 [label="ring-type_p <= 0.5\ngini = 0.075\nsamples = 417\nvalue = [637, 26]\nclass = 0", fillcolor="#e68641"] ;
6 -> 7 ;
8 [label="stalk-shape_e <= 0.5\ngini = 0.125\nsamples = 242\nvalue = [361, 26]\nclass = 0", fillcolor="#e78a47"] ;
7 -> 8 ;
9 [label="gini = 0.0\nsamples = 193\nvalue = [303, 0]\nclass = 0", fillcolor="#e58139"] ;
8 -> 9 ;
10 [label="gill-color_w <= 0.5\ngini = 0.427\nsamples = 49\nvalue = [58, 26]\nclass = 0", fillcolor="#f1b992"] ;
8 -> 10 ;
11 [label="gini = 0.0\nsamples = 16\nvalue = [30, 0]\nclass = 0", fillcolor="#e58139"] ;
10 -> 11 ;
12 [label="gill-spacing_c <= 0.5\ngini = 0.499\nsamples = 33\nvalue = [28, 26]\nclass = 0", fillcolor="#fdf6f1"] ;
10 -> 12 ;
13 [label="gini = 0.0\nsamples = 9\nvalue = [20, 0]\nclass = 0", fillcolor="#e58139"] ;
12 -> 13 ;
14 [label="stalk-surface-below-ring_f <= 0.5\ngini = 0.36\nsamples = 24\nvalue = [8, 26]\nclass = 1", fillcolor="#76bbed"] ;
12 -> 14 ;
15 [label="gini = 0.0\nsamples = 18\nvalue = [0, 26]\nclass = 1", fillcolor="#399de5"] ;
14 -> 15 ;
16 [label="gini = 0.0\nsamples = 6\nvalue = [8, 0]\nclass = 0", fillcolor="#e58139"] ;
14 -> 16 ;
17 [label="gini = 0.0\nsamples = 175\nvalue = [276, 0]\nclass = 0", fillcolor="#e58139"] ;
7 -> 17 ;
18 [label="stalk-shape_t <= 0.5\ngini = 0.327\nsamples = 1231\nvalue = [1560, 405]\nclass = 0", fillcolor="#eca26c"] ;
6 -> 18 ;
19 [label="habitat_u <= 0.5\ngini = 0.46\nsamples = 710\nvalue = [723, 405]\nclass = 0", fillcolor="#f4c8a8"] ;
18 -> 19 ;
20 [label="stalk-root_b <= 0.5\ngini = 0.436\nsamples = 612\nvalue = [662, 313]\nclass = 0", fillcolor="#f1bd97"] ;
19 -> 20 ;
21 [label="gill-color_p <= 0.5\ngini = 0.248\nsamples = 452\nvalue = [618, 105]\nclass = 0", fillcolor="#e9965b"] ;
20 -> 21 ;
22 [label="odor_p <= 0.5\ngini = 0.212\nsamples = 420\nvalue = [590, 81]\nclass = 0", fillcolor="#e99254"] ;
21 -> 22 ;
23 [label="gini = 0.0\nsamples = 372\nvalue = [590, 0]\nclass = 0", fillcolor="#e58139"] ;
22 -> 23 ;
24 [label="gini = 0.0\nsamples = 48\nvalue = [0, 81]\nclass = 1", fillcolor="#399de5"] ;
22 -> 24 ;
25 [label="cap-shape_f <= 0.5\ngini = 0.497\nsamples = 32\nvalue = [28, 24]\nclass = 0", fillcolor="#fbede3"] ;
21 -> 25 ;
26 [label="odor_p <= 0.5\ngini = 0.47\nsamples = 29\nvalue = [28, 17]\nclass = 0", fillcolor="#f5ceb1"] ;
25 -> 26 ;
27 [label="gini = 0.0\nsamples = 19\nvalue = [28, 0]\nclass = 0", fillcolor="#e58139"] ;
26 -> 27 ;
28 [label="gini = 0.0\nsamples = 10\nvalue = [0, 17]\nclass = 1", fillcolor="#399de5"] ;
26 -> 28 ;
29 [label="gini = 0.0\nsamples = 3\nvalue = [0, 7]\nclass = 1", fillcolor="#399de5"] ;
25 -> 29 ;
30 [label="stalk-color-below-ring_w <= 0.5\ngini = 0.288\nsamples = 160\nvalue = [44, 208]\nclass = 1", fillcolor="#63b2ea"] ;
20 -> 30 ;
31 [label="gini = 0.0\nsamples = 10\nvalue = [15, 0]\nclass = 0", fillcolor="#e58139"] ;
30 -> 31 ;
32 [label="gill-size_b <= 0.5\ngini = 0.215\nsamples = 150\nvalue = [29, 208]\nclass = 1", fillcolor="#55abe9"] ;
30 -> 32 ;
33 [label="gini = 0.0\nsamples = 103\nvalue = [0, 154]\nclass = 1", fillcolor="#399de5"] ;
32 -> 33 ;
34 [label="gill-color_w <= 0.5\ngini = 0.455\nsamples = 47\nvalue = [29, 54]\nclass = 1", fillcolor="#a3d2f3"] ;
32 -> 34 ;
35 [label="gini = 0.0\nsamples = 23\nvalue = [0, 35]\nclass = 1", fillcolor="#399de5"] ;
34 -> 35 ;
36 [label="cap-color_w <= 0.5\ngini = 0.478\nsamples = 24\nvalue = [29, 19]\nclass = 0", fillcolor="#f6d4bb"] ;
34 -> 36 ;
37 [label="cap-shape_b <= 0.5\ngini = 0.381\nsamples = 20\nvalue = [29, 10]\nclass = 0", fillcolor="#eeac7d"] ;
36 -> 37 ;
38 [label="habitat_p <= 0.5\ngini = 0.064\nsamples = 15\nvalue = [29, 1]\nclass = 0", fillcolor="#e68540"] ;
37 -> 38 ;
39 [label="gini = 0.0\nsamples = 1\nvalue = [0, 1]\nclass = 1", fillcolor="#399de5"] ;
38 -> 39 ;
40 [label="gini = 0.0\nsamples = 14\nvalue = [29, 0]\nclass = 0", fillcolor="#e58139"] ;
38 -> 40 ;
41 [label="gini = 0.0\nsamples = 5\nvalue = [0, 9]\nclass = 1", fillcolor="#399de5"] ;
37 -> 41 ;
42 [label="gini = 0.0\nsamples = 4\nvalue = [0, 9]\nclass = 1", fillcolor="#399de5"] ;
36 -> 42 ;
43 [label="odor_p <= 0.5\ngini = 0.479\nsamples = 98\nvalue = [61, 92]\nclass = 1", fillcolor="#bcdef6"] ;
19 -> 43 ;
44 [label="gini = 0.0\nsamples = 39\nvalue = [61, 0]\nclass = 0", fillcolor="#e58139"] ;
43 -> 44 ;
45 [label="gini = 0.0\nsamples = 59\nvalue = [0, 92]\nclass = 1", fillcolor="#399de5"] ;
43 -> 45 ;
46 [label="gini = 0.0\nsamples = 521\nvalue = [837, 0]\nclass = 0", fillcolor="#e58139"] ;
18 -> 46 ;
47 [label="gini = 0.0\nsamples = 591\nvalue = [0, 940]\nclass = 1", fillcolor="#399de5"] ;
1 -> 47 ;
48 [label="gini = 0.0\nsamples = 1102\nvalue = [0, 1773]\nclass = 1", fillcolor="#399de5"] ;
0 -> 48 [labeldistance=2.5, labelangle=-45, headlabel="False"] ;
}