digraph Tree {
node [shape=box, style="filled, rounded", color="black", fontname="helvetica"] ;
edge [fontname="helvetica"] ;
0 [label="population_v <= 0.5\ngini = 0.5\nsamples = 4110\nvalue = [3323, 3176]\nclass = 0", fillcolor="#fef9f6"] ;
1 [label="stalk-color-below-ring_n <= 0.5\ngini = 0.392\nsamples = 2078\nvalue = [2416, 882]\nclass = 0", fillcolor="#eeaf81"] ;
0 -> 1 [labeldistance=2.5, labelangle=45, headlabel="True"] ;
2 [label="odor_n <= 0.5\ngini = 0.347\nsamples = 1954\nvalue = [2410, 693]\nclass = 0", fillcolor="#eca572"] ;
1 -> 2 ;
3 [label="stalk-root_c <= 0.5\ngini = 0.496\nsamples = 795\nvalue = [574, 683]\nclass = 1", fillcolor="#dfeffb"] ;
2 -> 3 ;
4 [label="bruises_t <= 0.5\ngini = 0.317\nsamples = 509\nvalue = [161, 655]\nclass = 1", fillcolor="#6ab5eb"] ;
3 -> 4 ;
5 [label="gini = 0.0\nsamples = 274\nvalue = [0, 438]\nclass = 1", fillcolor="#399de5"] ;
4 -> 5 ;
6 [label="spore-print-color_k <= 0.5\ngini = 0.489\nsamples = 235\nvalue = [161, 217]\nclass = 1", fillcolor="#cce6f8"] ;
4 -> 6 ;
7 [label="odor_p <= 0.5\ngini = 0.433\nsamples = 152\nvalue = [78, 168]\nclass = 1", fillcolor="#95caf1"] ;
6 -> 7 ;
8 [label="stalk-root_r <= 0.5\ngini = 0.478\nsamples = 122\nvalue = [78, 119]\nclass = 1", fillcolor="#bbddf6"] ;
7 -> 8 ;
9 [label="gini = 0.0\nsamples = 75\nvalue = [0, 119]\nclass = 1", fillcolor="#399de5"] ;
8 -> 9 ;
10 [label="gini = 0.0\nsamples = 47\nvalue = [78, 0]\nclass = 0", fillcolor="#e58139"] ;
8 -> 10 ;
11 [label="gini = 0.0\nsamples = 30\nvalue = [0, 49]\nclass = 1", fillcolor="#399de5"] ;
7 -> 11 ;
12 [label="habitat_p <= 0.5\ngini = 0.467\nsamples = 83\nvalue = [83, 49]\nclass = 0", fillcolor="#f4cbae"] ;
6 -> 12 ;
13 [label="cap-surface_y <= 0.5\ngini = 0.478\nsamples = 54\nvalue = [32, 49]\nclass = 1", fillcolor="#baddf6"] ;
12 -> 13 ;
14 [label="gini = 0.0\nsamples = 18\nvalue = [0, 28]\nclass = 1", fillcolor="#399de5"] ;
13 -> 14 ;
15 [label="cap-color_y <= 0.5\ngini = 0.478\nsamples = 36\nvalue = [32, 21]\nclass = 0", fillcolor="#f6d4bb"] ;
13 -> 15 ;
16 [label="odor_l <= 0.5\ngini = 0.48\nsamples = 24\nvalue = [14, 21]\nclass = 1", fillcolor="#bddef6"] ;
15 -> 16 ;
17 [label="odor_p <= 0.5\ngini = 0.42\nsamples = 19\nvalue = [9, 21]\nclass = 1", fillcolor="#8ec7f0"] ;
16 -> 17 ;
18 [label="gini = 0.0\nsamples = 5\nvalue = [9, 0]\nclass = 0", fillcolor="#e58139"] ;
17 -> 18 ;
19 [label="gini = 0.0\nsamples = 14\nvalue = [0, 21]\nclass = 1", fillcolor="#399de5"] ;
17 -> 19 ;
20 [label="gini = 0.0\nsamples = 5\nvalue = [5, 0]\nclass = 0", fillcolor="#e58139"] ;
16 -> 20 ;
21 [label="gini = 0.0\nsamples = 12\nvalue = [18, 0]\nclass = 0", fillcolor="#e58139"] ;
15 -> 21 ;
22 [label="gini = 0.0\nsamples = 29\nvalue = [51, 0]\nclass = 0", fillcolor="#e58139"] ;
12 -> 22 ;
23 [label="cap-color_c <= 0.5\ngini = 0.119\nsamples = 286\nvalue = [413, 28]\nclass = 0", fillcolor="#e78a46"] ;
3 -> 23 ;
24 [label="habitat_g <= 0.5\ngini = 0.084\nsamples = 280\nvalue = [413, 19]\nclass = 0", fillcolor="#e68742"] ;
23 -> 24 ;
25 [label="gill-attachment_f <= 0.5\ngini = 0.151\nsamples = 153\nvalue = [212, 19]\nclass = 0", fillcolor="#e78c4b"] ;
24 -> 25 ;
26 [label="gini = 0.0\nsamples = 7\nvalue = [0, 13]\nclass = 1", fillcolor="#399de5"] ;
25 -> 26 ;
27 [label="ring-type_n <= 0.5\ngini = 0.054\nsamples = 146\nvalue = [212, 6]\nclass = 0", fillcolor="#e6853f"] ;
25 -> 27 ;
28 [label="gini = 0.0\nsamples = 141\nvalue = [212, 0]\nclass = 0", fillcolor="#e58139"] ;
27 -> 28 ;
29 [label="gini = 0.0\nsamples = 5\nvalue = [0, 6]\nclass = 1", fillcolor="#399de5"] ;
27 -> 29 ;
30 [label="gini = 0.0\nsamples = 127\nvalue = [201, 0]\nclass = 0", fillcolor="#e58139"] ;
24 -> 30 ;
31 [label="gini = 0.0\nsamples = 6\nvalue = [0, 9]\nclass = 1", fillcolor="#399de5"] ;
23 -> 31 ;
32 [label="veil-color_y <= 0.5\ngini = 0.011\nsamples = 1159\nvalue = [1836, 10]\nclass = 0", fillcolor="#e5823a"] ;
2 -> 32 ;
33 [label="cap-color_g <= 0.5\ngini = 0.005\nsamples = 1156\nvalue = [1836, 5]\nclass = 0", fillcolor="#e5813a"] ;
32 -> 33 ;
34 [label="cap-shape_c <= 0.5\ngini = 0.008\nsamples = 800\nvalue = [1272, 5]\nclass = 0", fillcolor="#e5813a"] ;
33 -> 34 ;
35 [label="cap-surface_y <= 0.5\ngini = 0.005\nsamples = 799\nvalue = [1272, 3]\nclass = 0", fillcolor="#e58139"] ;
34 -> 35 ;
36 [label="gill-size_b <= 0.5\ngini = 0.002\nsamples = 600\nvalue = [955, 1]\nclass = 0", fillcolor="#e58139"] ;
35 -> 36 ;
37 [label="gill-spacing_w <= 0.5\ngini = 0.087\nsamples = 15\nvalue = [21, 1]\nclass = 0", fillcolor="#e68742"] ;
36 -> 37 ;
38 [label="gini = 0.0\nsamples = 14\nvalue = [21, 0]\nclass = 0", fillcolor="#e58139"] ;
37 -> 38 ;
39 [label="gini = 0.0\nsamples = 1\nvalue = [0, 1]\nclass = 1", fillcolor="#399de5"] ;
37 -> 39 ;
40 [label="gini = 0.0\nsamples = 585\nvalue = [934, 0]\nclass = 0", fillcolor="#e58139"] ;
36 -> 40 ;
41 [label="gill-size_n <= 0.5\ngini = 0.012\nsamples = 199\nvalue = [317, 2]\nclass = 0", fillcolor="#e5823a"] ;
35 -> 41 ;
42 [label="gini = 0.0\nsamples = 184\nvalue = [296, 0]\nclass = 0", fillcolor="#e58139"] ;
41 -> 42 ;
43 [label="bruises_f <= 0.5\ngini = 0.159\nsamples = 15\nvalue = [21, 2]\nclass = 0", fillcolor="#e78d4c"] ;
41 -> 43 ;
44 [label="gini = 0.0\nsamples = 2\nvalue = [0, 2]\nclass = 1", fillcolor="#399de5"] ;
43 -> 44 ;
45 [label="gini = 0.0\nsamples = 13\nvalue = [21, 0]\nclass = 0", fillcolor="#e58139"] ;
43 -> 45 ;
46 [label="gini = 0.0\nsamples = 1\nvalue = [0, 2]\nclass = 1", fillcolor="#399de5"] ;
34 -> 46 ;
47 [label="gini = 0.0\nsamples = 356\nvalue = [564, 0]\nclass = 0", fillcolor="#e58139"] ;
33 -> 47 ;
48 [label="gini = 0.0\nsamples = 3\nvalue = [0, 5]\nclass = 1", fillcolor="#399de5"] ;
32 -> 48 ;
49 [label="spore-print-color_h <= 0.5\ngini = 0.06\nsamples = 124\nvalue = [6, 189]\nclass = 1", fillcolor="#3fa0e6"] ;
1 -> 49 ;
50 [label="gini = 0.0\nsamples = 4\nvalue = [6, 0]\nclass = 0", fillcolor="#e58139"] ;
49 -> 50 ;
51 [label="gini = 0.0\nsamples = 120\nvalue = [0, 189]\nclass = 1", fillcolor="#399de5"] ;
49 -> 51 ;
52 [label="gill-color_b <= 0.5\ngini = 0.406\nsamples = 2032\nvalue = [907, 2294]\nclass = 1", fillcolor="#87c4ef"] ;
0 -> 52 [labeldistance=2.5, labelangle=-45, headlabel="False"] ;
53 [label="odor_f <= 0.5\ngini = 0.5\nsamples = 1129\nvalue = [907, 863]\nclass = 0", fillcolor="#fef9f5"] ;
52 -> 53 ;
54 [label="stalk-shape_e <= 0.5\ngini = 0.332\nsamples = 732\nvalue = [907, 241]\nclass = 0", fillcolor="#eca26e"] ;
53 -> 54 ;
55 [label="gini = 0.0\nsamples = 458\nvalue = [709, 0]\nclass = 0", fillcolor="#e58139"] ;
54 -> 55 ;
56 [label="habitat_l <= 0.5\ngini = 0.495\nsamples = 274\nvalue = [198, 241]\nclass = 1", fillcolor="#dceefa"] ;
54 -> 56 ;
57 [label="stalk-surface-below-ring_f <= 0.5\ngini = 0.379\nsamples = 204\nvalue = [82, 241]\nclass = 1", fillcolor="#7cbeee"] ;
56 -> 57 ;
58 [label="stalk-surface-below-ring_y <= 0.5\ngini = 0.306\nsamples = 189\nvalue = [56, 241]\nclass = 1", fillcolor="#67b4eb"] ;
57 -> 58 ;
59 [label="habitat_u <= 0.5\ngini = 0.325\nsamples = 172\nvalue = [56, 218]\nclass = 1", fillcolor="#6cb6ec"] ;
58 -> 59 ;
60 [label="cap-shape_b <= 0.5\ngini = 0.145\nsamples = 115\nvalue = [14, 164]\nclass = 1", fillcolor="#4aa5e7"] ;
59 -> 60 ;
61 [label="spore-print-color_w <= 0.5\ngini = 0.169\nsamples = 94\nvalue = [14, 136]\nclass = 1", fillcolor="#4da7e8"] ;
60 -> 61 ;
62 [label="gini = 0.0\nsamples = 86\nvalue = [0, 136]\nclass = 1", fillcolor="#399de5"] ;
61 -> 62 ;
63 [label="gini = 0.0\nsamples = 8\nvalue = [14, 0]\nclass = 0", fillcolor="#e58139"] ;
61 -> 63 ;
64 [label="gini = 0.0\nsamples = 21\nvalue = [0, 28]\nclass = 1", fillcolor="#399de5"] ;
60 -> 64 ;
65 [label="cap-surface_f <= 0.5\ngini = 0.492\nsamples = 57\nvalue = [42, 54]\nclass = 1", fillcolor="#d3e9f9"] ;
59 -> 65 ;
66 [label="gini = 0.0\nsamples = 33\nvalue = [0, 54]\nclass = 1", fillcolor="#399de5"] ;
65 -> 66 ;
67 [label="gini = 0.0\nsamples = 24\nvalue = [42, 0]\nclass = 0", fillcolor="#e58139"] ;
65 -> 67 ;
68 [label="gini = 0.0\nsamples = 17\nvalue = [0, 23]\nclass = 1", fillcolor="#399de5"] ;
58 -> 68 ;
69 [label="gini = 0.0\nsamples = 15\nvalue = [26, 0]\nclass = 0", fillcolor="#e58139"] ;
57 -> 69 ;
70 [label="gini = 0.0\nsamples = 70\nvalue = [116, 0]\nclass = 0", fillcolor="#e58139"] ;
56 -> 70 ;
71 [label="gini = 0.0\nsamples = 397\nvalue = [0, 622]\nclass = 1", fillcolor="#399de5"] ;
53 -> 71 ;
72 [label="gini = 0.0\nsamples = 903\nvalue = [0, 1431]\nclass = 1", fillcolor="#399de5"] ;
52 -> 72 ;
}