digraph Tree {
node [shape=box, style="filled, rounded", color="black", fontname="helvetica"] ;
edge [fontname="helvetica"] ;
0 [label="stalk-surface-below-ring_k <= 0.5\ngini = 0.5\nsamples = 4124\nvalue = [3349, 3150]\nclass = 0", fillcolor="#fdf8f3"] ;
1 [label="spore-print-color_w <= 0.5\ngini = 0.419\nsamples = 2951\nvalue = [3256, 1388]\nclass = 0", fillcolor="#f0b78d"] ;
0 -> 1 [labeldistance=2.5, labelangle=45, headlabel="True"] ;
2 [label="stalk-color-above-ring_w <= 0.5\ngini = 0.29\nsamples = 2241\nvalue = [2938, 628]\nclass = 0", fillcolor="#eb9c63"] ;
1 -> 2 ;
3 [label="gini = 0.0\nsamples = 658\nvalue = [1050, 0]\nclass = 0", fillcolor="#e58139"] ;
2 -> 3 ;
4 [label="population_v <= 0.5\ngini = 0.375\nsamples = 1583\nvalue = [1888, 628]\nclass = 0", fillcolor="#eeab7b"] ;
2 -> 4 ;
5 [label="ring-type_p <= 0.5\ngini = 0.274\nsamples = 1113\nvalue = [1492, 293]\nclass = 0", fillcolor="#ea9a60"] ;
4 -> 5 ;
6 [label="gini = 0.0\nsamples = 400\nvalue = [657, 0]\nclass = 0", fillcolor="#e58139"] ;
5 -> 6 ;
7 [label="population_y <= 0.5\ngini = 0.385\nsamples = 713\nvalue = [835, 293]\nclass = 0", fillcolor="#eead7e"] ;
5 -> 7 ;
8 [label="odor_a <= 0.5\ngini = 0.473\nsamples = 484\nvalue = [470, 293]\nclass = 0", fillcolor="#f5d0b4"] ;
7 -> 8 ;
9 [label="habitat_u <= 0.5\ngini = 0.496\nsamples = 333\nvalue = [244, 293]\nclass = 1", fillcolor="#deeffb"] ;
8 -> 9 ;
10 [label="stalk-root_e <= 0.5\ngini = 0.488\nsamples = 263\nvalue = [244, 178]\nclass = 0", fillcolor="#f8ddc9"] ;
9 -> 10 ;
11 [label="odor_f <= 0.5\ngini = 0.439\nsamples = 226\nvalue = [244, 118]\nclass = 0", fillcolor="#f2be99"] ;
10 -> 11 ;
12 [label="cap-color_y <= 0.5\ngini = 0.341\nsamples = 194\nvalue = [244, 68]\nclass = 0", fillcolor="#eca470"] ;
11 -> 12 ;
13 [label="bruises_f <= 0.5\ngini = 0.465\nsamples = 118\nvalue = [117, 68]\nclass = 0", fillcolor="#f4caac"] ;
12 -> 13 ;
14 [label="gini = 0.0\nsamples = 73\nvalue = [117, 0]\nclass = 0", fillcolor="#e58139"] ;
13 -> 14 ;
15 [label="gini = 0.0\nsamples = 45\nvalue = [0, 68]\nclass = 1", fillcolor="#399de5"] ;
13 -> 15 ;
16 [label="gini = 0.0\nsamples = 76\nvalue = [127, 0]\nclass = 0", fillcolor="#e58139"] ;
12 -> 16 ;
17 [label="gini = 0.0\nsamples = 32\nvalue = [0, 50]\nclass = 1", fillcolor="#399de5"] ;
11 -> 17 ;
18 [label="gini = 0.0\nsamples = 37\nvalue = [0, 60]\nclass = 1", fillcolor="#399de5"] ;
10 -> 18 ;
19 [label="gini = 0.0\nsamples = 70\nvalue = [0, 115]\nclass = 1", fillcolor="#399de5"] ;
9 -> 19 ;
20 [label="gini = 0.0\nsamples = 151\nvalue = [226, 0]\nclass = 0", fillcolor="#e58139"] ;
8 -> 20 ;
21 [label="gini = 0.0\nsamples = 229\nvalue = [365, 0]\nclass = 0", fillcolor="#e58139"] ;
7 -> 21 ;
22 [label="habitat_d <= 0.5\ngini = 0.497\nsamples = 470\nvalue = [396, 335]\nclass = 0", fillcolor="#fbece0"] ;
4 -> 22 ;
23 [label="cap-surface_f <= 0.5\ngini = 0.299\nsamples = 199\nvalue = [55, 245]\nclass = 1", fillcolor="#65b3eb"] ;
22 -> 23 ;
24 [label="gini = 0.0\nsamples = 169\nvalue = [0, 245]\nclass = 1", fillcolor="#399de5"] ;
23 -> 24 ;
25 [label="gini = 0.0\nsamples = 30\nvalue = [55, 0]\nclass = 0", fillcolor="#e58139"] ;
23 -> 25 ;
26 [label="odor_n <= 0.5\ngini = 0.33\nsamples = 271\nvalue = [341, 90]\nclass = 0", fillcolor="#eca26d"] ;
22 -> 26 ;
27 [label="odor_l <= 0.5\ngini = 0.498\nsamples = 105\nvalue = [79, 90]\nclass = 1", fillcolor="#e7f3fc"] ;
26 -> 27 ;
28 [label="spore-print-color_k <= 0.5\ngini = 0.375\nsamples = 79\nvalue = [30, 90]\nclass = 1", fillcolor="#7bbeee"] ;
27 -> 28 ;
29 [label="stalk-shape_e <= 0.5\ngini = 0.478\nsamples = 51\nvalue = [30, 46]\nclass = 1", fillcolor="#baddf6"] ;
28 -> 29 ;
30 [label="gini = 0.0\nsamples = 19\nvalue = [30, 0]\nclass = 0", fillcolor="#e58139"] ;
29 -> 30 ;
31 [label="gini = 0.0\nsamples = 32\nvalue = [0, 46]\nclass = 1", fillcolor="#399de5"] ;
29 -> 31 ;
32 [label="gini = 0.0\nsamples = 28\nvalue = [0, 44]\nclass = 1", fillcolor="#399de5"] ;
28 -> 32 ;
33 [label="gini = 0.0\nsamples = 26\nvalue = [49, 0]\nclass = 0", fillcolor="#e58139"] ;
27 -> 33 ;
34 [label="gini = 0.0\nsamples = 166\nvalue = [262, 0]\nclass = 0", fillcolor="#e58139"] ;
26 -> 34 ;
35 [label="odor_n <= 0.5\ngini = 0.416\nsamples = 710\nvalue = [318, 760]\nclass = 1", fillcolor="#8cc6f0"] ;
1 -> 35 ;
36 [label="gini = 0.0\nsamples = 472\nvalue = [0, 729]\nclass = 1", fillcolor="#399de5"] ;
35 -> 36 ;
37 [label="habitat_l <= 0.5\ngini = 0.162\nsamples = 238\nvalue = [318, 31]\nclass = 0", fillcolor="#e88d4c"] ;
35 -> 37 ;
38 [label="stalk-surface-below-ring_s <= 0.5\ngini = 0.104\nsamples = 206\nvalue = [293, 17]\nclass = 0", fillcolor="#e78844"] ;
37 -> 38 ;
39 [label="population_y <= 0.5\ngini = 0.435\nsamples = 18\nvalue = [8, 17]\nclass = 1", fillcolor="#96cbf1"] ;
38 -> 39 ;
40 [label="gini = 0.0\nsamples = 11\nvalue = [0, 17]\nclass = 1", fillcolor="#399de5"] ;
39 -> 40 ;
41 [label="gini = 0.0\nsamples = 7\nvalue = [8, 0]\nclass = 0", fillcolor="#e58139"] ;
39 -> 41 ;
42 [label="gini = 0.0\nsamples = 188\nvalue = [285, 0]\nclass = 0", fillcolor="#e58139"] ;
38 -> 42 ;
43 [label="gill-color_y <= 0.5\ngini = 0.46\nsamples = 32\nvalue = [25, 14]\nclass = 0", fillcolor="#f4c8a8"] ;
37 -> 43 ;
44 [label="population_v <= 0.5\ngini = 0.424\nsamples = 29\nvalue = [25, 11]\nclass = 0", fillcolor="#f0b890"] ;
43 -> 44 ;
45 [label="gini = 0.0\nsamples = 8\nvalue = [0, 11]\nclass = 1", fillcolor="#399de5"] ;
44 -> 45 ;
46 [label="gini = 0.0\nsamples = 21\nvalue = [25, 0]\nclass = 0", fillcolor="#e58139"] ;
44 -> 46 ;
47 [label="gini = 0.0\nsamples = 3\nvalue = [0, 3]\nclass = 1", fillcolor="#399de5"] ;
43 -> 47 ;
48 [label="stalk-surface-above-ring_s <= 0.5\ngini = 0.095\nsamples = 1173\nvalue = [93, 1762]\nclass = 1", fillcolor="#43a2e6"] ;
0 -> 48 [labeldistance=2.5, labelangle=-45, headlabel="False"] ;
49 [label="odor_f <= 0.5\ngini = 0.052\nsamples = 918\nvalue = [39, 1407]\nclass = 1", fillcolor="#3ea0e6"] ;
48 -> 49 ;
50 [label="habitat_g <= 0.5\ngini = 0.255\nsamples = 169\nvalue = [39, 221]\nclass = 1", fillcolor="#5caeea"] ;
49 -> 50 ;
51 [label="gini = 0.0\nsamples = 143\nvalue = [0, 221]\nclass = 1", fillcolor="#399de5"] ;
50 -> 51 ;
52 [label="gini = 0.0\nsamples = 26\nvalue = [39, 0]\nclass = 0", fillcolor="#e58139"] ;
50 -> 52 ;
53 [label="gini = 0.0\nsamples = 749\nvalue = [0, 1186]\nclass = 1", fillcolor="#399de5"] ;
49 -> 53 ;
54 [label="gill-size_b <= 0.5\ngini = 0.229\nsamples = 255\nvalue = [54, 355]\nclass = 1", fillcolor="#57ace9"] ;
48 -> 54 ;
55 [label="gini = 0.0\nsamples = 216\nvalue = [0, 355]\nclass = 1", fillcolor="#399de5"] ;
54 -> 55 ;
56 [label="gini = 0.0\nsamples = 39\nvalue = [54, 0]\nclass = 0", fillcolor="#e58139"] ;
54 -> 56 ;
}