digraph Tree {
node [shape=box, style="filled, rounded", color="black", fontname="helvetica"] ;
edge [fontname="helvetica"] ;
0 [label="gill-spacing_c <= 0.5\ngini = 0.499\nsamples = 4137\nvalue = [3409, 3090]\nclass = 0", fillcolor="#fdf3ec"] ;
1 [label="habitat_g <= 0.5\ngini = 0.171\nsamples = 663\nvalue = [968, 101]\nclass = 0", fillcolor="#e88e4e"] ;
0 -> 1 [labeldistance=2.5, labelangle=45, headlabel="True"] ;
2 [label="odor_c <= 0.5\ngini = 0.499\nsamples = 120\nvalue = [111, 101]\nclass = 0", fillcolor="#fdf4ed"] ;
1 -> 2 ;
3 [label="stalk-shape_e <= 0.5\ngini = 0.22\nsamples = 72\nvalue = [111, 16]\nclass = 0", fillcolor="#e99356"] ;
2 -> 3 ;
4 [label="gini = 0.0\nsamples = 45\nvalue = [70, 0]\nclass = 0", fillcolor="#e58139"] ;
3 -> 4 ;
5 [label="ring-type_p <= 0.5\ngini = 0.404\nsamples = 27\nvalue = [41, 16]\nclass = 0", fillcolor="#efb286"] ;
3 -> 5 ;
6 [label="cap-color_y <= 0.5\ngini = 0.249\nsamples = 24\nvalue = [41, 7]\nclass = 0", fillcolor="#e9975b"] ;
5 -> 6 ;
7 [label="gini = 0.0\nsamples = 21\nvalue = [41, 0]\nclass = 0", fillcolor="#e58139"] ;
6 -> 7 ;
8 [label="gini = 0.0\nsamples = 3\nvalue = [0, 7]\nclass = 1", fillcolor="#399de5"] ;
6 -> 8 ;
9 [label="gini = 0.0\nsamples = 3\nvalue = [0, 9]\nclass = 1", fillcolor="#399de5"] ;
5 -> 9 ;
10 [label="gini = 0.0\nsamples = 48\nvalue = [0, 85]\nclass = 1", fillcolor="#399de5"] ;
2 -> 10 ;
11 [label="gini = 0.0\nsamples = 543\nvalue = [857, 0]\nclass = 0", fillcolor="#e58139"] ;
1 -> 11 ;
12 [label="ring-type_p <= 0.5\ngini = 0.495\nsamples = 3474\nvalue = [2441, 2989]\nclass = 1", fillcolor="#dbedfa"] ;
0 -> 12 [labeldistance=2.5, labelangle=-45, headlabel="False"] ;
13 [label="bruises_f <= 0.5\ngini = 0.121\nsamples = 1681\nvalue = [169, 2448]\nclass = 1", fillcolor="#47a4e7"] ;
12 -> 13 ;
14 [label="gini = 0.0\nsamples = 84\nvalue = [135, 0]\nclass = 0", fillcolor="#e58139"] ;
13 -> 14 ;
15 [label="cap-color_w <= 0.5\ngini = 0.027\nsamples = 1597\nvalue = [34, 2448]\nclass = 1", fillcolor="#3c9ee5"] ;
13 -> 15 ;
16 [label="spore-print-color_w <= 0.5\ngini = 0.018\nsamples = 1589\nvalue = [23, 2448]\nclass = 1", fillcolor="#3b9ee5"] ;
15 -> 16 ;
17 [label="gill-size_b <= 0.5\ngini = 0.044\nsamples = 665\nvalue = [23, 1004]\nclass = 1", fillcolor="#3e9fe6"] ;
16 -> 17 ;
18 [label="gini = 0.0\nsamples = 17\nvalue = [23, 0]\nclass = 0", fillcolor="#e58139"] ;
17 -> 18 ;
19 [label="gini = 0.0\nsamples = 648\nvalue = [0, 1004]\nclass = 1", fillcolor="#399de5"] ;
17 -> 19 ;
20 [label="gini = 0.0\nsamples = 924\nvalue = [0, 1444]\nclass = 1", fillcolor="#399de5"] ;
16 -> 20 ;
21 [label="gini = 0.0\nsamples = 8\nvalue = [11, 0]\nclass = 0", fillcolor="#e58139"] ;
15 -> 21 ;
22 [label="stalk-color-above-ring_w <= 0.5\ngini = 0.311\nsamples = 1793\nvalue = [2272, 541]\nclass = 0", fillcolor="#eb9f68"] ;
12 -> 22 ;
23 [label="gini = 0.0\nsamples = 713\nvalue = [1123, 0]\nclass = 0", fillcolor="#e58139"] ;
22 -> 23 ;
24 [label="spore-print-color_h <= 0.5\ngini = 0.435\nsamples = 1080\nvalue = [1149, 541]\nclass = 0", fillcolor="#f1bc96"] ;
22 -> 24 ;
25 [label="stalk-shape_e <= 0.5\ngini = 0.337\nsamples = 939\nvalue = [1149, 314]\nclass = 0", fillcolor="#eca36f"] ;
24 -> 25 ;
26 [label="gini = 0.0\nsamples = 306\nvalue = [482, 0]\nclass = 0", fillcolor="#e58139"] ;
25 -> 26 ;
27 [label="stalk-root_c <= 0.5\ngini = 0.435\nsamples = 633\nvalue = [667, 314]\nclass = 0", fillcolor="#f1bc96"] ;
25 -> 27 ;
28 [label="stalk-root_r <= 0.5\ngini = 0.491\nsamples = 363\nvalue = [238, 314]\nclass = 1", fillcolor="#cfe7f9"] ;
27 -> 28 ;
29 [label="cap-surface_f <= 0.5\ngini = 0.368\nsamples = 276\nvalue = [101, 314]\nclass = 1", fillcolor="#79bded"] ;
28 -> 29 ;
30 [label="odor_p <= 0.5\ngini = 0.152\nsamples = 212\nvalue = [26, 287]\nclass = 1", fillcolor="#4ba6e7"] ;
29 -> 30 ;
31 [label="habitat_p <= 0.5\ngini = 0.318\nsamples = 82\nvalue = [26, 105]\nclass = 1", fillcolor="#6ab5eb"] ;
30 -> 31 ;
32 [label="gini = 0.0\nsamples = 67\nvalue = [0, 105]\nclass = 1", fillcolor="#399de5"] ;
31 -> 32 ;
33 [label="gini = 0.0\nsamples = 15\nvalue = [26, 0]\nclass = 0", fillcolor="#e58139"] ;
31 -> 33 ;
34 [label="gini = 0.0\nsamples = 130\nvalue = [0, 182]\nclass = 1", fillcolor="#399de5"] ;
30 -> 34 ;
35 [label="stalk-root_b <= 0.5\ngini = 0.389\nsamples = 64\nvalue = [75, 27]\nclass = 0", fillcolor="#eeae80"] ;
29 -> 35 ;
36 [label="gini = 0.0\nsamples = 45\nvalue = [75, 0]\nclass = 0", fillcolor="#e58139"] ;
35 -> 36 ;
37 [label="gini = 0.0\nsamples = 19\nvalue = [0, 27]\nclass = 1", fillcolor="#399de5"] ;
35 -> 37 ;
38 [label="gini = 0.0\nsamples = 87\nvalue = [137, 0]\nclass = 0", fillcolor="#e58139"] ;
28 -> 38 ;
39 [label="gini = 0.0\nsamples = 270\nvalue = [429, 0]\nclass = 0", fillcolor="#e58139"] ;
27 -> 39 ;
40 [label="gini = 0.0\nsamples = 141\nvalue = [0, 227]\nclass = 1", fillcolor="#399de5"] ;
24 -> 40 ;
}