digraph Tree {
node [shape=box, style="filled, rounded", color="black", fontname="helvetica"] ;
edge [fontname="helvetica"] ;
0 [label="gill-spacing_c <= 0.5\ngini = 0.499\nsamples = 4142\nvalue = [3425, 3074]\nclass = 0", fillcolor="#fcf2eb"] ;
1 [label="habitat_g <= 0.5\ngini = 0.126\nsamples = 691\nvalue = [1022, 74]\nclass = 0", fillcolor="#e78a47"] ;
0 -> 1 [labeldistance=2.5, labelangle=45, headlabel="True"] ;
2 [label="population_v <= 0.5\ngini = 0.483\nsamples = 117\nvalue = [107, 74]\nclass = 0", fillcolor="#f7d8c2"] ;
1 -> 2 ;
3 [label="gini = 0.0\nsamples = 28\nvalue = [0, 45]\nclass = 1", fillcolor="#399de5"] ;
2 -> 3 ;
4 [label="bruises_f <= 0.5\ngini = 0.336\nsamples = 89\nvalue = [107, 29]\nclass = 0", fillcolor="#eca36f"] ;
2 -> 4 ;
5 [label="gini = 0.0\nsamples = 47\nvalue = [76, 0]\nclass = 0", fillcolor="#e58139"] ;
4 -> 5 ;
6 [label="stalk-surface-below-ring_s <= 0.5\ngini = 0.499\nsamples = 42\nvalue = [31, 29]\nclass = 0", fillcolor="#fdf7f2"] ;
4 -> 6 ;
7 [label="gini = 0.0\nsamples = 11\nvalue = [17, 0]\nclass = 0", fillcolor="#e58139"] ;
6 -> 7 ;
8 [label="ring-type_e <= 0.5\ngini = 0.439\nsamples = 31\nvalue = [14, 29]\nclass = 1", fillcolor="#99ccf2"] ;
6 -> 8 ;
9 [label="gini = 0.0\nsamples = 21\nvalue = [0, 29]\nclass = 1", fillcolor="#399de5"] ;
8 -> 9 ;
10 [label="gini = 0.0\nsamples = 10\nvalue = [14, 0]\nclass = 0", fillcolor="#e58139"] ;
8 -> 10 ;
11 [label="gini = 0.0\nsamples = 574\nvalue = [915, 0]\nclass = 0", fillcolor="#e58139"] ;
1 -> 11 ;
12 [label="stalk-color-below-ring_b <= 0.5\ngini = 0.494\nsamples = 3451\nvalue = [2403, 3000]\nclass = 1", fillcolor="#d8ebfa"] ;
0 -> 12 [labeldistance=2.5, labelangle=-45, headlabel="False"] ;
13 [label="bruises_f <= 0.5\ngini = 0.498\nsamples = 3261\nvalue = [2403, 2702]\nclass = 1", fillcolor="#e9f4fc"] ;
12 -> 13 ;
14 [label="stalk-color-below-ring_g <= 0.5\ngini = 0.295\nsamples = 1648\nvalue = [2102, 460]\nclass = 0", fillcolor="#eb9d64"] ;
13 -> 14 ;
15 [label="spore-print-color_h <= 0.5\ngini = 0.339\nsamples = 1359\nvalue = [1669, 460]\nclass = 0", fillcolor="#eca470"] ;
14 -> 15 ;
16 [label="gill-size_n <= 0.5\ngini = 0.216\nsamples = 1208\nvalue = [1669, 234]\nclass = 0", fillcolor="#e99355"] ;
15 -> 16 ;
17 [label="stalk-color-above-ring_w <= 0.5\ngini = 0.053\nsamples = 1089\nvalue = [1669, 47]\nclass = 0", fillcolor="#e6853f"] ;
16 -> 17 ;
18 [label="gini = 0.0\nsamples = 430\nvalue = [684, 0]\nclass = 0", fillcolor="#e58139"] ;
17 -> 18 ;
19 [label="cap-shape_x <= 0.5\ngini = 0.087\nsamples = 659\nvalue = [985, 47]\nclass = 0", fillcolor="#e68742"] ;
17 -> 19 ;
20 [label="gill-color_r <= 0.5\ngini = 0.155\nsamples = 354\nvalue = [509, 47]\nclass = 0", fillcolor="#e78d4b"] ;
19 -> 20 ;
21 [label="odor_a <= 0.5\ngini = 0.099\nsamples = 342\nvalue = [509, 28]\nclass = 0", fillcolor="#e68844"] ;
20 -> 21 ;
22 [label="spore-print-color_k <= 0.5\ngini = 0.131\nsamples = 247\nvalue = [371, 28]\nclass = 0", fillcolor="#e78b48"] ;
21 -> 22 ;
23 [label="gill-color_g <= 0.5\ngini = 0.203\nsamples = 152\nvalue = [216, 28]\nclass = 0", fillcolor="#e89153"] ;
22 -> 23 ;
24 [label="ring-number_t <= 0.5\ngini = 0.134\nsamples = 137\nvalue = [206, 16]\nclass = 0", fillcolor="#e78b48"] ;
23 -> 24 ;
25 [label="gini = 0.0\nsamples = 84\nvalue = [137, 0]\nclass = 0", fillcolor="#e58139"] ;
24 -> 25 ;
26 [label="cap-shape_b <= 0.5\ngini = 0.306\nsamples = 53\nvalue = [69, 16]\nclass = 0", fillcolor="#eb9e67"] ;
24 -> 26 ;
27 [label="gill-color_e <= 0.5\ngini = 0.204\nsamples = 49\nvalue = [69, 9]\nclass = 0", fillcolor="#e89153"] ;
26 -> 27 ;
28 [label="population_v <= 0.5\ngini = 0.286\nsamples = 34\nvalue = [43, 9]\nclass = 0", fillcolor="#ea9b62"] ;
27 -> 28 ;
29 [label="gini = 0.0\nsamples = 23\nvalue = [34, 0]\nclass = 0", fillcolor="#e58139"] ;
28 -> 29 ;
30 [label="spore-print-color_r <= 0.5\ngini = 0.5\nsamples = 11\nvalue = [9, 9]\nclass = 0", fillcolor="#ffffff"] ;
28 -> 30 ;
31 [label="gini = 0.0\nsamples = 5\nvalue = [9, 0]\nclass = 0", fillcolor="#e58139"] ;
30 -> 31 ;
32 [label="gini = 0.0\nsamples = 6\nvalue = [0, 9]\nclass = 1", fillcolor="#399de5"] ;
30 -> 32 ;
33 [label="gini = 0.0\nsamples = 15\nvalue = [26, 0]\nclass = 0", fillcolor="#e58139"] ;
27 -> 33 ;
34 [label="gini = 0.0\nsamples = 4\nvalue = [0, 7]\nclass = 1", fillcolor="#399de5"] ;
26 -> 34 ;
35 [label="cap-color_y <= 0.5\ngini = 0.496\nsamples = 15\nvalue = [10, 12]\nclass = 1", fillcolor="#deeffb"] ;
23 -> 35 ;
36 [label="ring-number_o <= 0.5\ngini = 0.415\nsamples = 12\nvalue = [5, 12]\nclass = 1", fillcolor="#8bc6f0"] ;
35 -> 36 ;
37 [label="gini = 0.0\nsamples = 9\nvalue = [0, 12]\nclass = 1", fillcolor="#399de5"] ;
36 -> 37 ;
38 [label="gini = 0.0\nsamples = 3\nvalue = [5, 0]\nclass = 0", fillcolor="#e58139"] ;
36 -> 38 ;
39 [label="gini = 0.0\nsamples = 3\nvalue = [5, 0]\nclass = 0", fillcolor="#e58139"] ;
35 -> 39 ;
40 [label="gini = 0.0\nsamples = 95\nvalue = [155, 0]\nclass = 0", fillcolor="#e58139"] ;
22 -> 40 ;
41 [label="gini = 0.0\nsamples = 95\nvalue = [138, 0]\nclass = 0", fillcolor="#e58139"] ;
21 -> 41 ;
42 [label="gini = 0.0\nsamples = 12\nvalue = [0, 19]\nclass = 1", fillcolor="#399de5"] ;
20 -> 42 ;
43 [label="gini = 0.0\nsamples = 305\nvalue = [476, 0]\nclass = 0", fillcolor="#e58139"] ;
19 -> 43 ;
44 [label="gini = 0.0\nsamples = 119\nvalue = [0, 187]\nclass = 1", fillcolor="#399de5"] ;
16 -> 44 ;
45 [label="gini = 0.0\nsamples = 151\nvalue = [0, 226]\nclass = 1", fillcolor="#399de5"] ;
15 -> 45 ;
46 [label="gini = 0.0\nsamples = 289\nvalue = [433, 0]\nclass = 0", fillcolor="#e58139"] ;
14 -> 46 ;
47 [label="stalk-shape_e <= 0.5\ngini = 0.209\nsamples = 1613\nvalue = [301, 2242]\nclass = 1", fillcolor="#54aae8"] ;
13 -> 47 ;
48 [label="gini = 0.0\nsamples = 901\nvalue = [0, 1420]\nclass = 1", fillcolor="#399de5"] ;
47 -> 48 ;
49 [label="spore-print-color_h <= 0.5\ngini = 0.392\nsamples = 712\nvalue = [301, 822]\nclass = 1", fillcolor="#82c1ef"] ;
47 -> 49 ;
50 [label="habitat_d <= 0.5\ngini = 0.442\nsamples = 248\nvalue = [262, 129]\nclass = 0", fillcolor="#f2bf9a"] ;
49 -> 50 ;
51 [label="gini = 0.0\nsamples = 159\nvalue = [256, 0]\nclass = 0", fillcolor="#e58139"] ;
50 -> 51 ;
52 [label="stalk-surface-above-ring_s <= 0.5\ngini = 0.085\nsamples = 89\nvalue = [6, 129]\nclass = 1", fillcolor="#42a2e6"] ;
50 -> 52 ;
53 [label="population_y <= 0.5\ngini = 0.191\nsamples = 40\nvalue = [6, 50]\nclass = 1", fillcolor="#51a9e8"] ;
52 -> 53 ;
54 [label="gini = 0.0\nsamples = 37\nvalue = [0, 50]\nclass = 1", fillcolor="#399de5"] ;
53 -> 54 ;
55 [label="gini = 0.0\nsamples = 3\nvalue = [6, 0]\nclass = 0", fillcolor="#e58139"] ;
53 -> 55 ;
56 [label="gini = 0.0\nsamples = 49\nvalue = [0, 79]\nclass = 1", fillcolor="#399de5"] ;
52 -> 56 ;
57 [label="odor_n <= 0.5\ngini = 0.101\nsamples = 464\nvalue = [39, 693]\nclass = 1", fillcolor="#44a3e6"] ;
49 -> 57 ;
58 [label="gini = 0.0\nsamples = 440\nvalue = [0, 693]\nclass = 1", fillcolor="#399de5"] ;
57 -> 58 ;
59 [label="gini = 0.0\nsamples = 24\nvalue = [39, 0]\nclass = 0", fillcolor="#e58139"] ;
57 -> 59 ;
60 [label="gini = 0.0\nsamples = 190\nvalue = [0, 298]\nclass = 1", fillcolor="#399de5"] ;
12 -> 60 ;
}