digraph Tree {
node [shape=box, style="filled, rounded", color="black", fontname="helvetica"] ;
edge [fontname="helvetica"] ;
0 [label="spore-print-color_n <= 0.5\ngini = 0.499\nsamples = 4086\nvalue = [3402, 3097]\nclass = 0", fillcolor="#fdf4ed"] ;
1 [label="population_n <= 0.5\ngini = 0.483\nsamples = 3094\nvalue = [2011, 2927]\nclass = 1", fillcolor="#c1e0f7"] ;
0 -> 1 [labeldistance=2.5, labelangle=45, headlabel="True"] ;
2 [label="odor_f <= 0.5\ngini = 0.469\nsamples = 2949\nvalue = [1764, 2927]\nclass = 1", fillcolor="#b0d8f5"] ;
1 -> 2 ;
3 [label="ring-type_e <= 0.5\ngini = 0.481\nsamples = 1868\nvalue = [1764, 1188]\nclass = 0", fillcolor="#f7d6be"] ;
2 -> 3 ;
4 [label="stalk-color-above-ring_w <= 0.5\ngini = 0.284\nsamples = 953\nvalue = [1262, 261]\nclass = 0", fillcolor="#ea9b62"] ;
3 -> 4 ;
5 [label="stalk-surface-above-ring_k <= 0.5\ngini = 0.089\nsamples = 392\nvalue = [590, 29]\nclass = 0", fillcolor="#e68743"] ;
4 -> 5 ;
6 [label="gini = 0.0\nsamples = 375\nvalue = [590, 0]\nclass = 0", fillcolor="#e58139"] ;
5 -> 6 ;
7 [label="gini = 0.0\nsamples = 17\nvalue = [0, 29]\nclass = 1", fillcolor="#399de5"] ;
5 -> 7 ;
8 [label="gill-size_n <= 0.5\ngini = 0.382\nsamples = 561\nvalue = [672, 232]\nclass = 0", fillcolor="#eeac7d"] ;
4 -> 8 ;
9 [label="ring-number_o <= 0.5\ngini = 0.165\nsamples = 378\nvalue = [553, 55]\nclass = 0", fillcolor="#e88e4d"] ;
8 -> 9 ;
10 [label="stalk-surface-below-ring_k <= 0.5\ngini = 0.393\nsamples = 124\nvalue = [150, 55]\nclass = 0", fillcolor="#efaf82"] ;
9 -> 10 ;
11 [label="bruises_t <= 0.5\ngini = 0.477\nsamples = 83\nvalue = [85, 55]\nclass = 0", fillcolor="#f6d3b9"] ;
10 -> 11 ;
12 [label="gini = 0.0\nsamples = 34\nvalue = [59, 0]\nclass = 0", fillcolor="#e58139"] ;
11 -> 12 ;
13 [label="habitat_p <= 0.5\ngini = 0.436\nsamples = 49\nvalue = [26, 55]\nclass = 1", fillcolor="#97cbf1"] ;
11 -> 13 ;
14 [label="gini = 0.0\nsamples = 34\nvalue = [0, 55]\nclass = 1", fillcolor="#399de5"] ;
13 -> 14 ;
15 [label="gini = 0.0\nsamples = 15\nvalue = [26, 0]\nclass = 0", fillcolor="#e58139"] ;
13 -> 15 ;
16 [label="gini = 0.0\nsamples = 41\nvalue = [65, 0]\nclass = 0", fillcolor="#e58139"] ;
10 -> 16 ;
17 [label="gini = 0.0\nsamples = 254\nvalue = [403, 0]\nclass = 0", fillcolor="#e58139"] ;
9 -> 17 ;
18 [label="stalk-root_? <= 0.5\ngini = 0.481\nsamples = 183\nvalue = [119, 177]\nclass = 1", fillcolor="#bedff6"] ;
8 -> 18 ;
19 [label="spore-print-color_k <= 0.5\ngini = 0.413\nsamples = 158\nvalue = [73, 177]\nclass = 1", fillcolor="#8bc5f0"] ;
18 -> 19 ;
20 [label="population_v <= 0.5\ngini = 0.188\nsamples = 22\nvalue = [34, 4]\nclass = 0", fillcolor="#e89050"] ;
19 -> 20 ;
21 [label="gini = 0.0\nsamples = 2\nvalue = [0, 4]\nclass = 1", fillcolor="#399de5"] ;
20 -> 21 ;
22 [label="gini = 0.0\nsamples = 20\nvalue = [34, 0]\nclass = 0", fillcolor="#e58139"] ;
20 -> 22 ;
23 [label="bruises_t <= 0.5\ngini = 0.3\nsamples = 136\nvalue = [39, 173]\nclass = 1", fillcolor="#66b3eb"] ;
19 -> 23 ;
24 [label="odor_n <= 0.5\ngini = 0.454\nsamples = 69\nvalue = [39, 73]\nclass = 1", fillcolor="#a3d1f3"] ;
23 -> 24 ;
25 [label="gini = 0.0\nsamples = 46\nvalue = [0, 73]\nclass = 1", fillcolor="#399de5"] ;
24 -> 25 ;
26 [label="gini = 0.0\nsamples = 23\nvalue = [39, 0]\nclass = 0", fillcolor="#e58139"] ;
24 -> 26 ;
27 [label="gini = 0.0\nsamples = 67\nvalue = [0, 100]\nclass = 1", fillcolor="#399de5"] ;
23 -> 27 ;
28 [label="gini = 0.0\nsamples = 25\nvalue = [46, 0]\nclass = 0", fillcolor="#e58139"] ;
18 -> 28 ;
29 [label="gill-color_b <= 0.5\ngini = 0.456\nsamples = 915\nvalue = [502, 927]\nclass = 1", fillcolor="#a4d2f3"] ;
3 -> 29 ;
30 [label="stalk-color-below-ring_y <= 0.5\ngini = 0.09\nsamples = 337\nvalue = [502, 25]\nclass = 0", fillcolor="#e68743"] ;
29 -> 30 ;
31 [label="stalk-root_b <= 0.5\ngini = 0.035\nsamples = 324\nvalue = [502, 9]\nclass = 0", fillcolor="#e5833d"] ;
30 -> 31 ;
32 [label="population_v <= 0.5\ngini = 0.037\nsamples = 303\nvalue = [472, 9]\nclass = 0", fillcolor="#e5833d"] ;
31 -> 32 ;
33 [label="gini = 0.0\nsamples = 296\nvalue = [472, 0]\nclass = 0", fillcolor="#e58139"] ;
32 -> 33 ;
34 [label="gini = 0.0\nsamples = 7\nvalue = [0, 9]\nclass = 1", fillcolor="#399de5"] ;
32 -> 34 ;
35 [label="gini = 0.0\nsamples = 21\nvalue = [30, 0]\nclass = 0", fillcolor="#e58139"] ;
31 -> 35 ;
36 [label="gini = 0.0\nsamples = 13\nvalue = [0, 16]\nclass = 1", fillcolor="#399de5"] ;
30 -> 36 ;
37 [label="gini = 0.0\nsamples = 578\nvalue = [0, 902]\nclass = 1", fillcolor="#399de5"] ;
29 -> 37 ;
38 [label="gini = 0.0\nsamples = 1081\nvalue = [0, 1739]\nclass = 1", fillcolor="#399de5"] ;
2 -> 38 ;
39 [label="gini = 0.0\nsamples = 145\nvalue = [247, 0]\nclass = 0", fillcolor="#e58139"] ;
1 -> 39 ;
40 [label="population_s <= 0.5\ngini = 0.194\nsamples = 992\nvalue = [1391, 170]\nclass = 0", fillcolor="#e89051"] ;
0 -> 40 [labeldistance=2.5, labelangle=-45, headlabel="False"] ;
41 [label="habitat_u <= 0.5\ngini = 0.118\nsamples = 738\nvalue = [1070, 72]\nclass = 0", fillcolor="#e78946"] ;
40 -> 41 ;
42 [label="cap-color_p <= 0.5\ngini = 0.088\nsamples = 697\nvalue = [1034, 50]\nclass = 0", fillcolor="#e68743"] ;
41 -> 42 ;
43 [label="gill-color_g <= 0.5\ngini = 0.073\nsamples = 689\nvalue = [1034, 41]\nclass = 0", fillcolor="#e68641"] ;
42 -> 43 ;
44 [label="bruises_f <= 0.5\ngini = 0.067\nsamples = 666\nvalue = [1005, 36]\nclass = 0", fillcolor="#e68640"] ;
43 -> 44 ;
45 [label="population_v <= 0.5\ngini = 0.034\nsamples = 531\nvalue = [804, 14]\nclass = 0", fillcolor="#e5833c"] ;
44 -> 45 ;
46 [label="gini = 0.0\nsamples = 278\nvalue = [434, 0]\nclass = 0", fillcolor="#e58139"] ;
45 -> 46 ;
47 [label="gill-size_n <= 0.5\ngini = 0.07\nsamples = 253\nvalue = [370, 14]\nclass = 0", fillcolor="#e68640"] ;
45 -> 47 ;
48 [label="gini = 0.0\nsamples = 220\nvalue = [336, 0]\nclass = 0", fillcolor="#e58139"] ;
47 -> 48 ;
49 [label="cap-color_n <= 0.5\ngini = 0.413\nsamples = 33\nvalue = [34, 14]\nclass = 0", fillcolor="#f0b58b"] ;
47 -> 49 ;
50 [label="cap-surface_y <= 0.5\ngini = 0.386\nsamples = 31\nvalue = [34, 12]\nclass = 0", fillcolor="#eead7f"] ;
49 -> 50 ;
51 [label="stalk-shape_t <= 0.5\ngini = 0.188\nsamples = 27\nvalue = [34, 4]\nclass = 0", fillcolor="#e89050"] ;
50 -> 51 ;
52 [label="gini = 0.0\nsamples = 3\nvalue = [0, 4]\nclass = 1", fillcolor="#399de5"] ;
51 -> 52 ;
53 [label="gini = 0.0\nsamples = 24\nvalue = [34, 0]\nclass = 0", fillcolor="#e58139"] ;
51 -> 53 ;
54 [label="gini = 0.0\nsamples = 4\nvalue = [0, 8]\nclass = 1", fillcolor="#399de5"] ;
50 -> 54 ;
55 [label="gini = 0.0\nsamples = 2\nvalue = [0, 2]\nclass = 1", fillcolor="#399de5"] ;
49 -> 55 ;
56 [label="stalk-surface-above-ring_f <= 0.5\ngini = 0.178\nsamples = 135\nvalue = [201, 22]\nclass = 0", fillcolor="#e88f4f"] ;
44 -> 56 ;
57 [label="odor_c <= 0.5\ngini = 0.26\nsamples = 85\nvalue = [121, 22]\nclass = 0", fillcolor="#ea985d"] ;
56 -> 57 ;
58 [label="gini = 0.0\nsamples = 72\nvalue = [121, 0]\nclass = 0", fillcolor="#e58139"] ;
57 -> 58 ;
59 [label="gini = 0.0\nsamples = 13\nvalue = [0, 22]\nclass = 1", fillcolor="#399de5"] ;
57 -> 59 ;
60 [label="gini = 0.0\nsamples = 50\nvalue = [80, 0]\nclass = 0", fillcolor="#e58139"] ;
56 -> 60 ;
61 [label="bruises_f <= 0.5\ngini = 0.251\nsamples = 23\nvalue = [29, 5]\nclass = 0", fillcolor="#e9975b"] ;
43 -> 61 ;
62 [label="gini = 0.0\nsamples = 19\nvalue = [29, 0]\nclass = 0", fillcolor="#e58139"] ;
61 -> 62 ;
63 [label="gini = 0.0\nsamples = 4\nvalue = [0, 5]\nclass = 1", fillcolor="#399de5"] ;
61 -> 63 ;
64 [label="gini = 0.0\nsamples = 8\nvalue = [0, 9]\nclass = 1", fillcolor="#399de5"] ;
42 -> 64 ;
65 [label="bruises_t <= 0.5\ngini = 0.471\nsamples = 41\nvalue = [36, 22]\nclass = 0", fillcolor="#f5ceb2"] ;
41 -> 65 ;
66 [label="gini = 0.0\nsamples = 27\nvalue = [36, 0]\nclass = 0", fillcolor="#e58139"] ;
65 -> 66 ;
67 [label="gini = 0.0\nsamples = 14\nvalue = [0, 22]\nclass = 1", fillcolor="#399de5"] ;
65 -> 67 ;
68 [label="gill-spacing_c <= 0.5\ngini = 0.358\nsamples = 254\nvalue = [321, 98]\nclass = 0", fillcolor="#eda775"] ;
40 -> 68 ;
69 [label="odor_n <= 0.5\ngini = 0.138\nsamples = 105\nvalue = [161, 13]\nclass = 0", fillcolor="#e78b49"] ;
68 -> 69 ;
70 [label="gini = 0.0\nsamples = 8\nvalue = [0, 13]\nclass = 1", fillcolor="#399de5"] ;
69 -> 70 ;
71 [label="gini = 0.0\nsamples = 97\nvalue = [161, 0]\nclass = 0", fillcolor="#e58139"] ;
69 -> 71 ;
72 [label="gill-color_k <= 0.5\ngini = 0.453\nsamples = 149\nvalue = [160, 85]\nclass = 0", fillcolor="#f3c4a2"] ;
68 -> 72 ;
73 [label="gill-size_n <= 0.5\ngini = 0.44\nsamples = 124\nvalue = [140, 68]\nclass = 0", fillcolor="#f2be99"] ;
72 -> 73 ;
74 [label="gini = 0.0\nsamples = 82\nvalue = [140, 0]\nclass = 0", fillcolor="#e58139"] ;
73 -> 74 ;
75 [label="gini = 0.0\nsamples = 42\nvalue = [0, 68]\nclass = 1", fillcolor="#399de5"] ;
73 -> 75 ;
76 [label="cap-shape_f <= 0.5\ngini = 0.497\nsamples = 25\nvalue = [20, 17]\nclass = 0", fillcolor="#fbece1"] ;
72 -> 76 ;
77 [label="cap-color_n <= 0.5\ngini = 0.428\nsamples = 20\nvalue = [20, 9]\nclass = 0", fillcolor="#f1ba92"] ;
76 -> 77 ;
78 [label="stalk-root_e <= 0.5\ngini = 0.278\nsamples = 17\nvalue = [20, 4]\nclass = 0", fillcolor="#ea9a61"] ;
77 -> 78 ;
79 [label="gini = 0.0\nsamples = 14\nvalue = [20, 0]\nclass = 0", fillcolor="#e58139"] ;
78 -> 79 ;
80 [label="gini = 0.0\nsamples = 3\nvalue = [0, 4]\nclass = 1", fillcolor="#399de5"] ;
78 -> 80 ;
81 [label="gini = 0.0\nsamples = 3\nvalue = [0, 5]\nclass = 1", fillcolor="#399de5"] ;
77 -> 81 ;
82 [label="gini = 0.0\nsamples = 5\nvalue = [0, 8]\nclass = 1", fillcolor="#399de5"] ;
76 -> 82 ;
}