digraph Tree {
node [shape=box, style="filled, rounded", color="black", fontname="helvetica"] ;
edge [fontname="helvetica"] ;
0 [label="population_v <= 0.5\ngini = 0.499\nsamples = 4089\nvalue = [3415, 3084]\nclass = 0", fillcolor="#fcf3ec"] ;
1 [label="stalk-color-above-ring_n <= 0.5\ngini = 0.377\nsamples = 2052\nvalue = [2472, 834]\nclass = 0", fillcolor="#eeac7c"] ;
0 -> 1 [labeldistance=2.5, labelangle=45, headlabel="True"] ;
2 [label="odor_p <= 0.5\ngini = 0.334\nsamples = 1935\nvalue = [2461, 662]\nclass = 0", fillcolor="#eca36e"] ;
1 -> 2 ;
3 [label="ring-type_l <= 0.5\ngini = 0.304\nsamples = 1873\nvalue = [2461, 566]\nclass = 0", fillcolor="#eb9e67"] ;
2 -> 3 ;
4 [label="odor_n <= 0.5\ngini = 0.159\nsamples = 1660\nvalue = [2461, 235]\nclass = 0", fillcolor="#e78d4c"] ;
3 -> 4 ;
5 [label="odor_l <= 0.5\ngini = 0.405\nsamples = 499\nvalue = [567, 223]\nclass = 0", fillcolor="#efb387"] ;
4 -> 5 ;
6 [label="stalk-shape_t <= 0.5\ngini = 0.491\nsamples = 325\nvalue = [290, 223]\nclass = 0", fillcolor="#f9e2d1"] ;
5 -> 6 ;
7 [label="stalk-root_b <= 0.5\ngini = 0.402\nsamples = 249\nvalue = [290, 112]\nclass = 0", fillcolor="#efb285"] ;
6 -> 7 ;
8 [label="gill-attachment_f <= 0.5\ngini = 0.205\nsamples = 198\nvalue = [290, 38]\nclass = 0", fillcolor="#e89253"] ;
7 -> 8 ;
9 [label="gini = 0.0\nsamples = 11\nvalue = [0, 20]\nclass = 1", fillcolor="#399de5"] ;
8 -> 9 ;
10 [label="stalk-surface-above-ring_k <= 0.5\ngini = 0.11\nsamples = 187\nvalue = [290, 18]\nclass = 0", fillcolor="#e78945"] ;
8 -> 10 ;
11 [label="gini = 0.0\nsamples = 177\nvalue = [290, 0]\nclass = 0", fillcolor="#e58139"] ;
10 -> 11 ;
12 [label="gini = 0.0\nsamples = 10\nvalue = [0, 18]\nclass = 1", fillcolor="#399de5"] ;
10 -> 12 ;
13 [label="gini = 0.0\nsamples = 51\nvalue = [0, 74]\nclass = 1", fillcolor="#399de5"] ;
7 -> 13 ;
14 [label="gini = 0.0\nsamples = 76\nvalue = [0, 111]\nclass = 1", fillcolor="#399de5"] ;
6 -> 14 ;
15 [label="gini = 0.0\nsamples = 174\nvalue = [277, 0]\nclass = 0", fillcolor="#e58139"] ;
5 -> 15 ;
16 [label="cap-surface_y <= 0.5\ngini = 0.013\nsamples = 1161\nvalue = [1894, 12]\nclass = 0", fillcolor="#e5823a"] ;
4 -> 16 ;
17 [label="habitat_l <= 0.5\ngini = 0.001\nsamples = 895\nvalue = [1451, 1]\nclass = 0", fillcolor="#e58139"] ;
16 -> 17 ;
18 [label="gini = 0.0\nsamples = 853\nvalue = [1379, 0]\nclass = 0", fillcolor="#e58139"] ;
17 -> 18 ;
19 [label="stalk-color-above-ring_o <= 0.5\ngini = 0.027\nsamples = 42\nvalue = [72, 1]\nclass = 0", fillcolor="#e5833c"] ;
17 -> 19 ;
20 [label="gini = 0.0\nsamples = 1\nvalue = [0, 1]\nclass = 1", fillcolor="#399de5"] ;
19 -> 20 ;
21 [label="gini = 0.0\nsamples = 41\nvalue = [72, 0]\nclass = 0", fillcolor="#e58139"] ;
19 -> 21 ;
22 [label="gill-spacing_c <= 0.5\ngini = 0.047\nsamples = 266\nvalue = [443, 11]\nclass = 0", fillcolor="#e6843e"] ;
16 -> 22 ;
23 [label="gini = 0.0\nsamples = 5\nvalue = [0, 11]\nclass = 1", fillcolor="#399de5"] ;
22 -> 23 ;
24 [label="gini = 0.0\nsamples = 261\nvalue = [443, 0]\nclass = 0", fillcolor="#e58139"] ;
22 -> 24 ;
25 [label="gini = 0.0\nsamples = 213\nvalue = [0, 331]\nclass = 1", fillcolor="#399de5"] ;
3 -> 25 ;
26 [label="gini = 0.0\nsamples = 62\nvalue = [0, 96]\nclass = 1", fillcolor="#399de5"] ;
2 -> 26 ;
27 [label="ring-number_t <= 0.5\ngini = 0.113\nsamples = 117\nvalue = [11, 172]\nclass = 1", fillcolor="#46a3e7"] ;
1 -> 27 ;
28 [label="gini = 0.0\nsamples = 108\nvalue = [0, 172]\nclass = 1", fillcolor="#399de5"] ;
27 -> 28 ;
29 [label="gini = 0.0\nsamples = 9\nvalue = [11, 0]\nclass = 0", fillcolor="#e58139"] ;
27 -> 29 ;
30 [label="ring-type_p <= 0.5\ngini = 0.416\nsamples = 2037\nvalue = [943, 2250]\nclass = 1", fillcolor="#8cc6f0"] ;
0 -> 30 [labeldistance=2.5, labelangle=-45, headlabel="False"] ;
31 [label="cap-color_w <= 0.5\ngini = 0.046\nsamples = 1260\nvalue = [46, 1916]\nclass = 1", fillcolor="#3e9fe6"] ;
30 -> 31 ;
32 [label="gill-spacing_w <= 0.5\ngini = 0.039\nsamples = 1255\nvalue = [39, 1916]\nclass = 1", fillcolor="#3d9fe6"] ;
31 -> 32 ;
33 [label="spore-print-color_h <= 0.5\ngini = 0.017\nsamples = 1241\nvalue = [17, 1916]\nclass = 1", fillcolor="#3b9ee5"] ;
32 -> 33 ;
34 [label="gini = 0.0\nsamples = 903\nvalue = [0, 1396]\nclass = 1", fillcolor="#399de5"] ;
33 -> 34 ;
35 [label="stalk-surface-below-ring_k <= 0.5\ngini = 0.061\nsamples = 338\nvalue = [17, 520]\nclass = 1", fillcolor="#3fa0e6"] ;
33 -> 35 ;
36 [label="gini = 0.0\nsamples = 9\nvalue = [17, 0]\nclass = 0", fillcolor="#e58139"] ;
35 -> 36 ;
37 [label="gini = 0.0\nsamples = 329\nvalue = [0, 520]\nclass = 1", fillcolor="#399de5"] ;
35 -> 37 ;
38 [label="gini = 0.0\nsamples = 14\nvalue = [22, 0]\nclass = 0", fillcolor="#e58139"] ;
32 -> 38 ;
39 [label="gini = 0.0\nsamples = 5\nvalue = [7, 0]\nclass = 0", fillcolor="#e58139"] ;
31 -> 39 ;
40 [label="cap-surface_s <= 0.5\ngini = 0.395\nsamples = 777\nvalue = [897, 334]\nclass = 0", fillcolor="#efb083"] ;
30 -> 40 ;
41 [label="habitat_d <= 0.5\ngini = 0.23\nsamples = 563\nvalue = [777, 119]\nclass = 0", fillcolor="#e99457"] ;
40 -> 41 ;
42 [label="odor_p <= 0.5\ngini = 0.419\nsamples = 84\nvalue = [41, 96]\nclass = 1", fillcolor="#8ec7f0"] ;
41 -> 42 ;
43 [label="stalk-root_e <= 0.5\ngini = 0.482\nsamples = 46\nvalue = [41, 28]\nclass = 0", fillcolor="#f7d7c0"] ;
42 -> 43 ;
44 [label="cap-color_c <= 0.5\ngini = 0.257\nsamples = 24\nvalue = [5, 28]\nclass = 1", fillcolor="#5caeea"] ;
43 -> 44 ;
45 [label="cap-shape_f <= 0.5\ngini = 0.219\nsamples = 23\nvalue = [4, 28]\nclass = 1", fillcolor="#55abe9"] ;
44 -> 45 ;
46 [label="cap-color_w <= 0.5\ngini = 0.337\nsamples = 12\nvalue = [3, 11]\nclass = 1", fillcolor="#6fb8ec"] ;
45 -> 46 ;
47 [label="habitat_m <= 0.5\ngini = 0.444\nsamples = 8\nvalue = [3, 6]\nclass = 1", fillcolor="#9ccef2"] ;
46 -> 47 ;
48 [label="cap-color_b <= 0.5\ngini = 0.48\nsamples = 4\nvalue = [3, 2]\nclass = 0", fillcolor="#f6d5bd"] ;
47 -> 48 ;
49 [label="gill-color_g <= 0.5\ngini = 0.375\nsamples = 3\nvalue = [3, 1]\nclass = 0", fillcolor="#eeab7b"] ;
48 -> 49 ;
50 [label="gini = 0.0\nsamples = 2\nvalue = [3, 0]\nclass = 0", fillcolor="#e58139"] ;
49 -> 50 ;
51 [label="gini = 0.0\nsamples = 1\nvalue = [0, 1]\nclass = 1", fillcolor="#399de5"] ;
49 -> 51 ;
52 [label="gini = 0.0\nsamples = 1\nvalue = [0, 1]\nclass = 1", fillcolor="#399de5"] ;
48 -> 52 ;
53 [label="gini = 0.0\nsamples = 4\nvalue = [0, 4]\nclass = 1", fillcolor="#399de5"] ;
47 -> 53 ;
54 [label="gini = 0.0\nsamples = 4\nvalue = [0, 5]\nclass = 1", fillcolor="#399de5"] ;
46 -> 54 ;
55 [label="cap-color_b <= 0.5\ngini = 0.105\nsamples = 11\nvalue = [1, 17]\nclass = 1", fillcolor="#45a3e7"] ;
45 -> 55 ;
56 [label="gill-color_w <= 0.5\ngini = 0.153\nsamples = 8\nvalue = [1, 11]\nclass = 1", fillcolor="#4ba6e7"] ;
55 -> 56 ;
57 [label="gini = 0.0\nsamples = 6\nvalue = [0, 9]\nclass = 1", fillcolor="#399de5"] ;
56 -> 57 ;
58 [label="habitat_m <= 0.5\ngini = 0.444\nsamples = 2\nvalue = [1, 2]\nclass = 1", fillcolor="#9ccef2"] ;
56 -> 58 ;
59 [label="gini = 0.0\nsamples = 1\nvalue = [1, 0]\nclass = 0", fillcolor="#e58139"] ;
58 -> 59 ;
60 [label="gini = 0.0\nsamples = 1\nvalue = [0, 2]\nclass = 1", fillcolor="#399de5"] ;
58 -> 60 ;
61 [label="gini = 0.0\nsamples = 3\nvalue = [0, 6]\nclass = 1", fillcolor="#399de5"] ;
55 -> 61 ;
62 [label="gini = 0.0\nsamples = 1\nvalue = [1, 0]\nclass = 0", fillcolor="#e58139"] ;
44 -> 62 ;
63 [label="gini = 0.0\nsamples = 22\nvalue = [36, 0]\nclass = 0", fillcolor="#e58139"] ;
43 -> 63 ;
64 [label="gini = 0.0\nsamples = 38\nvalue = [0, 68]\nclass = 1", fillcolor="#399de5"] ;
42 -> 64 ;
65 [label="cap-color_p <= 0.5\ngini = 0.059\nsamples = 479\nvalue = [736, 23]\nclass = 0", fillcolor="#e6853f"] ;
41 -> 65 ;
66 [label="gill-size_n <= 0.5\ngini = 0.042\nsamples = 472\nvalue = [736, 16]\nclass = 0", fillcolor="#e6843d"] ;
65 -> 66 ;
67 [label="gini = 0.0\nsamples = 437\nvalue = [697, 0]\nclass = 0", fillcolor="#e58139"] ;
66 -> 67 ;
68 [label="bruises_t <= 0.5\ngini = 0.413\nsamples = 35\nvalue = [39, 16]\nclass = 0", fillcolor="#f0b58a"] ;
66 -> 68 ;
69 [label="gini = 0.0\nsamples = 11\nvalue = [0, 16]\nclass = 1", fillcolor="#399de5"] ;
68 -> 69 ;
70 [label="gini = 0.0\nsamples = 24\nvalue = [39, 0]\nclass = 0", fillcolor="#e58139"] ;
68 -> 70 ;
71 [label="gini = 0.0\nsamples = 7\nvalue = [0, 7]\nclass = 1", fillcolor="#399de5"] ;
65 -> 71 ;
72 [label="stalk-root_? <= 0.5\ngini = 0.46\nsamples = 214\nvalue = [120, 215]\nclass = 1", fillcolor="#a8d4f4"] ;
40 -> 72 ;
73 [label="stalk-shape_t <= 0.5\ngini = 0.251\nsamples = 164\nvalue = [37, 215]\nclass = 1", fillcolor="#5baee9"] ;
72 -> 73 ;
74 [label="gill-size_n <= 0.5\ngini = 0.097\nsamples = 74\nvalue = [6, 111]\nclass = 1", fillcolor="#44a2e6"] ;
73 -> 74 ;
75 [label="spore-print-color_w <= 0.5\ngini = 0.26\nsamples = 22\nvalue = [6, 33]\nclass = 1", fillcolor="#5dafea"] ;
74 -> 75 ;
76 [label="gini = 0.0\nsamples = 17\nvalue = [0, 33]\nclass = 1", fillcolor="#399de5"] ;
75 -> 76 ;
77 [label="gini = 0.0\nsamples = 5\nvalue = [6, 0]\nclass = 0", fillcolor="#e58139"] ;
75 -> 77 ;
78 [label="gini = 0.0\nsamples = 52\nvalue = [0, 78]\nclass = 1", fillcolor="#399de5"] ;
74 -> 78 ;
79 [label="odor_f <= 0.5\ngini = 0.354\nsamples = 90\nvalue = [31, 104]\nclass = 1", fillcolor="#74baed"] ;
73 -> 79 ;
80 [label="gini = 0.0\nsamples = 23\nvalue = [31, 0]\nclass = 0", fillcolor="#e58139"] ;
79 -> 80 ;
81 [label="gini = 0.0\nsamples = 67\nvalue = [0, 104]\nclass = 1", fillcolor="#399de5"] ;
79 -> 81 ;
82 [label="gini = 0.0\nsamples = 50\nvalue = [83, 0]\nclass = 0", fillcolor="#e58139"] ;
72 -> 82 ;
}