digraph Tree {
node [shape=box, style="filled, rounded", color="black", fontname="helvetica"] ;
edge [fontname="helvetica"] ;
0 [label="stalk-surface-below-ring_k <= 0.5\ngini = 0.5\nsamples = 4078\nvalue = [3291, 3208]\nclass = 0", fillcolor="#fefcfa"] ;
1 [label="odor_f <= 0.5\ngini = 0.429\nsamples = 2888\nvalue = [3169, 1432]\nclass = 0", fillcolor="#f1ba92"] ;
0 -> 1 [labeldistance=2.5, labelangle=45, headlabel="True"] ;
2 [label="ring-type_p <= 0.5\ngini = 0.359\nsamples = 2599\nvalue = [3169, 970]\nclass = 0", fillcolor="#eda876"] ;
1 -> 2 ;
3 [label="stalk-color-above-ring_p <= 0.5\ngini = 0.482\nsamples = 872\nvalue = [821, 559]\nclass = 0", fillcolor="#f7d7c0"] ;
2 -> 3 ;
4 [label="stalk-color-below-ring_p <= 0.5\ngini = 0.396\nsamples = 717\nvalue = [821, 307]\nclass = 0", fillcolor="#efb083"] ;
3 -> 4 ;
5 [label="odor_n <= 0.5\ngini = 0.312\nsamples = 647\nvalue = [821, 197]\nclass = 0", fillcolor="#eb9f69"] ;
4 -> 5 ;
6 [label="gini = 0.0\nsamples = 100\nvalue = [0, 166]\nclass = 1", fillcolor="#399de5"] ;
5 -> 6 ;
7 [label="gill-size_b <= 0.5\ngini = 0.07\nsamples = 547\nvalue = [821, 31]\nclass = 0", fillcolor="#e68640"] ;
5 -> 7 ;
8 [label="stalk-surface-above-ring_k <= 0.5\ngini = 0.475\nsamples = 58\nvalue = [49, 31]\nclass = 0", fillcolor="#f5d1b6"] ;
7 -> 8 ;
9 [label="stalk-color-above-ring_w <= 0.5\ngini = 0.194\nsamples = 41\nvalue = [49, 6]\nclass = 0", fillcolor="#e89051"] ;
8 -> 9 ;
10 [label="gini = 0.0\nsamples = 3\nvalue = [0, 6]\nclass = 1", fillcolor="#399de5"] ;
9 -> 10 ;
11 [label="gini = 0.0\nsamples = 38\nvalue = [49, 0]\nclass = 0", fillcolor="#e58139"] ;
9 -> 11 ;
12 [label="gini = 0.0\nsamples = 17\nvalue = [0, 25]\nclass = 1", fillcolor="#399de5"] ;
8 -> 12 ;
13 [label="gini = 0.0\nsamples = 489\nvalue = [772, 0]\nclass = 0", fillcolor="#e58139"] ;
7 -> 13 ;
14 [label="gini = 0.0\nsamples = 70\nvalue = [0, 110]\nclass = 1", fillcolor="#399de5"] ;
4 -> 14 ;
15 [label="gini = 0.0\nsamples = 155\nvalue = [0, 252]\nclass = 1", fillcolor="#399de5"] ;
3 -> 15 ;
16 [label="stalk-shape_t <= 0.5\ngini = 0.254\nsamples = 1727\nvalue = [2348, 411]\nclass = 0", fillcolor="#ea975c"] ;
2 -> 16 ;
17 [label="cap-color_p <= 0.5\ngini = 0.423\nsamples = 845\nvalue = [943, 411]\nclass = 0", fillcolor="#f0b88f"] ;
16 -> 17 ;
18 [label="population_n <= 0.5\ngini = 0.389\nsamples = 795\nvalue = [939, 337]\nclass = 0", fillcolor="#eeae80"] ;
17 -> 18 ;
19 [label="stalk-root_r <= 0.5\ngini = 0.444\nsamples = 625\nvalue = [677, 337]\nclass = 0", fillcolor="#f2c09c"] ;
18 -> 19 ;
20 [label="bruises_f <= 0.5\ngini = 0.473\nsamples = 535\nvalue = [540, 337]\nclass = 0", fillcolor="#f5d0b5"] ;
19 -> 20 ;
21 [label="stalk-root_e <= 0.5\ngini = 0.5\nsamples = 284\nvalue = [226, 231]\nclass = 1", fillcolor="#fbfdfe"] ;
20 -> 21 ;
22 [label="cap-color_b <= 0.5\ngini = 0.242\nsamples = 164\nvalue = [226, 37]\nclass = 0", fillcolor="#e99659"] ;
21 -> 22 ;
23 [label="odor_n <= 0.5\ngini = 0.143\nsamples = 151\nvalue = [226, 19]\nclass = 0", fillcolor="#e78c4a"] ;
22 -> 23 ;
24 [label="gini = 0.0\nsamples = 127\nvalue = [209, 0]\nclass = 0", fillcolor="#e58139"] ;
23 -> 24 ;
25 [label="cap-shape_b <= 0.5\ngini = 0.498\nsamples = 24\nvalue = [17, 19]\nclass = 1", fillcolor="#eaf5fc"] ;
23 -> 25 ;
26 [label="spore-print-color_w <= 0.5\ngini = 0.495\nsamples = 20\nvalue = [17, 14]\nclass = 0", fillcolor="#fae9dc"] ;
25 -> 26 ;
27 [label="gini = 0.0\nsamples = 7\nvalue = [0, 12]\nclass = 1", fillcolor="#399de5"] ;
26 -> 27 ;
28 [label="population_c <= 0.5\ngini = 0.188\nsamples = 13\nvalue = [17, 2]\nclass = 0", fillcolor="#e89050"] ;
26 -> 28 ;
29 [label="gini = 0.0\nsamples = 11\nvalue = [17, 0]\nclass = 0", fillcolor="#e58139"] ;
28 -> 29 ;
30 [label="gini = 0.0\nsamples = 2\nvalue = [0, 2]\nclass = 1", fillcolor="#399de5"] ;
28 -> 30 ;
31 [label="gini = 0.0\nsamples = 4\nvalue = [0, 5]\nclass = 1", fillcolor="#399de5"] ;
25 -> 31 ;
32 [label="gini = 0.0\nsamples = 13\nvalue = [0, 18]\nclass = 1", fillcolor="#399de5"] ;
22 -> 32 ;
33 [label="gini = 0.0\nsamples = 120\nvalue = [0, 194]\nclass = 1", fillcolor="#399de5"] ;
21 -> 33 ;
34 [label="gill-size_b <= 0.5\ngini = 0.377\nsamples = 251\nvalue = [314, 106]\nclass = 0", fillcolor="#eeac7c"] ;
20 -> 34 ;
35 [label="odor_c <= 0.5\ngini = 0.495\nsamples = 116\nvalue = [87, 106]\nclass = 1", fillcolor="#dcedfa"] ;
34 -> 35 ;
36 [label="gini = 0.0\nsamples = 50\nvalue = [87, 0]\nclass = 0", fillcolor="#e58139"] ;
35 -> 36 ;
37 [label="gini = 0.0\nsamples = 66\nvalue = [0, 106]\nclass = 1", fillcolor="#399de5"] ;
35 -> 37 ;
38 [label="gini = 0.0\nsamples = 135\nvalue = [227, 0]\nclass = 0", fillcolor="#e58139"] ;
34 -> 38 ;
39 [label="gini = 0.0\nsamples = 90\nvalue = [137, 0]\nclass = 0", fillcolor="#e58139"] ;
19 -> 39 ;
40 [label="gini = 0.0\nsamples = 170\nvalue = [262, 0]\nclass = 0", fillcolor="#e58139"] ;
18 -> 40 ;
41 [label="odor_c <= 0.5\ngini = 0.097\nsamples = 50\nvalue = [4, 74]\nclass = 1", fillcolor="#44a2e6"] ;
17 -> 41 ;
42 [label="cap-shape_x <= 0.5\ngini = 0.308\nsamples = 16\nvalue = [4, 17]\nclass = 1", fillcolor="#68b4eb"] ;
41 -> 42 ;
43 [label="cap-shape_f <= 0.5\ngini = 0.255\nsamples = 15\nvalue = [3, 17]\nclass = 1", fillcolor="#5caeea"] ;
42 -> 43 ;
44 [label="gini = 0.0\nsamples = 6\nvalue = [0, 9]\nclass = 1", fillcolor="#399de5"] ;
43 -> 44 ;
45 [label="gill-color_w <= 0.5\ngini = 0.397\nsamples = 9\nvalue = [3, 8]\nclass = 1", fillcolor="#83c2ef"] ;
43 -> 45 ;
46 [label="gini = 0.0\nsamples = 5\nvalue = [0, 5]\nclass = 1", fillcolor="#399de5"] ;
45 -> 46 ;
47 [label="spore-print-color_w <= 0.5\ngini = 0.5\nsamples = 4\nvalue = [3, 3]\nclass = 0", fillcolor="#ffffff"] ;
45 -> 47 ;
48 [label="gini = 0.0\nsamples = 2\nvalue = [0, 3]\nclass = 1", fillcolor="#399de5"] ;
47 -> 48 ;
49 [label="gini = 0.0\nsamples = 2\nvalue = [3, 0]\nclass = 0", fillcolor="#e58139"] ;
47 -> 49 ;
50 [label="gini = 0.0\nsamples = 1\nvalue = [1, 0]\nclass = 0", fillcolor="#e58139"] ;
42 -> 50 ;
51 [label="gini = 0.0\nsamples = 34\nvalue = [0, 57]\nclass = 1", fillcolor="#399de5"] ;
41 -> 51 ;
52 [label="gini = 0.0\nsamples = 882\nvalue = [1405, 0]\nclass = 0", fillcolor="#e58139"] ;
16 -> 52 ;
53 [label="gini = 0.0\nsamples = 289\nvalue = [0, 462]\nclass = 1", fillcolor="#399de5"] ;
1 -> 53 ;
54 [label="cap-shape_f <= 0.5\ngini = 0.12\nsamples = 1190\nvalue = [122, 1776]\nclass = 1", fillcolor="#47a4e7"] ;
0 -> 54 [labeldistance=2.5, labelangle=-45, headlabel="False"] ;
55 [label="ring-type_l <= 0.5\ngini = 0.192\nsamples = 698\nvalue = [122, 1013]\nclass = 1", fillcolor="#51a9e8"] ;
54 -> 55 ;
56 [label="odor_n <= 0.5\ngini = 0.339\nsamples = 359\nvalue = [122, 443]\nclass = 1", fillcolor="#70b8ec"] ;
55 -> 56 ;
57 [label="gini = 0.0\nsamples = 283\nvalue = [0, 443]\nclass = 1", fillcolor="#399de5"] ;
56 -> 57 ;
58 [label="gini = 0.0\nsamples = 76\nvalue = [122, 0]\nclass = 0", fillcolor="#e58139"] ;
56 -> 58 ;
59 [label="gini = 0.0\nsamples = 339\nvalue = [0, 570]\nclass = 1", fillcolor="#399de5"] ;
55 -> 59 ;
60 [label="gini = 0.0\nsamples = 492\nvalue = [0, 763]\nclass = 1", fillcolor="#399de5"] ;
54 -> 60 ;
}