digraph Tree {
node [shape=box, style="filled, rounded", color="black", fontname="helvetica"] ;
edge [fontname="helvetica"] ;
0 [label="spore-print-color_n <= 0.5\ngini = 0.499\nsamples = 4121\nvalue = [3379, 3120]\nclass = 0", fillcolor="#fdf5f0"] ;
1 [label="odor_n <= 0.5\ngini = 0.48\nsamples = 3113\nvalue = [1960, 2950]\nclass = 1", fillcolor="#bddef6"] ;
0 -> 1 [labeldistance=2.5, labelangle=45, headlabel="True"] ;
2 [label="stalk-root_c <= 0.5\ngini = 0.182\nsamples = 2028\nvalue = [324, 2881]\nclass = 1", fillcolor="#4fa8e8"] ;
1 -> 2 ;
3 [label="stalk-surface-below-ring_y <= 0.5\ngini = 0.075\nsamples = 1877\nvalue = [116, 2856]\nclass = 1", fillcolor="#41a1e6"] ;
2 -> 3 ;
4 [label="spore-print-color_u <= 0.5\ngini = 0.025\nsamples = 1830\nvalue = [37, 2856]\nclass = 1", fillcolor="#3c9ee5"] ;
3 -> 4 ;
5 [label="gini = 0.0\nsamples = 1809\nvalue = [0, 2856]\nclass = 1", fillcolor="#399de5"] ;
4 -> 5 ;
6 [label="gini = 0.0\nsamples = 21\nvalue = [37, 0]\nclass = 0", fillcolor="#e58139"] ;
4 -> 6 ;
7 [label="gini = 0.0\nsamples = 47\nvalue = [79, 0]\nclass = 0", fillcolor="#e58139"] ;
3 -> 7 ;
8 [label="stalk-color-below-ring_w <= 0.5\ngini = 0.192\nsamples = 151\nvalue = [208, 25]\nclass = 0", fillcolor="#e89051"] ;
2 -> 8 ;
9 [label="gini = 0.0\nsamples = 14\nvalue = [0, 25]\nclass = 1", fillcolor="#399de5"] ;
8 -> 9 ;
10 [label="gini = 0.0\nsamples = 137\nvalue = [208, 0]\nclass = 0", fillcolor="#e58139"] ;
8 -> 10 ;
11 [label="stalk-surface-below-ring_y <= 0.5\ngini = 0.078\nsamples = 1085\nvalue = [1636, 69]\nclass = 0", fillcolor="#e68641"] ;
1 -> 11 ;
12 [label="population_v <= 0.5\ngini = 0.055\nsamples = 1061\nvalue = [1626, 47]\nclass = 0", fillcolor="#e6853f"] ;
11 -> 12 ;
13 [label="spore-print-color_w <= 0.5\ngini = 0.009\nsamples = 733\nvalue = [1137, 5]\nclass = 0", fillcolor="#e5823a"] ;
12 -> 13 ;
14 [label="gini = 0.0\nsamples = 470\nvalue = [746, 0]\nclass = 0", fillcolor="#e58139"] ;
13 -> 14 ;
15 [label="stalk-surface-below-ring_s <= 0.5\ngini = 0.025\nsamples = 263\nvalue = [391, 5]\nclass = 0", fillcolor="#e5833c"] ;
13 -> 15 ;
16 [label="gini = 0.0\nsamples = 72\nvalue = [109, 0]\nclass = 0", fillcolor="#e58139"] ;
15 -> 16 ;
17 [label="gill-size_n <= 0.5\ngini = 0.034\nsamples = 191\nvalue = [282, 5]\nclass = 0", fillcolor="#e5833d"] ;
15 -> 17 ;
18 [label="gini = 0.0\nsamples = 187\nvalue = [282, 0]\nclass = 0", fillcolor="#e58139"] ;
17 -> 18 ;
19 [label="gini = 0.0\nsamples = 4\nvalue = [0, 5]\nclass = 1", fillcolor="#399de5"] ;
17 -> 19 ;
20 [label="gill-color_p <= 0.5\ngini = 0.146\nsamples = 328\nvalue = [489, 42]\nclass = 0", fillcolor="#e78c4a"] ;
12 -> 20 ;
21 [label="habitat_m <= 0.5\ngini = 0.17\nsamples = 271\nvalue = [405, 42]\nclass = 0", fillcolor="#e88e4e"] ;
20 -> 21 ;
22 [label="ring-number_t <= 0.5\ngini = 0.086\nsamples = 254\nvalue = [405, 19]\nclass = 0", fillcolor="#e68742"] ;
21 -> 22 ;
23 [label="gini = 0.0\nsamples = 236\nvalue = [395, 0]\nclass = 0", fillcolor="#e58139"] ;
22 -> 23 ;
24 [label="spore-print-color_w <= 0.5\ngini = 0.452\nsamples = 18\nvalue = [10, 19]\nclass = 1", fillcolor="#a1d1f3"] ;
22 -> 24 ;
25 [label="gini = 0.0\nsamples = 12\nvalue = [0, 19]\nclass = 1", fillcolor="#399de5"] ;
24 -> 25 ;
26 [label="gini = 0.0\nsamples = 6\nvalue = [10, 0]\nclass = 0", fillcolor="#e58139"] ;
24 -> 26 ;
27 [label="gini = 0.0\nsamples = 17\nvalue = [0, 23]\nclass = 1", fillcolor="#399de5"] ;
21 -> 27 ;
28 [label="gini = 0.0\nsamples = 57\nvalue = [84, 0]\nclass = 0", fillcolor="#e58139"] ;
20 -> 28 ;
29 [label="stalk-color-above-ring_n <= 0.5\ngini = 0.43\nsamples = 24\nvalue = [10, 22]\nclass = 1", fillcolor="#93caf1"] ;
11 -> 29 ;
30 [label="gini = 0.0\nsamples = 15\nvalue = [0, 22]\nclass = 1", fillcolor="#399de5"] ;
29 -> 30 ;
31 [label="gini = 0.0\nsamples = 9\nvalue = [10, 0]\nclass = 0", fillcolor="#e58139"] ;
29 -> 31 ;
32 [label="stalk-shape_e <= 0.5\ngini = 0.191\nsamples = 1008\nvalue = [1419, 170]\nclass = 0", fillcolor="#e89051"] ;
0 -> 32 [labeldistance=2.5, labelangle=-45, headlabel="False"] ;
33 [label="gini = 0.0\nsamples = 677\nvalue = [1049, 0]\nclass = 0", fillcolor="#e58139"] ;
32 -> 33 ;
34 [label="habitat_d <= 0.5\ngini = 0.431\nsamples = 331\nvalue = [370, 170]\nclass = 0", fillcolor="#f1bb94"] ;
32 -> 34 ;
35 [label="odor_p <= 0.5\ngini = 0.341\nsamples = 286\nvalue = [370, 103]\nclass = 0", fillcolor="#eca470"] ;
34 -> 35 ;
36 [label="gini = 0.0\nsamples = 226\nvalue = [370, 0]\nclass = 0", fillcolor="#e58139"] ;
35 -> 36 ;
37 [label="gini = 0.0\nsamples = 60\nvalue = [0, 103]\nclass = 1", fillcolor="#399de5"] ;
35 -> 37 ;
38 [label="gini = 0.0\nsamples = 45\nvalue = [0, 67]\nclass = 1", fillcolor="#399de5"] ;
34 -> 38 ;
}