digraph Tree {
node [shape=box, style="filled, rounded", color="black", fontname="helvetica"] ;
edge [fontname="helvetica"] ;
0 [label="stalk-surface-above-ring_k <= 0.5\ngini = 0.499\nsamples = 4087\nvalue = [3367, 3132]\nclass = 0", fillcolor="#fdf6f1"] ;
1 [label="ring-type_e <= 0.5\ngini = 0.421\nsamples = 2893\nvalue = [3251, 1404]\nclass = 0", fillcolor="#f0b78f"] ;
0 -> 1 [labeldistance=2.5, labelangle=45, headlabel="True"] ;
2 [label="habitat_u <= 0.5\ngini = 0.338\nsamples = 1930\nvalue = [2428, 668]\nclass = 0", fillcolor="#eca46f"] ;
1 -> 2 ;
3 [label="odor_p <= 0.5\ngini = 0.266\nsamples = 1746\nvalue = [2359, 442]\nclass = 0", fillcolor="#ea995e"] ;
2 -> 3 ;
4 [label="cap-color_b <= 0.5\ngini = 0.214\nsamples = 1680\nvalue = [2359, 328]\nclass = 0", fillcolor="#e99355"] ;
3 -> 4 ;
5 [label="spore-print-color_h <= 0.5\ngini = 0.18\nsamples = 1639\nvalue = [2359, 262]\nclass = 0", fillcolor="#e88f4f"] ;
4 -> 5 ;
6 [label="gill-size_n <= 0.5\ngini = 0.136\nsamples = 1564\nvalue = [2315, 184]\nclass = 0", fillcolor="#e78b49"] ;
5 -> 6 ;
7 [label="gill-color_g <= 0.5\ngini = 0.034\nsamples = 1430\nvalue = [2239, 39]\nclass = 0", fillcolor="#e5833c"] ;
6 -> 7 ;
8 [label="cap-color_n <= 0.5\ngini = 0.02\nsamples = 1339\nvalue = [2117, 22]\nclass = 0", fillcolor="#e5823b"] ;
7 -> 8 ;
9 [label="cap-color_p <= 0.5\ngini = 0.03\nsamples = 903\nvalue = [1431, 22]\nclass = 0", fillcolor="#e5833c"] ;
8 -> 9 ;
10 [label="cap-color_e <= 0.5\ngini = 0.012\nsamples = 890\nvalue = [1423, 9]\nclass = 0", fillcolor="#e5823a"] ;
9 -> 10 ;
11 [label="ring-number_t <= 0.5\ngini = 0.018\nsamples = 607\nvalue = [958, 9]\nclass = 0", fillcolor="#e5823b"] ;
10 -> 11 ;
12 [label="gini = 0.0\nsamples = 541\nvalue = [860, 0]\nclass = 0", fillcolor="#e58139"] ;
11 -> 12 ;
13 [label="bruises_t <= 0.5\ngini = 0.154\nsamples = 66\nvalue = [98, 9]\nclass = 0", fillcolor="#e78d4b"] ;
11 -> 13 ;
14 [label="gini = 0.0\nsamples = 51\nvalue = [86, 0]\nclass = 0", fillcolor="#e58139"] ;
13 -> 14 ;
15 [label="habitat_g <= 0.5\ngini = 0.49\nsamples = 15\nvalue = [12, 9]\nclass = 0", fillcolor="#f8e0ce"] ;
13 -> 15 ;
16 [label="cap-color_w <= 0.5\ngini = 0.415\nsamples = 11\nvalue = [12, 5]\nclass = 0", fillcolor="#f0b58b"] ;
15 -> 16 ;
17 [label="gini = 0.0\nsamples = 7\nvalue = [12, 0]\nclass = 0", fillcolor="#e58139"] ;
16 -> 17 ;
18 [label="gini = 0.0\nsamples = 4\nvalue = [0, 5]\nclass = 1", fillcolor="#399de5"] ;
16 -> 18 ;
19 [label="gini = 0.0\nsamples = 4\nvalue = [0, 4]\nclass = 1", fillcolor="#399de5"] ;
15 -> 19 ;
20 [label="gini = 0.0\nsamples = 283\nvalue = [465, 0]\nclass = 0", fillcolor="#e58139"] ;
10 -> 20 ;
21 [label="habitat_p <= 0.5\ngini = 0.472\nsamples = 13\nvalue = [8, 13]\nclass = 1", fillcolor="#b3d9f5"] ;
9 -> 21 ;
22 [label="gini = 0.0\nsamples = 8\nvalue = [0, 13]\nclass = 1", fillcolor="#399de5"] ;
21 -> 22 ;
23 [label="gini = 0.0\nsamples = 5\nvalue = [8, 0]\nclass = 0", fillcolor="#e58139"] ;
21 -> 23 ;
24 [label="gini = 0.0\nsamples = 436\nvalue = [686, 0]\nclass = 0", fillcolor="#e58139"] ;
8 -> 24 ;
25 [label="cap-color_y <= 0.5\ngini = 0.215\nsamples = 91\nvalue = [122, 17]\nclass = 0", fillcolor="#e99355"] ;
7 -> 25 ;
26 [label="cap-color_p <= 0.5\ngini = 0.294\nsamples = 63\nvalue = [78, 17]\nclass = 0", fillcolor="#eb9c64"] ;
25 -> 26 ;
27 [label="spore-print-color_r <= 0.5\ngini = 0.201\nsamples = 58\nvalue = [78, 10]\nclass = 0", fillcolor="#e89152"] ;
26 -> 27 ;
28 [label="gini = 0.0\nsamples = 54\nvalue = [78, 0]\nclass = 0", fillcolor="#e58139"] ;
27 -> 28 ;
29 [label="gini = 0.0\nsamples = 4\nvalue = [0, 10]\nclass = 1", fillcolor="#399de5"] ;
27 -> 29 ;
30 [label="gini = 0.0\nsamples = 5\nvalue = [0, 7]\nclass = 1", fillcolor="#399de5"] ;
26 -> 30 ;
31 [label="gini = 0.0\nsamples = 28\nvalue = [44, 0]\nclass = 0", fillcolor="#e58139"] ;
25 -> 31 ;
32 [label="gill-color_p <= 0.5\ngini = 0.451\nsamples = 134\nvalue = [76, 145]\nclass = 1", fillcolor="#a1d0f3"] ;
6 -> 32 ;
33 [label="bruises_t <= 0.5\ngini = 0.436\nsamples = 98\nvalue = [52, 110]\nclass = 1", fillcolor="#97cbf1"] ;
32 -> 33 ;
34 [label="gini = 0.0\nsamples = 61\nvalue = [0, 102]\nclass = 1", fillcolor="#399de5"] ;
33 -> 34 ;
35 [label="population_c <= 0.5\ngini = 0.231\nsamples = 37\nvalue = [52, 8]\nclass = 0", fillcolor="#e99457"] ;
33 -> 35 ;
36 [label="gini = 0.0\nsamples = 32\nvalue = [52, 0]\nclass = 0", fillcolor="#e58139"] ;
35 -> 36 ;
37 [label="gini = 0.0\nsamples = 5\nvalue = [0, 8]\nclass = 1", fillcolor="#399de5"] ;
35 -> 37 ;
38 [label="odor_c <= 0.5\ngini = 0.483\nsamples = 36\nvalue = [24, 35]\nclass = 1", fillcolor="#c1e0f7"] ;
32 -> 38 ;
39 [label="gini = 0.0\nsamples = 12\nvalue = [24, 0]\nclass = 0", fillcolor="#e58139"] ;
38 -> 39 ;
40 [label="gini = 0.0\nsamples = 24\nvalue = [0, 35]\nclass = 1", fillcolor="#399de5"] ;
38 -> 40 ;
41 [label="bruises_t <= 0.5\ngini = 0.461\nsamples = 75\nvalue = [44, 78]\nclass = 1", fillcolor="#a9d4f4"] ;
5 -> 41 ;
42 [label="gini = 0.0\nsamples = 27\nvalue = [44, 0]\nclass = 0", fillcolor="#e58139"] ;
41 -> 42 ;
43 [label="gini = 0.0\nsamples = 48\nvalue = [0, 78]\nclass = 1", fillcolor="#399de5"] ;
41 -> 43 ;
44 [label="gini = 0.0\nsamples = 41\nvalue = [0, 66]\nclass = 1", fillcolor="#399de5"] ;
4 -> 44 ;
45 [label="gini = 0.0\nsamples = 66\nvalue = [0, 114]\nclass = 1", fillcolor="#399de5"] ;
3 -> 45 ;
46 [label="stalk-root_e <= 0.5\ngini = 0.358\nsamples = 184\nvalue = [69, 226]\nclass = 1", fillcolor="#75bbed"] ;
2 -> 46 ;
47 [label="gini = 0.0\nsamples = 75\nvalue = [0, 118]\nclass = 1", fillcolor="#399de5"] ;
46 -> 47 ;
48 [label="cap-shape_f <= 0.5\ngini = 0.476\nsamples = 109\nvalue = [69, 108]\nclass = 1", fillcolor="#b8dcf6"] ;
46 -> 48 ;
49 [label="gill-color_w <= 0.5\ngini = 0.5\nsamples = 61\nvalue = [50, 48]\nclass = 0", fillcolor="#fefaf7"] ;
48 -> 49 ;
50 [label="population_y <= 0.5\ngini = 0.491\nsamples = 54\nvalue = [50, 38]\nclass = 0", fillcolor="#f9e1cf"] ;
49 -> 50 ;
51 [label="gill-color_g <= 0.5\ngini = 0.479\nsamples = 40\nvalue = [25, 38]\nclass = 1", fillcolor="#bbddf6"] ;
50 -> 51 ;
52 [label="gill-color_n <= 0.5\ngini = 0.417\nsamples = 35\nvalue = [16, 38]\nclass = 1", fillcolor="#8cc6f0"] ;
51 -> 52 ;
53 [label="spore-print-color_k <= 0.5\ngini = 0.424\nsamples = 24\nvalue = [11, 25]\nclass = 1", fillcolor="#90c8f0"] ;
52 -> 53 ;
54 [label="cap-color_g <= 0.5\ngini = 0.346\nsamples = 11\nvalue = [4, 14]\nclass = 1", fillcolor="#72b9ec"] ;
53 -> 54 ;
55 [label="odor_p <= 0.5\ngini = 0.219\nsamples = 10\nvalue = [2, 14]\nclass = 1", fillcolor="#55abe9"] ;
54 -> 55 ;
56 [label="gini = 0.0\nsamples = 2\nvalue = [2, 0]\nclass = 0", fillcolor="#e58139"] ;
55 -> 56 ;
57 [label="gini = 0.0\nsamples = 8\nvalue = [0, 14]\nclass = 1", fillcolor="#399de5"] ;
55 -> 57 ;
58 [label="gini = 0.0\nsamples = 1\nvalue = [2, 0]\nclass = 0", fillcolor="#e58139"] ;
54 -> 58 ;
59 [label="odor_p <= 0.5\ngini = 0.475\nsamples = 13\nvalue = [7, 11]\nclass = 1", fillcolor="#b7dbf6"] ;
53 -> 59 ;
60 [label="gini = 0.0\nsamples = 5\nvalue = [7, 0]\nclass = 0", fillcolor="#e58139"] ;
59 -> 60 ;
61 [label="gini = 0.0\nsamples = 8\nvalue = [0, 11]\nclass = 1", fillcolor="#399de5"] ;
59 -> 61 ;
62 [label="cap-surface_f <= 0.5\ngini = 0.401\nsamples = 11\nvalue = [5, 13]\nclass = 1", fillcolor="#85c3ef"] ;
52 -> 62 ;
63 [label="gini = 0.0\nsamples = 8\nvalue = [0, 13]\nclass = 1", fillcolor="#399de5"] ;
62 -> 63 ;
64 [label="gini = 0.0\nsamples = 3\nvalue = [5, 0]\nclass = 0", fillcolor="#e58139"] ;
62 -> 64 ;
65 [label="gini = 0.0\nsamples = 5\nvalue = [9, 0]\nclass = 0", fillcolor="#e58139"] ;
51 -> 65 ;
66 [label="gini = 0.0\nsamples = 14\nvalue = [25, 0]\nclass = 0", fillcolor="#e58139"] ;
50 -> 66 ;
67 [label="gini = 0.0\nsamples = 7\nvalue = [0, 10]\nclass = 1", fillcolor="#399de5"] ;
49 -> 67 ;
68 [label="cap-color_n <= 0.5\ngini = 0.365\nsamples = 48\nvalue = [19, 60]\nclass = 1", fillcolor="#78bced"] ;
48 -> 68 ;
69 [label="gill-color_n <= 0.5\ngini = 0.346\nsamples = 24\nvalue = [10, 35]\nclass = 1", fillcolor="#72b9ec"] ;
68 -> 69 ;
70 [label="cap-surface_f <= 0.5\ngini = 0.264\nsamples = 17\nvalue = [5, 27]\nclass = 1", fillcolor="#5eafea"] ;
69 -> 70 ;
71 [label="gini = 0.0\nsamples = 13\nvalue = [0, 27]\nclass = 1", fillcolor="#399de5"] ;
70 -> 71 ;
72 [label="gini = 0.0\nsamples = 4\nvalue = [5, 0]\nclass = 0", fillcolor="#e58139"] ;
70 -> 72 ;
73 [label="bruises_f <= 0.5\ngini = 0.473\nsamples = 7\nvalue = [5, 8]\nclass = 1", fillcolor="#b5daf5"] ;
69 -> 73 ;
74 [label="gini = 0.0\nsamples = 5\nvalue = [0, 8]\nclass = 1", fillcolor="#399de5"] ;
73 -> 74 ;
75 [label="gini = 0.0\nsamples = 2\nvalue = [5, 0]\nclass = 0", fillcolor="#e58139"] ;
73 -> 75 ;
76 [label="bruises_f <= 0.5\ngini = 0.389\nsamples = 24\nvalue = [9, 25]\nclass = 1", fillcolor="#80c0ee"] ;
68 -> 76 ;
77 [label="gini = 0.0\nsamples = 17\nvalue = [0, 25]\nclass = 1", fillcolor="#399de5"] ;
76 -> 77 ;
78 [label="gini = 0.0\nsamples = 7\nvalue = [9, 0]\nclass = 0", fillcolor="#e58139"] ;
76 -> 78 ;
79 [label="stalk-surface-below-ring_k <= 0.5\ngini = 0.498\nsamples = 963\nvalue = [823, 736]\nclass = 0", fillcolor="#fcf2ea"] ;
1 -> 79 ;
80 [label="stalk-root_? <= 0.5\ngini = 0.434\nsamples = 734\nvalue = [823, 385]\nclass = 0", fillcolor="#f1bc96"] ;
79 -> 80 ;
81 [label="population_c <= 0.5\ngini = 0.006\nsamples = 410\nvalue = [636, 2]\nclass = 0", fillcolor="#e5813a"] ;
80 -> 81 ;
82 [label="gini = 0.0\nsamples = 409\nvalue = [636, 0]\nclass = 0", fillcolor="#e58139"] ;
81 -> 82 ;
83 [label="gini = 0.0\nsamples = 1\nvalue = [0, 2]\nclass = 1", fillcolor="#399de5"] ;
81 -> 83 ;
84 [label="gill-size_n <= 0.5\ngini = 0.441\nsamples = 324\nvalue = [187, 383]\nclass = 1", fillcolor="#9acdf2"] ;
80 -> 84 ;
85 [label="gini = 0.0\nsamples = 105\nvalue = [187, 0]\nclass = 0", fillcolor="#e58139"] ;
84 -> 85 ;
86 [label="gini = 0.0\nsamples = 219\nvalue = [0, 383]\nclass = 1", fillcolor="#399de5"] ;
84 -> 86 ;
87 [label="gini = 0.0\nsamples = 229\nvalue = [0, 351]\nclass = 1", fillcolor="#399de5"] ;
79 -> 87 ;
88 [label="population_s <= 0.5\ngini = 0.118\nsamples = 1194\nvalue = [116, 1728]\nclass = 1", fillcolor="#46a4e7"] ;
0 -> 88 [labeldistance=2.5, labelangle=-45, headlabel="False"] ;
89 [label="gill-spacing_w <= 0.5\ngini = 0.063\nsamples = 1162\nvalue = [58, 1728]\nclass = 1", fillcolor="#40a0e6"] ;
88 -> 89 ;
90 [label="gini = 0.0\nsamples = 1125\nvalue = [0, 1728]\nclass = 1", fillcolor="#399de5"] ;
89 -> 90 ;
91 [label="gini = 0.0\nsamples = 37\nvalue = [58, 0]\nclass = 0", fillcolor="#e58139"] ;
89 -> 91 ;
92 [label="gini = 0.0\nsamples = 32\nvalue = [58, 0]\nclass = 0", fillcolor="#e58139"] ;
88 -> 92 ;
}