digraph Tree {
node [shape=box, style="filled, rounded", color="black", fontname="helvetica"] ;
edge [fontname="helvetica"] ;
0 [label="spore-print-color_n <= 0.5\ngini = 0.499\nsamples = 4095\nvalue = [3380, 3119]\nclass = 0", fillcolor="#fdf5f0"] ;
1 [label="bruises_f <= 0.5\ngini = 0.481\nsamples = 3113\nvalue = [1988, 2950]\nclass = 1", fillcolor="#bedff7"] ;
0 -> 1 [labeldistance=2.5, labelangle=45, headlabel="True"] ;
2 [label="odor_p <= 0.5\ngini = 0.367\nsamples = 988\nvalue = [1200, 384]\nclass = 0", fillcolor="#eda978"] ;
1 -> 2 ;
3 [label="spore-print-color_k <= 0.5\ngini = 0.3\nsamples = 913\nvalue = [1200, 270]\nclass = 0", fillcolor="#eb9d66"] ;
2 -> 3 ;
4 [label="ring-number_o <= 0.5\ngini = 0.497\nsamples = 315\nvalue = [233, 270]\nclass = 1", fillcolor="#e4f2fb"] ;
3 -> 4 ;
5 [label="population_y <= 0.5\ngini = 0.337\nsamples = 146\nvalue = [179, 49]\nclass = 0", fillcolor="#eca36f"] ;
4 -> 5 ;
6 [label="spore-print-color_w <= 0.5\ngini = 0.35\nsamples = 138\nvalue = [168, 49]\nclass = 0", fillcolor="#eda673"] ;
5 -> 6 ;
7 [label="gini = 0.0\nsamples = 30\nvalue = [0, 49]\nclass = 1", fillcolor="#399de5"] ;
6 -> 7 ;
8 [label="gini = 0.0\nsamples = 108\nvalue = [168, 0]\nclass = 0", fillcolor="#e58139"] ;
6 -> 8 ;
9 [label="gini = 0.0\nsamples = 8\nvalue = [11, 0]\nclass = 0", fillcolor="#e58139"] ;
5 -> 9 ;
10 [label="odor_f <= 0.5\ngini = 0.316\nsamples = 169\nvalue = [54, 221]\nclass = 1", fillcolor="#69b5eb"] ;
4 -> 10 ;
11 [label="population_v <= 0.5\ngini = 0.155\nsamples = 33\nvalue = [54, 5]\nclass = 0", fillcolor="#e78d4b"] ;
10 -> 11 ;
12 [label="gini = 0.0\nsamples = 3\nvalue = [0, 5]\nclass = 1", fillcolor="#399de5"] ;
11 -> 12 ;
13 [label="gini = 0.0\nsamples = 30\nvalue = [54, 0]\nclass = 0", fillcolor="#e58139"] ;
11 -> 13 ;
14 [label="gini = 0.0\nsamples = 136\nvalue = [0, 216]\nclass = 1", fillcolor="#399de5"] ;
10 -> 14 ;
15 [label="gini = 0.0\nsamples = 598\nvalue = [967, 0]\nclass = 0", fillcolor="#e58139"] ;
3 -> 15 ;
16 [label="gini = 0.0\nsamples = 75\nvalue = [0, 114]\nclass = 1", fillcolor="#399de5"] ;
2 -> 16 ;
17 [label="ring-type_p <= 0.5\ngini = 0.359\nsamples = 2125\nvalue = [788, 2566]\nclass = 1", fillcolor="#76bbed"] ;
1 -> 17 ;
18 [label="stalk-surface-above-ring_f <= 0.5\ngini = 0.229\nsamples = 1816\nvalue = [378, 2495]\nclass = 1", fillcolor="#57ace9"] ;
17 -> 18 ;
19 [label="gill-spacing_w <= 0.5\ngini = 0.143\nsamples = 1713\nvalue = [209, 2495]\nclass = 1", fillcolor="#4aa5e7"] ;
18 -> 19 ;
20 [label="cap-color_u <= 0.5\ngini = 0.022\nsamples = 1595\nvalue = [28, 2491]\nclass = 1", fillcolor="#3b9ee5"] ;
19 -> 20 ;
21 [label="gill-color_u <= 0.5\ngini = 0.015\nsamples = 1589\nvalue = [19, 2491]\nclass = 1", fillcolor="#3b9ee5"] ;
20 -> 21 ;
22 [label="odor_f <= 0.5\ngini = 0.009\nsamples = 1583\nvalue = [11, 2491]\nclass = 1", fillcolor="#3a9de5"] ;
21 -> 22 ;
23 [label="odor_s <= 0.5\ngini = 0.022\nsamples = 640\nvalue = [11, 1000]\nclass = 1", fillcolor="#3b9ee5"] ;
22 -> 23 ;
24 [label="stalk-color-below-ring_w <= 0.5\ngini = 0.041\nsamples = 348\nvalue = [11, 513]\nclass = 1", fillcolor="#3d9fe6"] ;
23 -> 24 ;
25 [label="gini = 0.0\nsamples = 186\nvalue = [0, 279]\nclass = 1", fillcolor="#399de5"] ;
24 -> 25 ;
26 [label="stalk-surface-below-ring_f <= 0.5\ngini = 0.086\nsamples = 162\nvalue = [11, 234]\nclass = 1", fillcolor="#42a2e6"] ;
24 -> 26 ;
27 [label="gini = 0.0\nsamples = 154\nvalue = [0, 234]\nclass = 1", fillcolor="#399de5"] ;
26 -> 27 ;
28 [label="gini = 0.0\nsamples = 8\nvalue = [11, 0]\nclass = 0", fillcolor="#e58139"] ;
26 -> 28 ;
29 [label="gini = 0.0\nsamples = 292\nvalue = [0, 487]\nclass = 1", fillcolor="#399de5"] ;
23 -> 29 ;
30 [label="gini = 0.0\nsamples = 943\nvalue = [0, 1491]\nclass = 1", fillcolor="#399de5"] ;
22 -> 30 ;
31 [label="gini = 0.0\nsamples = 6\nvalue = [8, 0]\nclass = 0", fillcolor="#e58139"] ;
21 -> 31 ;
32 [label="gini = 0.0\nsamples = 6\nvalue = [9, 0]\nclass = 0", fillcolor="#e58139"] ;
20 -> 32 ;
33 [label="stalk-surface-above-ring_s <= 0.5\ngini = 0.042\nsamples = 118\nvalue = [181, 4]\nclass = 0", fillcolor="#e6843d"] ;
19 -> 33 ;
34 [label="gini = 0.0\nsamples = 4\nvalue = [0, 4]\nclass = 1", fillcolor="#399de5"] ;
33 -> 34 ;
35 [label="gini = 0.0\nsamples = 114\nvalue = [181, 0]\nclass = 0", fillcolor="#e58139"] ;
33 -> 35 ;
36 [label="gini = 0.0\nsamples = 103\nvalue = [169, 0]\nclass = 0", fillcolor="#e58139"] ;
18 -> 36 ;
37 [label="cap-shape_x <= 0.5\ngini = 0.252\nsamples = 309\nvalue = [410, 71]\nclass = 0", fillcolor="#ea975b"] ;
17 -> 37 ;
38 [label="gini = 0.0\nsamples = 190\nvalue = [300, 0]\nclass = 0", fillcolor="#e58139"] ;
37 -> 38 ;
39 [label="gill-color_u <= 0.5\ngini = 0.477\nsamples = 119\nvalue = [110, 71]\nclass = 0", fillcolor="#f6d2b9"] ;
37 -> 39 ;
40 [label="stalk-root_b <= 0.5\ngini = 0.447\nsamples = 107\nvalue = [110, 56]\nclass = 0", fillcolor="#f2c19e"] ;
39 -> 40 ;
41 [label="gini = 0.0\nsamples = 71\nvalue = [107, 0]\nclass = 0", fillcolor="#e58139"] ;
40 -> 41 ;
42 [label="gill-color_w <= 0.5\ngini = 0.097\nsamples = 36\nvalue = [3, 56]\nclass = 1", fillcolor="#44a2e6"] ;
40 -> 42 ;
43 [label="gini = 0.0\nsamples = 34\nvalue = [0, 56]\nclass = 1", fillcolor="#399de5"] ;
42 -> 43 ;
44 [label="gini = 0.0\nsamples = 2\nvalue = [3, 0]\nclass = 0", fillcolor="#e58139"] ;
42 -> 44 ;
45 [label="gini = 0.0\nsamples = 12\nvalue = [0, 15]\nclass = 1", fillcolor="#399de5"] ;
39 -> 45 ;
46 [label="stalk-shape_e <= 0.5\ngini = 0.193\nsamples = 982\nvalue = [1392, 169]\nclass = 0", fillcolor="#e89051"] ;
0 -> 46 [labeldistance=2.5, labelangle=-45, headlabel="False"] ;
47 [label="gini = 0.0\nsamples = 648\nvalue = [1028, 0]\nclass = 0", fillcolor="#e58139"] ;
46 -> 47 ;
48 [label="stalk-root_c <= 0.5\ngini = 0.433\nsamples = 334\nvalue = [364, 169]\nclass = 0", fillcolor="#f1bc95"] ;
46 -> 48 ;
49 [label="habitat_p <= 0.5\ngini = 0.495\nsamples = 200\nvalue = [139, 169]\nclass = 1", fillcolor="#dceefa"] ;
48 -> 49 ;
50 [label="gill-size_n <= 0.5\ngini = 0.473\nsamples = 177\nvalue = [105, 169]\nclass = 1", fillcolor="#b4daf5"] ;
49 -> 50 ;
51 [label="gini = 0.0\nsamples = 42\nvalue = [67, 0]\nclass = 0", fillcolor="#e58139"] ;
50 -> 51 ;
52 [label="cap-shape_s <= 0.5\ngini = 0.3\nsamples = 135\nvalue = [38, 169]\nclass = 1", fillcolor="#66b3eb"] ;
50 -> 52 ;
53 [label="bruises_t <= 0.5\ngini = 0.225\nsamples = 128\nvalue = [25, 169]\nclass = 1", fillcolor="#56abe9"] ;
52 -> 53 ;
54 [label="gill-spacing_w <= 0.5\ngini = 0.383\nsamples = 66\nvalue = [25, 72]\nclass = 1", fillcolor="#7ebfee"] ;
53 -> 54 ;
55 [label="gill-color_u <= 0.5\ngini = 0.462\nsamples = 49\nvalue = [25, 44]\nclass = 1", fillcolor="#aad5f4"] ;
54 -> 55 ;
56 [label="cap-shape_x <= 0.5\ngini = 0.494\nsamples = 40\nvalue = [25, 31]\nclass = 1", fillcolor="#d9ecfa"] ;
55 -> 56 ;
57 [label="gini = 0.0\nsamples = 10\nvalue = [15, 0]\nclass = 0", fillcolor="#e58139"] ;
56 -> 57 ;
58 [label="population_s <= 0.5\ngini = 0.369\nsamples = 30\nvalue = [10, 31]\nclass = 1", fillcolor="#79bded"] ;
56 -> 58 ;
59 [label="population_y <= 0.5\ngini = 0.459\nsamples = 18\nvalue = [10, 18]\nclass = 1", fillcolor="#a7d3f3"] ;
58 -> 59 ;
60 [label="habitat_u <= 0.5\ngini = 0.375\nsamples = 15\nvalue = [6, 18]\nclass = 1", fillcolor="#7bbeee"] ;
59 -> 60 ;
61 [label="gini = 0.0\nsamples = 11\nvalue = [0, 18]\nclass = 1", fillcolor="#399de5"] ;
60 -> 61 ;
62 [label="gini = 0.0\nsamples = 4\nvalue = [6, 0]\nclass = 0", fillcolor="#e58139"] ;
60 -> 62 ;
63 [label="gini = 0.0\nsamples = 3\nvalue = [4, 0]\nclass = 0", fillcolor="#e58139"] ;
59 -> 63 ;
64 [label="gini = 0.0\nsamples = 12\nvalue = [0, 13]\nclass = 1", fillcolor="#399de5"] ;
58 -> 64 ;
65 [label="gini = 0.0\nsamples = 9\nvalue = [0, 13]\nclass = 1", fillcolor="#399de5"] ;
55 -> 65 ;
66 [label="gini = 0.0\nsamples = 17\nvalue = [0, 28]\nclass = 1", fillcolor="#399de5"] ;
54 -> 66 ;
67 [label="gini = 0.0\nsamples = 62\nvalue = [0, 97]\nclass = 1", fillcolor="#399de5"] ;
53 -> 67 ;
68 [label="gini = 0.0\nsamples = 7\nvalue = [13, 0]\nclass = 0", fillcolor="#e58139"] ;
52 -> 68 ;
69 [label="gini = 0.0\nsamples = 23\nvalue = [34, 0]\nclass = 0", fillcolor="#e58139"] ;
49 -> 69 ;
70 [label="gini = 0.0\nsamples = 134\nvalue = [225, 0]\nclass = 0", fillcolor="#e58139"] ;
48 -> 70 ;
}