digraph Tree {
node [shape=box, style="filled, rounded", color="black", fontname="helvetica"] ;
edge [fontname="helvetica"] ;
0 [label="stalk-root_e <= 0.5\ngini = 0.499\nsamples = 4085\nvalue = [3409, 3090]\nclass = 0", fillcolor="#fdf3ec"] ;
1 [label="stalk-surface-below-ring_s <= 0.5\ngini = 0.499\nsamples = 3526\nvalue = [2712, 2905]\nclass = 1", fillcolor="#f2f8fd"] ;
0 -> 1 [labeldistance=2.5, labelangle=45, headlabel="True"] ;
2 [label="odor_n <= 0.5\ngini = 0.255\nsamples = 1384\nvalue = [331, 1871]\nclass = 1", fillcolor="#5caeea"] ;
1 -> 2 ;
3 [label="bruises_f <= 0.5\ngini = 0.137\nsamples = 1262\nvalue = [147, 1845]\nclass = 1", fillcolor="#49a5e7"] ;
2 -> 3 ;
4 [label="odor_l <= 0.5\ngini = 0.488\nsamples = 160\nvalue = [147, 108]\nclass = 0", fillcolor="#f8deca"] ;
3 -> 4 ;
5 [label="spore-print-color_h <= 0.5\ngini = 0.455\nsamples = 104\nvalue = [58, 108]\nclass = 1", fillcolor="#a3d2f3"] ;
4 -> 5 ;
6 [label="gini = 0.0\nsamples = 40\nvalue = [58, 0]\nclass = 0", fillcolor="#e58139"] ;
5 -> 6 ;
7 [label="gini = 0.0\nsamples = 64\nvalue = [0, 108]\nclass = 1", fillcolor="#399de5"] ;
5 -> 7 ;
8 [label="gini = 0.0\nsamples = 56\nvalue = [89, 0]\nclass = 0", fillcolor="#e58139"] ;
4 -> 8 ;
9 [label="gini = 0.0\nsamples = 1102\nvalue = [0, 1737]\nclass = 1", fillcolor="#399de5"] ;
3 -> 9 ;
10 [label="spore-print-color_h <= 0.5\ngini = 0.217\nsamples = 122\nvalue = [184, 26]\nclass = 0", fillcolor="#e99355"] ;
2 -> 10 ;
11 [label="stalk-surface-below-ring_y <= 0.5\ngini = 0.258\nsamples = 98\nvalue = [145, 26]\nclass = 0", fillcolor="#ea985d"] ;
10 -> 11 ;
12 [label="gini = 0.0\nsamples = 74\nvalue = [135, 0]\nclass = 0", fillcolor="#e58139"] ;
11 -> 12 ;
13 [label="stalk-root_b <= 0.5\ngini = 0.401\nsamples = 24\nvalue = [10, 26]\nclass = 1", fillcolor="#85c3ef"] ;
11 -> 13 ;
14 [label="gini = 0.0\nsamples = 18\nvalue = [0, 26]\nclass = 1", fillcolor="#399de5"] ;
13 -> 14 ;
15 [label="gini = 0.0\nsamples = 6\nvalue = [10, 0]\nclass = 0", fillcolor="#e58139"] ;
13 -> 15 ;
16 [label="gini = 0.0\nsamples = 24\nvalue = [39, 0]\nclass = 0", fillcolor="#e58139"] ;
10 -> 16 ;
17 [label="cap-surface_f <= 0.5\ngini = 0.422\nsamples = 2142\nvalue = [2381, 1034]\nclass = 0", fillcolor="#f0b88f"] ;
1 -> 17 ;
18 [label="population_y <= 0.5\ngini = 0.473\nsamples = 1586\nvalue = [1555, 966]\nclass = 0", fillcolor="#f5cfb4"] ;
17 -> 18 ;
19 [label="gill-color_b <= 0.5\ngini = 0.494\nsamples = 1379\nvalue = [1203, 966]\nclass = 0", fillcolor="#fae6d8"] ;
18 -> 19 ;
20 [label="cap-color_b <= 0.5\ngini = 0.28\nsamples = 917\nvalue = [1203, 244]\nclass = 0", fillcolor="#ea9b61"] ;
19 -> 20 ;
21 [label="habitat_u <= 0.5\ngini = 0.242\nsamples = 857\nvalue = [1166, 191]\nclass = 0", fillcolor="#e99659"] ;
20 -> 21 ;
22 [label="spore-print-color_r <= 0.5\ngini = 0.209\nsamples = 832\nvalue = [1166, 157]\nclass = 0", fillcolor="#e99254"] ;
21 -> 22 ;
23 [label="bruises_t <= 0.5\ngini = 0.162\nsamples = 806\nvalue = [1166, 114]\nclass = 0", fillcolor="#e88d4c"] ;
22 -> 23 ;
24 [label="gill-size_b <= 0.5\ngini = 0.401\nsamples = 195\nvalue = [219, 84]\nclass = 0", fillcolor="#efb185"] ;
23 -> 24 ;
25 [label="cap-surface_y <= 0.5\ngini = 0.142\nsamples = 59\nvalue = [7, 84]\nclass = 1", fillcolor="#49a5e7"] ;
24 -> 25 ;
26 [label="gini = 0.0\nsamples = 55\nvalue = [0, 84]\nclass = 1", fillcolor="#399de5"] ;
25 -> 26 ;
27 [label="gini = 0.0\nsamples = 4\nvalue = [7, 0]\nclass = 0", fillcolor="#e58139"] ;
25 -> 27 ;
28 [label="gini = 0.0\nsamples = 136\nvalue = [212, 0]\nclass = 0", fillcolor="#e58139"] ;
24 -> 28 ;
29 [label="stalk-surface-above-ring_s <= 0.5\ngini = 0.06\nsamples = 611\nvalue = [947, 30]\nclass = 0", fillcolor="#e6853f"] ;
23 -> 29 ;
30 [label="gini = 0.0\nsamples = 8\nvalue = [0, 12]\nclass = 1", fillcolor="#399de5"] ;
29 -> 30 ;
31 [label="cap-surface_s <= 0.5\ngini = 0.037\nsamples = 603\nvalue = [947, 18]\nclass = 0", fillcolor="#e5833d"] ;
29 -> 31 ;
32 [label="stalk-color-above-ring_p <= 0.5\ngini = 0.006\nsamples = 394\nvalue = [630, 2]\nclass = 0", fillcolor="#e5813a"] ;
31 -> 32 ;
33 [label="cap-shape_k <= 0.5\ngini = 0.008\nsamples = 322\nvalue = [518, 2]\nclass = 0", fillcolor="#e5813a"] ;
32 -> 33 ;
34 [label="gini = 0.0\nsamples = 310\nvalue = [501, 0]\nclass = 0", fillcolor="#e58139"] ;
33 -> 34 ;
35 [label="stalk-root_b <= 0.5\ngini = 0.188\nsamples = 12\nvalue = [17, 2]\nclass = 0", fillcolor="#e89050"] ;
33 -> 35 ;
36 [label="gini = 0.0\nsamples = 11\nvalue = [17, 0]\nclass = 0", fillcolor="#e58139"] ;
35 -> 36 ;
37 [label="gini = 0.0\nsamples = 1\nvalue = [0, 2]\nclass = 1", fillcolor="#399de5"] ;
35 -> 37 ;
38 [label="gini = 0.0\nsamples = 72\nvalue = [112, 0]\nclass = 0", fillcolor="#e58139"] ;
32 -> 38 ;
39 [label="ring-type_e <= 0.5\ngini = 0.091\nsamples = 209\nvalue = [317, 16]\nclass = 0", fillcolor="#e68743"] ;
31 -> 39 ;
40 [label="cap-color_g <= 0.5\ngini = 0.108\nsamples = 170\nvalue = [262, 16]\nclass = 0", fillcolor="#e78945"] ;
39 -> 40 ;
41 [label="spore-print-color_w <= 0.5\ngini = 0.051\nsamples = 163\nvalue = [262, 7]\nclass = 0", fillcolor="#e6843e"] ;
40 -> 41 ;
42 [label="cap-shape_x <= 0.5\ngini = 0.052\nsamples = 160\nvalue = [257, 7]\nclass = 0", fillcolor="#e6843e"] ;
41 -> 42 ;
43 [label="gill-color_p <= 0.5\ngini = 0.016\nsamples = 78\nvalue = [123, 1]\nclass = 0", fillcolor="#e5823b"] ;
42 -> 43 ;
44 [label="gini = 0.0\nsamples = 74\nvalue = [115, 0]\nclass = 0", fillcolor="#e58139"] ;
43 -> 44 ;
45 [label="odor_f <= 0.5\ngini = 0.198\nsamples = 4\nvalue = [8, 1]\nclass = 0", fillcolor="#e89152"] ;
43 -> 45 ;
46 [label="gini = 0.0\nsamples = 3\nvalue = [8, 0]\nclass = 0", fillcolor="#e58139"] ;
45 -> 46 ;
47 [label="gini = 0.0\nsamples = 1\nvalue = [0, 1]\nclass = 1", fillcolor="#399de5"] ;
45 -> 47 ;
48 [label="gill-spacing_w <= 0.5\ngini = 0.082\nsamples = 82\nvalue = [134, 6]\nclass = 0", fillcolor="#e68742"] ;
42 -> 48 ;
49 [label="stalk-root_b <= 0.5\ngini = 0.094\nsamples = 70\nvalue = [116, 6]\nclass = 0", fillcolor="#e68843"] ;
48 -> 49 ;
50 [label="gini = 0.0\nsamples = 67\nvalue = [116, 0]\nclass = 0", fillcolor="#e58139"] ;
49 -> 50 ;
51 [label="gini = 0.0\nsamples = 3\nvalue = [0, 6]\nclass = 1", fillcolor="#399de5"] ;
49 -> 51 ;
52 [label="gini = 0.0\nsamples = 12\nvalue = [18, 0]\nclass = 0", fillcolor="#e58139"] ;
48 -> 52 ;
53 [label="gini = 0.0\nsamples = 3\nvalue = [5, 0]\nclass = 0", fillcolor="#e58139"] ;
41 -> 53 ;
54 [label="gini = 0.0\nsamples = 7\nvalue = [0, 9]\nclass = 1", fillcolor="#399de5"] ;
40 -> 54 ;
55 [label="gini = 0.0\nsamples = 39\nvalue = [55, 0]\nclass = 0", fillcolor="#e58139"] ;
39 -> 55 ;
56 [label="gini = 0.0\nsamples = 26\nvalue = [0, 43]\nclass = 1", fillcolor="#399de5"] ;
22 -> 56 ;
57 [label="gini = 0.0\nsamples = 25\nvalue = [0, 34]\nclass = 1", fillcolor="#399de5"] ;
21 -> 57 ;
58 [label="stalk-root_b <= 0.5\ngini = 0.484\nsamples = 60\nvalue = [37, 53]\nclass = 1", fillcolor="#c3e1f7"] ;
20 -> 58 ;
59 [label="gini = 0.0\nsamples = 22\nvalue = [37, 0]\nclass = 0", fillcolor="#e58139"] ;
58 -> 59 ;
60 [label="gini = 0.0\nsamples = 38\nvalue = [0, 53]\nclass = 1", fillcolor="#399de5"] ;
58 -> 60 ;
61 [label="gini = 0.0\nsamples = 462\nvalue = [0, 722]\nclass = 1", fillcolor="#399de5"] ;
19 -> 61 ;
62 [label="gini = 0.0\nsamples = 207\nvalue = [352, 0]\nclass = 0", fillcolor="#e58139"] ;
18 -> 62 ;
63 [label="gill-size_b <= 0.5\ngini = 0.141\nsamples = 556\nvalue = [826, 68]\nclass = 0", fillcolor="#e78b49"] ;
17 -> 63 ;
64 [label="bruises_t <= 0.5\ngini = 0.494\nsamples = 76\nvalue = [55, 68]\nclass = 1", fillcolor="#d9ecfa"] ;
63 -> 64 ;
65 [label="cap-shape_k <= 0.5\ngini = 0.188\nsamples = 50\nvalue = [8, 68]\nclass = 1", fillcolor="#50a9e8"] ;
64 -> 65 ;
66 [label="ring-type_e <= 0.5\ngini = 0.081\nsamples = 47\nvalue = [3, 68]\nclass = 1", fillcolor="#42a1e6"] ;
65 -> 66 ;
67 [label="gini = 0.0\nsamples = 44\nvalue = [0, 68]\nclass = 1", fillcolor="#399de5"] ;
66 -> 67 ;
68 [label="gini = 0.0\nsamples = 3\nvalue = [3, 0]\nclass = 0", fillcolor="#e58139"] ;
66 -> 68 ;
69 [label="gini = 0.0\nsamples = 3\nvalue = [5, 0]\nclass = 0", fillcolor="#e58139"] ;
65 -> 69 ;
70 [label="gini = 0.0\nsamples = 26\nvalue = [47, 0]\nclass = 0", fillcolor="#e58139"] ;
64 -> 70 ;
71 [label="gini = 0.0\nsamples = 480\nvalue = [771, 0]\nclass = 0", fillcolor="#e58139"] ;
63 -> 71 ;
72 [label="odor_p <= 0.5\ngini = 0.332\nsamples = 559\nvalue = [697, 185]\nclass = 0", fillcolor="#eca26e"] ;
0 -> 72 [labeldistance=2.5, labelangle=-45, headlabel="False"] ;
73 [label="gini = 0.0\nsamples = 437\nvalue = [697, 0]\nclass = 0", fillcolor="#e58139"] ;
72 -> 73 ;
74 [label="gini = 0.0\nsamples = 122\nvalue = [0, 185]\nclass = 1", fillcolor="#399de5"] ;
72 -> 74 ;
}