digraph Tree {
node [shape=box, style="filled, rounded", color="black", fontname="helvetica"] ;
edge [fontname="helvetica"] ;
0 [label="ring-type_l <= 0.5\ngini = 0.499\nsamples = 4086\nvalue = [3382, 3117]\nclass = 0", fillcolor="#fdf5ef"] ;
1 [label="gill-color_b <= 0.5\ngini = 0.47\nsamples = 3418\nvalue = [3382, 2059]\nclass = 0", fillcolor="#f5ceb2"] ;
0 -> 1 [labeldistance=2.5, labelangle=45, headlabel="True"] ;
2 [label="cap-color_b <= 0.5\ngini = 0.28\nsamples = 2532\nvalue = [3382, 686]\nclass = 0", fillcolor="#ea9b61"] ;
1 -> 2 ;
3 [label="gill-size_n <= 0.5\ngini = 0.252\nsamples = 2442\nvalue = [3339, 579]\nclass = 0", fillcolor="#ea975b"] ;
2 -> 3 ;
4 [label="ring-number_o <= 0.5\ngini = 0.118\nsamples = 2071\nvalue = [3122, 209]\nclass = 0", fillcolor="#e78946"] ;
3 -> 4 ;
5 [label="ring-type_n <= 0.5\ngini = 0.245\nsamples = 291\nvalue = [414, 69]\nclass = 0", fillcolor="#e9965a"] ;
4 -> 5 ;
6 [label="population_v <= 0.5\ngini = 0.17\nsamples = 277\nvalue = [414, 43]\nclass = 0", fillcolor="#e88e4e"] ;
5 -> 6 ;
7 [label="gini = 0.0\nsamples = 248\nvalue = [399, 0]\nclass = 0", fillcolor="#e58139"] ;
6 -> 7 ;
8 [label="cap-surface_y <= 0.5\ngini = 0.383\nsamples = 29\nvalue = [15, 43]\nclass = 1", fillcolor="#7ebfee"] ;
6 -> 8 ;
9 [label="gill-color_w <= 0.5\ngini = 0.278\nsamples = 11\nvalue = [4, 20]\nclass = 1", fillcolor="#61b1ea"] ;
8 -> 9 ;
10 [label="gini = 0.0\nsamples = 6\nvalue = [0, 16]\nclass = 1", fillcolor="#399de5"] ;
9 -> 10 ;
11 [label="cap-shape_x <= 0.5\ngini = 0.5\nsamples = 5\nvalue = [4, 4]\nclass = 0", fillcolor="#ffffff"] ;
9 -> 11 ;
12 [label="spore-print-color_w <= 0.5\ngini = 0.444\nsamples = 4\nvalue = [2, 4]\nclass = 1", fillcolor="#9ccef2"] ;
11 -> 12 ;
13 [label="gini = 0.0\nsamples = 3\nvalue = [0, 4]\nclass = 1", fillcolor="#399de5"] ;
12 -> 13 ;
14 [label="gini = 0.0\nsamples = 1\nvalue = [2, 0]\nclass = 0", fillcolor="#e58139"] ;
12 -> 14 ;
15 [label="gini = 0.0\nsamples = 1\nvalue = [2, 0]\nclass = 0", fillcolor="#e58139"] ;
11 -> 15 ;
16 [label="cap-color_c <= 0.5\ngini = 0.438\nsamples = 18\nvalue = [11, 23]\nclass = 1", fillcolor="#98ccf1"] ;
8 -> 16 ;
17 [label="habitat_p <= 0.5\ngini = 0.383\nsamples = 17\nvalue = [8, 23]\nclass = 1", fillcolor="#7ebfee"] ;
16 -> 17 ;
18 [label="gini = 0.0\nsamples = 12\nvalue = [0, 23]\nclass = 1", fillcolor="#399de5"] ;
17 -> 18 ;
19 [label="gini = 0.0\nsamples = 5\nvalue = [8, 0]\nclass = 0", fillcolor="#e58139"] ;
17 -> 19 ;
20 [label="gini = 0.0\nsamples = 1\nvalue = [3, 0]\nclass = 0", fillcolor="#e58139"] ;
16 -> 20 ;
21 [label="gini = 0.0\nsamples = 14\nvalue = [0, 26]\nclass = 1", fillcolor="#399de5"] ;
5 -> 21 ;
22 [label="gill-color_h <= 0.5\ngini = 0.093\nsamples = 1780\nvalue = [2708, 140]\nclass = 0", fillcolor="#e68843"] ;
4 -> 22 ;
23 [label="spore-print-color_h <= 0.5\ngini = 0.068\nsamples = 1647\nvalue = [2541, 93]\nclass = 0", fillcolor="#e68640"] ;
22 -> 23 ;
24 [label="gini = 0.0\nsamples = 1586\nvalue = [2541, 0]\nclass = 0", fillcolor="#e58139"] ;
23 -> 24 ;
25 [label="gini = 0.0\nsamples = 61\nvalue = [0, 93]\nclass = 1", fillcolor="#399de5"] ;
23 -> 25 ;
26 [label="habitat_g <= 0.5\ngini = 0.343\nsamples = 133\nvalue = [167, 47]\nclass = 0", fillcolor="#eca471"] ;
22 -> 26 ;
27 [label="gini = 0.0\nsamples = 12\nvalue = [0, 21]\nclass = 1", fillcolor="#399de5"] ;
26 -> 27 ;
28 [label="odor_f <= 0.5\ngini = 0.233\nsamples = 121\nvalue = [167, 26]\nclass = 0", fillcolor="#e99558"] ;
26 -> 28 ;
29 [label="gini = 0.0\nsamples = 104\nvalue = [167, 0]\nclass = 0", fillcolor="#e58139"] ;
28 -> 29 ;
30 [label="gini = 0.0\nsamples = 17\nvalue = [0, 26]\nclass = 1", fillcolor="#399de5"] ;
28 -> 30 ;
31 [label="population_s <= 0.5\ngini = 0.466\nsamples = 371\nvalue = [217, 370]\nclass = 1", fillcolor="#add6f4"] ;
3 -> 31 ;
32 [label="stalk-shape_t <= 0.5\ngini = 0.5\nsamples = 272\nvalue = [217, 213]\nclass = 0", fillcolor="#fffdfb"] ;
31 -> 32 ;
33 [label="stalk-surface-below-ring_s <= 0.5\ngini = 0.477\nsamples = 222\nvalue = [138, 213]\nclass = 1", fillcolor="#b9dcf6"] ;
32 -> 33 ;
34 [label="spore-print-color_w <= 0.5\ngini = 0.441\nsamples = 50\nvalue = [49, 24]\nclass = 0", fillcolor="#f2bf9a"] ;
33 -> 34 ;
35 [label="gini = 0.0\nsamples = 21\nvalue = [31, 0]\nclass = 0", fillcolor="#e58139"] ;
34 -> 35 ;
36 [label="habitat_l <= 0.5\ngini = 0.49\nsamples = 29\nvalue = [18, 24]\nclass = 1", fillcolor="#cee6f8"] ;
34 -> 36 ;
37 [label="gini = 0.0\nsamples = 14\nvalue = [0, 19]\nclass = 1", fillcolor="#399de5"] ;
36 -> 37 ;
38 [label="stalk-surface-above-ring_y <= 0.5\ngini = 0.34\nsamples = 15\nvalue = [18, 5]\nclass = 0", fillcolor="#eca470"] ;
36 -> 38 ;
39 [label="gini = 0.0\nsamples = 12\nvalue = [18, 0]\nclass = 0", fillcolor="#e58139"] ;
38 -> 39 ;
40 [label="gini = 0.0\nsamples = 3\nvalue = [0, 5]\nclass = 1", fillcolor="#399de5"] ;
38 -> 40 ;
41 [label="odor_p <= 0.5\ngini = 0.435\nsamples = 172\nvalue = [89, 189]\nclass = 1", fillcolor="#96cbf1"] ;
33 -> 41 ;
42 [label="spore-print-color_w <= 0.5\ngini = 0.494\nsamples = 100\nvalue = [89, 72]\nclass = 0", fillcolor="#fae7d9"] ;
41 -> 42 ;
43 [label="cap-shape_x <= 0.5\ngini = 0.497\nsamples = 93\nvalue = [82, 70]\nclass = 0", fillcolor="#fbede2"] ;
42 -> 43 ;
44 [label="gini = 0.0\nsamples = 38\nvalue = [57, 0]\nclass = 0", fillcolor="#e58139"] ;
43 -> 44 ;
45 [label="cap-surface_f <= 0.5\ngini = 0.388\nsamples = 55\nvalue = [25, 70]\nclass = 1", fillcolor="#80c0ee"] ;
43 -> 45 ;
46 [label="gini = 0.0\nsamples = 19\nvalue = [0, 31]\nclass = 1", fillcolor="#399de5"] ;
45 -> 46 ;
47 [label="habitat_d <= 0.5\ngini = 0.476\nsamples = 36\nvalue = [25, 39]\nclass = 1", fillcolor="#b8dcf6"] ;
45 -> 47 ;
48 [label="gini = 0.0\nsamples = 15\nvalue = [25, 0]\nclass = 0", fillcolor="#e58139"] ;
47 -> 48 ;
49 [label="gini = 0.0\nsamples = 21\nvalue = [0, 39]\nclass = 1", fillcolor="#399de5"] ;
47 -> 49 ;
50 [label="cap-color_c <= 0.5\ngini = 0.346\nsamples = 7\nvalue = [7, 2]\nclass = 0", fillcolor="#eca572"] ;
42 -> 50 ;
51 [label="cap-shape_k <= 0.5\ngini = 0.48\nsamples = 4\nvalue = [3, 2]\nclass = 0", fillcolor="#f6d5bd"] ;
50 -> 51 ;
52 [label="cap-color_n <= 0.5\ngini = 0.5\nsamples = 2\nvalue = [1, 1]\nclass = 0", fillcolor="#ffffff"] ;
51 -> 52 ;
53 [label="gini = 0.0\nsamples = 1\nvalue = [0, 1]\nclass = 1", fillcolor="#399de5"] ;
52 -> 53 ;
54 [label="gini = 0.0\nsamples = 1\nvalue = [1, 0]\nclass = 0", fillcolor="#e58139"] ;
52 -> 54 ;
55 [label="ring-type_e <= 0.5\ngini = 0.444\nsamples = 2\nvalue = [2, 1]\nclass = 0", fillcolor="#f2c09c"] ;
51 -> 55 ;
56 [label="gini = 0.0\nsamples = 1\nvalue = [0, 1]\nclass = 1", fillcolor="#399de5"] ;
55 -> 56 ;
57 [label="gini = 0.0\nsamples = 1\nvalue = [2, 0]\nclass = 0", fillcolor="#e58139"] ;
55 -> 57 ;
58 [label="gini = 0.0\nsamples = 3\nvalue = [4, 0]\nclass = 0", fillcolor="#e58139"] ;
50 -> 58 ;
59 [label="gini = 0.0\nsamples = 72\nvalue = [0, 117]\nclass = 1", fillcolor="#399de5"] ;
41 -> 59 ;
60 [label="gini = 0.0\nsamples = 50\nvalue = [79, 0]\nclass = 0", fillcolor="#e58139"] ;
32 -> 60 ;
61 [label="gini = 0.0\nsamples = 99\nvalue = [0, 157]\nclass = 1", fillcolor="#399de5"] ;
31 -> 61 ;
62 [label="ring-type_e <= 0.5\ngini = 0.409\nsamples = 90\nvalue = [43, 107]\nclass = 1", fillcolor="#89c4ef"] ;
2 -> 62 ;
63 [label="gini = 0.0\nsamples = 68\nvalue = [0, 107]\nclass = 1", fillcolor="#399de5"] ;
62 -> 63 ;
64 [label="gini = 0.0\nsamples = 22\nvalue = [43, 0]\nclass = 0", fillcolor="#e58139"] ;
62 -> 64 ;
65 [label="gini = 0.0\nsamples = 886\nvalue = [0, 1373]\nclass = 1", fillcolor="#399de5"] ;
1 -> 65 ;
66 [label="gini = 0.0\nsamples = 668\nvalue = [0, 1058]\nclass = 1", fillcolor="#399de5"] ;
0 -> 66 [labeldistance=2.5, labelangle=-45, headlabel="False"] ;
}