digraph Tree {
node [shape=box, style="filled, rounded", color="black", fontname="helvetica"] ;
edge [fontname="helvetica"] ;
0 [label="odor_n <= 0.5\ngini = 0.499\nsamples = 4140\nvalue = [3361, 3138]\nclass = 0", fillcolor="#fdf7f2"] ;
1 [label="bruises_f <= 0.5\ngini = 0.293\nsamples = 2346\nvalue = [659, 3042]\nclass = 1", fillcolor="#64b2eb"] ;
0 -> 1 [labeldistance=2.5, labelangle=45, headlabel="True"] ;
2 [label="stalk-root_e <= 0.5\ngini = 0.473\nsamples = 677\nvalue = [659, 411]\nclass = 0", fillcolor="#f5d0b4"] ;
1 -> 2 ;
3 [label="cap-surface_y <= 0.5\ngini = 0.381\nsamples = 554\nvalue = [659, 227]\nclass = 0", fillcolor="#eeac7d"] ;
2 -> 3 ;
4 [label="odor_f <= 0.5\ngini = 0.495\nsamples = 333\nvalue = [280, 227]\nclass = 0", fillcolor="#fae7da"] ;
3 -> 4 ;
5 [label="gini = 0.0\nsamples = 182\nvalue = [280, 0]\nclass = 0", fillcolor="#e58139"] ;
4 -> 5 ;
6 [label="gini = 0.0\nsamples = 151\nvalue = [0, 227]\nclass = 1", fillcolor="#399de5"] ;
4 -> 6 ;
7 [label="gini = 0.0\nsamples = 221\nvalue = [379, 0]\nclass = 0", fillcolor="#e58139"] ;
3 -> 7 ;
8 [label="gini = 0.0\nsamples = 123\nvalue = [0, 184]\nclass = 1", fillcolor="#399de5"] ;
2 -> 8 ;
9 [label="gini = 0.0\nsamples = 1669\nvalue = [0, 2631]\nclass = 1", fillcolor="#399de5"] ;
1 -> 9 ;
10 [label="population_v <= 0.5\ngini = 0.066\nsamples = 1794\nvalue = [2702, 96]\nclass = 0", fillcolor="#e68540"] ;
0 -> 10 [labeldistance=2.5, labelangle=-45, headlabel="False"] ;
11 [label="cap-color_y <= 0.5\ngini = 0.011\nsamples = 1184\nvalue = [1859, 10]\nclass = 0", fillcolor="#e5823a"] ;
10 -> 11 ;
12 [label="gill-size_n <= 0.5\ngini = 0.009\nsamples = 1182\nvalue = [1859, 8]\nclass = 0", fillcolor="#e5823a"] ;
11 -> 12 ;
13 [label="gini = 0.0\nsamples = 1139\nvalue = [1796, 0]\nclass = 0", fillcolor="#e58139"] ;
12 -> 13 ;
14 [label="gill-color_w <= 0.5\ngini = 0.2\nsamples = 43\nvalue = [63, 8]\nclass = 0", fillcolor="#e89152"] ;
12 -> 14 ;
15 [label="gini = 0.0\nsamples = 34\nvalue = [58, 0]\nclass = 0", fillcolor="#e58139"] ;
14 -> 15 ;
16 [label="stalk-surface-below-ring_s <= 0.5\ngini = 0.473\nsamples = 9\nvalue = [5, 8]\nclass = 1", fillcolor="#b5daf5"] ;
14 -> 16 ;
17 [label="gini = 0.0\nsamples = 4\nvalue = [5, 0]\nclass = 0", fillcolor="#e58139"] ;
16 -> 17 ;
18 [label="gini = 0.0\nsamples = 5\nvalue = [0, 8]\nclass = 1", fillcolor="#399de5"] ;
16 -> 18 ;
19 [label="gini = 0.0\nsamples = 2\nvalue = [0, 2]\nclass = 1", fillcolor="#399de5"] ;
11 -> 19 ;
20 [label="habitat_g <= 0.5\ngini = 0.168\nsamples = 610\nvalue = [843, 86]\nclass = 0", fillcolor="#e88e4d"] ;
10 -> 20 ;
21 [label="stalk-shape_t <= 0.5\ngini = 0.111\nsamples = 589\nvalue = [843, 53]\nclass = 0", fillcolor="#e78945"] ;
20 -> 21 ;
22 [label="ring-number_o <= 0.5\ngini = 0.376\nsamples = 144\nvalue = [158, 53]\nclass = 0", fillcolor="#eeab7b"] ;
21 -> 22 ;
23 [label="cap-shape_x <= 0.5\ngini = 0.381\nsamples = 23\nvalue = [11, 32]\nclass = 1", fillcolor="#7dbfee"] ;
22 -> 23 ;
24 [label="habitat_m <= 0.5\ngini = 0.32\nsamples = 22\nvalue = [8, 32]\nclass = 1", fillcolor="#6ab6ec"] ;
23 -> 24 ;
25 [label="gini = 0.0\nsamples = 5\nvalue = [8, 0]\nclass = 0", fillcolor="#e58139"] ;
24 -> 25 ;
26 [label="gini = 0.0\nsamples = 17\nvalue = [0, 32]\nclass = 1", fillcolor="#399de5"] ;
24 -> 26 ;
27 [label="gini = 0.0\nsamples = 1\nvalue = [3, 0]\nclass = 0", fillcolor="#e58139"] ;
23 -> 27 ;
28 [label="stalk-surface-below-ring_y <= 0.5\ngini = 0.219\nsamples = 121\nvalue = [147, 21]\nclass = 0", fillcolor="#e99355"] ;
22 -> 28 ;
29 [label="gini = 0.0\nsamples = 104\nvalue = [147, 0]\nclass = 0", fillcolor="#e58139"] ;
28 -> 29 ;
30 [label="gini = 0.0\nsamples = 17\nvalue = [0, 21]\nclass = 1", fillcolor="#399de5"] ;
28 -> 30 ;
31 [label="gini = 0.0\nsamples = 445\nvalue = [685, 0]\nclass = 0", fillcolor="#e58139"] ;
21 -> 31 ;
32 [label="gini = 0.0\nsamples = 21\nvalue = [0, 33]\nclass = 1", fillcolor="#399de5"] ;
20 -> 32 ;
}