digraph Tree {
node [shape=box, style="filled, rounded", color="black", fontname="helvetica"] ;
edge [fontname="helvetica"] ;
0 [label="odor_n <= 0.5\ngini = 0.5\nsamples = 4100\nvalue = [3343, 3156]\nclass = 0", fillcolor="#fef8f4"] ;
1 [label="bruises_f <= 0.5\ngini = 0.295\nsamples = 2353\nvalue = [673, 3066]\nclass = 1", fillcolor="#64b3eb"] ;
0 -> 1 [labeldistance=2.5, labelangle=45, headlabel="True"] ;
2 [label="odor_l <= 0.5\ngini = 0.471\nsamples = 683\nvalue = [673, 411]\nclass = 0", fillcolor="#f5ceb2"] ;
1 -> 2 ;
3 [label="spore-print-color_h <= 0.5\ngini = 0.494\nsamples = 469\nvalue = [328, 411]\nclass = 1", fillcolor="#d7ebfa"] ;
2 -> 3 ;
4 [label="gill-color_g <= 0.5\ngini = 0.463\nsamples = 328\nvalue = [328, 187]\nclass = 0", fillcolor="#f4c9aa"] ;
3 -> 4 ;
5 [label="gill-size_n <= 0.5\ngini = 0.482\nsamples = 295\nvalue = [275, 187]\nclass = 0", fillcolor="#f7d7c0"] ;
4 -> 5 ;
6 [label="gini = 0.0\nsamples = 145\nvalue = [232, 0]\nclass = 0", fillcolor="#e58139"] ;
5 -> 6 ;
7 [label="habitat_d <= 0.5\ngini = 0.304\nsamples = 150\nvalue = [43, 187]\nclass = 1", fillcolor="#67b4eb"] ;
5 -> 7 ;
8 [label="gini = 0.0\nsamples = 122\nvalue = [0, 187]\nclass = 1", fillcolor="#399de5"] ;
7 -> 8 ;
9 [label="gini = 0.0\nsamples = 28\nvalue = [43, 0]\nclass = 0", fillcolor="#e58139"] ;
7 -> 9 ;
10 [label="gini = 0.0\nsamples = 33\nvalue = [53, 0]\nclass = 0", fillcolor="#e58139"] ;
4 -> 10 ;
11 [label="gini = 0.0\nsamples = 141\nvalue = [0, 224]\nclass = 1", fillcolor="#399de5"] ;
3 -> 11 ;
12 [label="gini = 0.0\nsamples = 214\nvalue = [345, 0]\nclass = 0", fillcolor="#e58139"] ;
2 -> 12 ;
13 [label="gini = 0.0\nsamples = 1670\nvalue = [0, 2655]\nclass = 1", fillcolor="#399de5"] ;
1 -> 13 ;
14 [label="ring-number_t <= 0.5\ngini = 0.063\nsamples = 1747\nvalue = [2670, 90]\nclass = 0", fillcolor="#e68540"] ;
0 -> 14 [labeldistance=2.5, labelangle=-45, headlabel="False"] ;
15 [label="cap-color_g <= 0.5\ngini = 0.023\nsamples = 1451\nvalue = [2269, 27]\nclass = 0", fillcolor="#e5823b"] ;
14 -> 15 ;
16 [label="population_y <= 0.5\ngini = 0.034\nsamples = 994\nvalue = [1533, 27]\nclass = 0", fillcolor="#e5833c"] ;
15 -> 16 ;
17 [label="stalk-surface-above-ring_k <= 0.5\ngini = 0.049\nsamples = 688\nvalue = [1050, 27]\nclass = 0", fillcolor="#e6843e"] ;
16 -> 17 ;
18 [label="stalk-surface-below-ring_y <= 0.5\ngini = 0.015\nsamples = 675\nvalue = [1050, 8]\nclass = 0", fillcolor="#e5823b"] ;
17 -> 18 ;
19 [label="gill-size_n <= 0.5\ngini = 0.006\nsamples = 673\nvalue = [1050, 3]\nclass = 0", fillcolor="#e5813a"] ;
18 -> 19 ;
20 [label="gini = 0.0\nsamples = 639\nvalue = [999, 0]\nclass = 0", fillcolor="#e58139"] ;
19 -> 20 ;
21 [label="stalk-root_b <= 0.5\ngini = 0.105\nsamples = 34\nvalue = [51, 3]\nclass = 0", fillcolor="#e78845"] ;
19 -> 21 ;
22 [label="gini = 0.0\nsamples = 19\nvalue = [30, 0]\nclass = 0", fillcolor="#e58139"] ;
21 -> 22 ;
23 [label="cap-color_n <= 0.5\ngini = 0.219\nsamples = 15\nvalue = [21, 3]\nclass = 0", fillcolor="#e99355"] ;
21 -> 23 ;
24 [label="cap-shape_c <= 0.5\ngini = 0.32\nsamples = 8\nvalue = [12, 3]\nclass = 0", fillcolor="#eca06a"] ;
23 -> 24 ;
25 [label="stalk-surface-above-ring_f <= 0.5\ngini = 0.142\nsamples = 7\nvalue = [12, 1]\nclass = 0", fillcolor="#e78c49"] ;
24 -> 25 ;
26 [label="gini = 0.0\nsamples = 1\nvalue = [0, 1]\nclass = 1", fillcolor="#399de5"] ;
25 -> 26 ;
27 [label="gini = 0.0\nsamples = 6\nvalue = [12, 0]\nclass = 0", fillcolor="#e58139"] ;
25 -> 27 ;
28 [label="gini = 0.0\nsamples = 1\nvalue = [0, 2]\nclass = 1", fillcolor="#399de5"] ;
24 -> 28 ;
29 [label="gini = 0.0\nsamples = 7\nvalue = [9, 0]\nclass = 0", fillcolor="#e58139"] ;
23 -> 29 ;
30 [label="gini = 0.0\nsamples = 2\nvalue = [0, 5]\nclass = 1", fillcolor="#399de5"] ;
18 -> 30 ;
31 [label="gini = 0.0\nsamples = 13\nvalue = [0, 19]\nclass = 1", fillcolor="#399de5"] ;
17 -> 31 ;
32 [label="gini = 0.0\nsamples = 306\nvalue = [483, 0]\nclass = 0", fillcolor="#e58139"] ;
16 -> 32 ;
33 [label="gini = 0.0\nsamples = 457\nvalue = [736, 0]\nclass = 0", fillcolor="#e58139"] ;
15 -> 33 ;
34 [label="stalk-root_? <= 0.5\ngini = 0.235\nsamples = 296\nvalue = [401, 63]\nclass = 0", fillcolor="#e99558"] ;
14 -> 34 ;
35 [label="population_v <= 0.5\ngini = 0.447\nsamples = 61\nvalue = [32, 63]\nclass = 1", fillcolor="#9ecff2"] ;
34 -> 35 ;
36 [label="gini = 0.0\nsamples = 16\nvalue = [24, 0]\nclass = 0", fillcolor="#e58139"] ;
35 -> 36 ;
37 [label="cap-color_g <= 0.5\ngini = 0.2\nsamples = 45\nvalue = [8, 63]\nclass = 1", fillcolor="#52a9e8"] ;
35 -> 37 ;
38 [label="habitat_m <= 0.5\ngini = 0.18\nsamples = 44\nvalue = [7, 63]\nclass = 1", fillcolor="#4fa8e8"] ;
37 -> 38 ;
39 [label="cap-color_n <= 0.5\ngini = 0.32\nsamples = 24\nvalue = [7, 28]\nclass = 1", fillcolor="#6ab6ec"] ;
38 -> 39 ;
40 [label="habitat_g <= 0.5\ngini = 0.257\nsamples = 22\nvalue = [5, 28]\nclass = 1", fillcolor="#5caeea"] ;
39 -> 40 ;
41 [label="gini = 0.0\nsamples = 3\nvalue = [5, 0]\nclass = 0", fillcolor="#e58139"] ;
40 -> 41 ;
42 [label="gini = 0.0\nsamples = 19\nvalue = [0, 28]\nclass = 1", fillcolor="#399de5"] ;
40 -> 42 ;
43 [label="gini = 0.0\nsamples = 2\nvalue = [2, 0]\nclass = 0", fillcolor="#e58139"] ;
39 -> 43 ;
44 [label="gini = 0.0\nsamples = 20\nvalue = [0, 35]\nclass = 1", fillcolor="#399de5"] ;
38 -> 44 ;
45 [label="gini = 0.0\nsamples = 1\nvalue = [1, 0]\nclass = 0", fillcolor="#e58139"] ;
37 -> 45 ;
46 [label="gini = 0.0\nsamples = 235\nvalue = [369, 0]\nclass = 0", fillcolor="#e58139"] ;
34 -> 46 ;
}