digraph Tree {
node [shape=box, style="filled, rounded", color="black", fontname="helvetica"] ;
edge [fontname="helvetica"] ;
0 [label="stalk-root_? <= 0.5\ngini = 0.5\nsamples = 4138\nvalue = [3274, 3225]\nclass = 0", fillcolor="#fffdfc"] ;
1 [label="stalk-shape_e <= 0.5\ngini = 0.477\nsamples = 2858\nvalue = [2705, 1755]\nclass = 0", fillcolor="#f6d3b9"] ;
0 -> 1 [labeldistance=2.5, labelangle=45, headlabel="True"] ;
2 [label="stalk-surface-below-ring_f <= 0.5\ngini = 0.186\nsamples = 1437\nvalue = [2009, 232]\nclass = 0", fillcolor="#e89050"] ;
1 -> 2 ;
3 [label="habitat_u <= 0.5\ngini = 0.127\nsamples = 1174\nvalue = [1689, 124]\nclass = 0", fillcolor="#e78a48"] ;
2 -> 3 ;
4 [label="habitat_d <= 0.5\ngini = 0.068\nsamples = 1131\nvalue = [1689, 62]\nclass = 0", fillcolor="#e68640"] ;
3 -> 4 ;
5 [label="gill-spacing_c <= 0.5\ngini = 0.278\nsamples = 236\nvalue = [309, 62]\nclass = 0", fillcolor="#ea9a61"] ;
4 -> 5 ;
6 [label="gini = 0.0\nsamples = 199\nvalue = [309, 0]\nclass = 0", fillcolor="#e58139"] ;
5 -> 6 ;
7 [label="gini = 0.0\nsamples = 37\nvalue = [0, 62]\nclass = 1", fillcolor="#399de5"] ;
5 -> 7 ;
8 [label="gini = 0.0\nsamples = 895\nvalue = [1380, 0]\nclass = 0", fillcolor="#e58139"] ;
4 -> 8 ;
9 [label="gini = 0.0\nsamples = 43\nvalue = [0, 62]\nclass = 1", fillcolor="#399de5"] ;
3 -> 9 ;
10 [label="cap-color_n <= 0.5\ngini = 0.377\nsamples = 263\nvalue = [320, 108]\nclass = 0", fillcolor="#eeac7c"] ;
2 -> 10 ;
11 [label="spore-print-color_h <= 0.5\ngini = 0.44\nsamples = 201\nvalue = [222, 108]\nclass = 0", fillcolor="#f2be99"] ;
10 -> 11 ;
12 [label="gini = 0.0\nsamples = 130\nvalue = [222, 0]\nclass = 0", fillcolor="#e58139"] ;
11 -> 12 ;
13 [label="gini = 0.0\nsamples = 71\nvalue = [0, 108]\nclass = 1", fillcolor="#399de5"] ;
11 -> 13 ;
14 [label="gini = 0.0\nsamples = 62\nvalue = [98, 0]\nclass = 0", fillcolor="#e58139"] ;
10 -> 14 ;
15 [label="stalk-root_c <= 0.5\ngini = 0.431\nsamples = 1421\nvalue = [696, 1523]\nclass = 1", fillcolor="#93caf1"] ;
1 -> 15 ;
16 [label="bruises_f <= 0.5\ngini = 0.273\nsamples = 1144\nvalue = [291, 1492]\nclass = 1", fillcolor="#60b0ea"] ;
15 -> 16 ;
17 [label="cap-color_y <= 0.5\ngini = 0.463\nsamples = 301\nvalue = [176, 308]\nclass = 1", fillcolor="#aad5f4"] ;
16 -> 17 ;
18 [label="stalk-surface-below-ring_y <= 0.5\ngini = 0.354\nsamples = 248\nvalue = [92, 308]\nclass = 1", fillcolor="#74baed"] ;
17 -> 18 ;
19 [label="population_y <= 0.5\ngini = 0.115\nsamples = 200\nvalue = [20, 308]\nclass = 1", fillcolor="#46a3e7"] ;
18 -> 19 ;
20 [label="stalk-root_b <= 0.5\ngini = 0.083\nsamples = 196\nvalue = [14, 308]\nclass = 1", fillcolor="#42a1e6"] ;
19 -> 20 ;
21 [label="gini = 0.0\nsamples = 141\nvalue = [0, 235]\nclass = 1", fillcolor="#399de5"] ;
20 -> 21 ;
22 [label="cap-shape_b <= 0.5\ngini = 0.27\nsamples = 55\nvalue = [14, 73]\nclass = 1", fillcolor="#5fb0ea"] ;
20 -> 22 ;
23 [label="spore-print-color_r <= 0.5\ngini = 0.398\nsamples = 34\nvalue = [14, 37]\nclass = 1", fillcolor="#84c2ef"] ;
22 -> 23 ;
24 [label="gill-size_b <= 0.5\ngini = 0.388\nsamples = 13\nvalue = [14, 5]\nclass = 0", fillcolor="#eeae80"] ;
23 -> 24 ;
25 [label="gini = 0.0\nsamples = 4\nvalue = [0, 5]\nclass = 1", fillcolor="#399de5"] ;
24 -> 25 ;
26 [label="gini = 0.0\nsamples = 9\nvalue = [14, 0]\nclass = 0", fillcolor="#e58139"] ;
24 -> 26 ;
27 [label="gini = 0.0\nsamples = 21\nvalue = [0, 32]\nclass = 1", fillcolor="#399de5"] ;
23 -> 27 ;
28 [label="gini = 0.0\nsamples = 21\nvalue = [0, 36]\nclass = 1", fillcolor="#399de5"] ;
22 -> 28 ;
29 [label="gini = 0.0\nsamples = 4\nvalue = [6, 0]\nclass = 0", fillcolor="#e58139"] ;
19 -> 29 ;
30 [label="gini = 0.0\nsamples = 48\nvalue = [72, 0]\nclass = 0", fillcolor="#e58139"] ;
18 -> 30 ;
31 [label="gini = 0.0\nsamples = 53\nvalue = [84, 0]\nclass = 0", fillcolor="#e58139"] ;
17 -> 31 ;
32 [label="stalk-color-above-ring_w <= 0.5\ngini = 0.161\nsamples = 843\nvalue = [115, 1184]\nclass = 1", fillcolor="#4ca7e8"] ;
16 -> 32 ;
33 [label="gill-color_w <= 0.5\ngini = 0.023\nsamples = 679\nvalue = [12, 1036]\nclass = 1", fillcolor="#3b9ee5"] ;
32 -> 33 ;
34 [label="gini = 0.0\nsamples = 671\nvalue = [0, 1036]\nclass = 1", fillcolor="#399de5"] ;
33 -> 34 ;
35 [label="gini = 0.0\nsamples = 8\nvalue = [12, 0]\nclass = 0", fillcolor="#e58139"] ;
33 -> 35 ;
36 [label="cap-surface_y <= 0.5\ngini = 0.484\nsamples = 164\nvalue = [103, 148]\nclass = 1", fillcolor="#c3e1f7"] ;
32 -> 36 ;
37 [label="cap-surface_s <= 0.5\ngini = 0.468\nsamples = 155\nvalue = [88, 148]\nclass = 1", fillcolor="#afd7f4"] ;
36 -> 37 ;
38 [label="ring-type_p <= 0.5\ngini = 0.482\nsamples = 102\nvalue = [88, 60]\nclass = 0", fillcolor="#f7d7c0"] ;
37 -> 38 ;
39 [label="gini = 0.0\nsamples = 10\nvalue = [22, 0]\nclass = 0", fillcolor="#e58139"] ;
38 -> 39 ;
40 [label="habitat_u <= 0.5\ngini = 0.499\nsamples = 92\nvalue = [66, 60]\nclass = 0", fillcolor="#fdf4ed"] ;
38 -> 40 ;
41 [label="gini = 0.0\nsamples = 44\nvalue = [0, 60]\nclass = 1", fillcolor="#399de5"] ;
40 -> 41 ;
42 [label="gini = 0.0\nsamples = 48\nvalue = [66, 0]\nclass = 0", fillcolor="#e58139"] ;
40 -> 42 ;
43 [label="gini = 0.0\nsamples = 53\nvalue = [0, 88]\nclass = 1", fillcolor="#399de5"] ;
37 -> 43 ;
44 [label="gini = 0.0\nsamples = 9\nvalue = [15, 0]\nclass = 0", fillcolor="#e58139"] ;
36 -> 44 ;
45 [label="bruises_t <= 0.5\ngini = 0.132\nsamples = 277\nvalue = [405, 31]\nclass = 0", fillcolor="#e78b48"] ;
15 -> 45 ;
46 [label="gini = 0.0\nsamples = 22\nvalue = [0, 31]\nclass = 1", fillcolor="#399de5"] ;
45 -> 46 ;
47 [label="gini = 0.0\nsamples = 255\nvalue = [405, 0]\nclass = 0", fillcolor="#e58139"] ;
45 -> 47 ;
48 [label="population_c <= 0.5\ngini = 0.402\nsamples = 1280\nvalue = [569, 1470]\nclass = 1", fillcolor="#86c3ef"] ;
0 -> 48 [labeldistance=2.5, labelangle=-45, headlabel="False"] ;
49 [label="ring-type_e <= 0.5\ngini = 0.305\nsamples = 1138\nvalue = [340, 1470]\nclass = 1", fillcolor="#67b4eb"] ;
48 -> 49 ;
50 [label="gini = 0.0\nsamples = 212\nvalue = [340, 0]\nclass = 0", fillcolor="#e58139"] ;
49 -> 50 ;
51 [label="gini = 0.0\nsamples = 926\nvalue = [0, 1470]\nclass = 1", fillcolor="#399de5"] ;
49 -> 51 ;
52 [label="gini = 0.0\nsamples = 142\nvalue = [229, 0]\nclass = 0", fillcolor="#e58139"] ;
48 -> 52 ;
}