digraph Tree {
node [shape=box, style="filled, rounded", color="black", fontname="helvetica"] ;
edge [fontname="helvetica"] ;
0 [label="spore-print-color_k <= 0.5\ngini = 0.499\nsamples = 4125\nvalue = [3409, 3090]\nclass = 0", fillcolor="#fdf3ec"] ;
1 [label="population_v <= 0.5\ngini = 0.487\nsamples = 3192\nvalue = [2123, 2933]\nclass = 1", fillcolor="#c8e4f8"] ;
0 -> 1 [labeldistance=2.5, labelangle=45, headlabel="True"] ;
2 [label="stalk-surface-below-ring_k <= 0.5\ngini = 0.436\nsamples = 1448\nvalue = [1567, 740]\nclass = 0", fillcolor="#f1bd97"] ;
1 -> 2 ;
3 [label="gill-size_n <= 0.5\ngini = 0.237\nsamples = 1024\nvalue = [1424, 227]\nclass = 0", fillcolor="#e99559"] ;
2 -> 3 ;
4 [label="spore-print-color_h <= 0.5\ngini = 0.176\nsamples = 938\nvalue = [1382, 149]\nclass = 0", fillcolor="#e88f4e"] ;
3 -> 4 ;
5 [label="spore-print-color_w <= 0.5\ngini = 0.048\nsamples = 864\nvalue = [1382, 35]\nclass = 0", fillcolor="#e6843e"] ;
4 -> 5 ;
6 [label="gini = 0.0\nsamples = 649\nvalue = [1067, 0]\nclass = 0", fillcolor="#e58139"] ;
5 -> 6 ;
7 [label="stalk-color-below-ring_c <= 0.5\ngini = 0.18\nsamples = 215\nvalue = [315, 35]\nclass = 0", fillcolor="#e88f4f"] ;
5 -> 7 ;
8 [label="gini = 0.0\nsamples = 194\nvalue = [315, 0]\nclass = 0", fillcolor="#e58139"] ;
7 -> 8 ;
9 [label="gini = 0.0\nsamples = 21\nvalue = [0, 35]\nclass = 1", fillcolor="#399de5"] ;
7 -> 9 ;
10 [label="gini = 0.0\nsamples = 74\nvalue = [0, 114]\nclass = 1", fillcolor="#399de5"] ;
4 -> 10 ;
11 [label="veil-color_y <= 0.5\ngini = 0.455\nsamples = 86\nvalue = [42, 78]\nclass = 1", fillcolor="#a4d2f3"] ;
3 -> 11 ;
12 [label="odor_p <= 0.5\ngini = 0.465\nsamples = 81\nvalue = [42, 72]\nclass = 1", fillcolor="#acd6f4"] ;
11 -> 12 ;
13 [label="ring-type_p <= 0.5\ngini = 0.496\nsamples = 53\nvalue = [42, 35]\nclass = 0", fillcolor="#fbeade"] ;
12 -> 13 ;
14 [label="gini = 0.0\nsamples = 13\nvalue = [20, 0]\nclass = 0", fillcolor="#e58139"] ;
13 -> 14 ;
15 [label="cap-surface_f <= 0.5\ngini = 0.474\nsamples = 40\nvalue = [22, 35]\nclass = 1", fillcolor="#b5dbf5"] ;
13 -> 15 ;
16 [label="gini = 0.0\nsamples = 14\nvalue = [0, 19]\nclass = 1", fillcolor="#399de5"] ;
15 -> 16 ;
17 [label="cap-color_g <= 0.5\ngini = 0.488\nsamples = 26\nvalue = [22, 16]\nclass = 0", fillcolor="#f8ddc9"] ;
15 -> 17 ;
18 [label="habitat_d <= 0.5\ngini = 0.499\nsamples = 15\nvalue = [10, 11]\nclass = 1", fillcolor="#edf6fd"] ;
17 -> 18 ;
19 [label="gini = 0.0\nsamples = 7\nvalue = [10, 0]\nclass = 0", fillcolor="#e58139"] ;
18 -> 19 ;
20 [label="gini = 0.0\nsamples = 8\nvalue = [0, 11]\nclass = 1", fillcolor="#399de5"] ;
18 -> 20 ;
21 [label="population_s <= 0.5\ngini = 0.415\nsamples = 11\nvalue = [12, 5]\nclass = 0", fillcolor="#f0b58b"] ;
17 -> 21 ;
22 [label="gini = 0.0\nsamples = 7\nvalue = [12, 0]\nclass = 0", fillcolor="#e58139"] ;
21 -> 22 ;
23 [label="gini = 0.0\nsamples = 4\nvalue = [0, 5]\nclass = 1", fillcolor="#399de5"] ;
21 -> 23 ;
24 [label="gini = 0.0\nsamples = 28\nvalue = [0, 37]\nclass = 1", fillcolor="#399de5"] ;
12 -> 24 ;
25 [label="gini = 0.0\nsamples = 5\nvalue = [0, 6]\nclass = 1", fillcolor="#399de5"] ;
11 -> 25 ;
26 [label="stalk-color-below-ring_w <= 0.5\ngini = 0.341\nsamples = 424\nvalue = [143, 513]\nclass = 1", fillcolor="#70b8ec"] ;
2 -> 26 ;
27 [label="gini = 0.0\nsamples = 339\nvalue = [0, 513]\nclass = 1", fillcolor="#399de5"] ;
26 -> 27 ;
28 [label="gini = 0.0\nsamples = 85\nvalue = [143, 0]\nclass = 0", fillcolor="#e58139"] ;
26 -> 28 ;
29 [label="stalk-color-above-ring_g <= 0.5\ngini = 0.323\nsamples = 1744\nvalue = [556, 2193]\nclass = 1", fillcolor="#6bb6ec"] ;
1 -> 29 ;
30 [label="bruises_f <= 0.5\ngini = 0.277\nsamples = 1673\nvalue = [436, 2193]\nclass = 1", fillcolor="#60b0ea"] ;
29 -> 30 ;
31 [label="cap-surface_f <= 0.5\ngini = 0.493\nsamples = 322\nvalue = [282, 222]\nclass = 0", fillcolor="#f9e4d5"] ;
30 -> 31 ;
32 [label="habitat_g <= 0.5\ngini = 0.479\nsamples = 232\nvalue = [147, 222]\nclass = 1", fillcolor="#bcdef6"] ;
31 -> 32 ;
33 [label="gill-spacing_w <= 0.5\ngini = 0.493\nsamples = 160\nvalue = [147, 115]\nclass = 0", fillcolor="#f9e4d4"] ;
32 -> 33 ;
34 [label="cap-surface_s <= 0.5\ngini = 0.5\nsamples = 137\nvalue = [111, 115]\nclass = 1", fillcolor="#f8fcfe"] ;
33 -> 34 ;
35 [label="cap-shape_b <= 0.5\ngini = 0.285\nsamples = 81\nvalue = [106, 22]\nclass = 0", fillcolor="#ea9b62"] ;
34 -> 35 ;
36 [label="cap-color_w <= 0.5\ngini = 0.238\nsamples = 78\nvalue = [106, 17]\nclass = 0", fillcolor="#e99559"] ;
35 -> 36 ;
37 [label="gill-color_k <= 0.5\ngini = 0.144\nsamples = 70\nvalue = [106, 9]\nclass = 0", fillcolor="#e78c4a"] ;
36 -> 37 ;
38 [label="habitat_u <= 0.5\ngini = 0.101\nsamples = 69\nvalue = [106, 6]\nclass = 0", fillcolor="#e68844"] ;
37 -> 38 ;
39 [label="cap-color_e <= 0.5\ngini = 0.036\nsamples = 66\nvalue = [106, 2]\nclass = 0", fillcolor="#e5833d"] ;
38 -> 39 ;
40 [label="gill-color_r <= 0.5\ngini = 0.045\nsamples = 51\nvalue = [84, 2]\nclass = 0", fillcolor="#e6843e"] ;
39 -> 40 ;
41 [label="ring-number_t <= 0.5\ngini = 0.023\nsamples = 50\nvalue = [84, 1]\nclass = 0", fillcolor="#e5823b"] ;
40 -> 41 ;
42 [label="gini = 0.0\nsamples = 46\nvalue = [79, 0]\nclass = 0", fillcolor="#e58139"] ;
41 -> 42 ;
43 [label="spore-print-color_r <= 0.5\ngini = 0.278\nsamples = 4\nvalue = [5, 1]\nclass = 0", fillcolor="#ea9a61"] ;
41 -> 43 ;
44 [label="gini = 0.0\nsamples = 3\nvalue = [5, 0]\nclass = 0", fillcolor="#e58139"] ;
43 -> 44 ;
45 [label="gini = 0.0\nsamples = 1\nvalue = [0, 1]\nclass = 1", fillcolor="#399de5"] ;
43 -> 45 ;
46 [label="gini = 0.0\nsamples = 1\nvalue = [0, 1]\nclass = 1", fillcolor="#399de5"] ;
40 -> 46 ;
47 [label="gini = 0.0\nsamples = 15\nvalue = [22, 0]\nclass = 0", fillcolor="#e58139"] ;
39 -> 47 ;
48 [label="gini = 0.0\nsamples = 3\nvalue = [0, 4]\nclass = 1", fillcolor="#399de5"] ;
38 -> 48 ;
49 [label="gini = 0.0\nsamples = 1\nvalue = [0, 3]\nclass = 1", fillcolor="#399de5"] ;
37 -> 49 ;
50 [label="gini = 0.0\nsamples = 8\nvalue = [0, 8]\nclass = 1", fillcolor="#399de5"] ;
36 -> 50 ;
51 [label="gini = 0.0\nsamples = 3\nvalue = [0, 5]\nclass = 1", fillcolor="#399de5"] ;
35 -> 51 ;
52 [label="gill-color_w <= 0.5\ngini = 0.097\nsamples = 56\nvalue = [5, 93]\nclass = 1", fillcolor="#44a2e6"] ;
34 -> 52 ;
53 [label="gini = 0.0\nsamples = 37\nvalue = [0, 65]\nclass = 1", fillcolor="#399de5"] ;
52 -> 53 ;
54 [label="cap-color_w <= 0.5\ngini = 0.257\nsamples = 19\nvalue = [5, 28]\nclass = 1", fillcolor="#5caeea"] ;
52 -> 54 ;
55 [label="odor_f <= 0.5\ngini = 0.302\nsamples = 15\nvalue = [5, 22]\nclass = 1", fillcolor="#66b3eb"] ;
54 -> 55 ;
56 [label="spore-print-color_r <= 0.5\ngini = 0.486\nsamples = 6\nvalue = [5, 7]\nclass = 1", fillcolor="#c6e3f8"] ;
55 -> 56 ;
57 [label="cap-color_n <= 0.5\ngini = 0.278\nsamples = 4\nvalue = [5, 1]\nclass = 0", fillcolor="#ea9a61"] ;
56 -> 57 ;
58 [label="gini = 0.0\nsamples = 2\nvalue = [2, 0]\nclass = 0", fillcolor="#e58139"] ;
57 -> 58 ;
59 [label="odor_p <= 0.5\ngini = 0.375\nsamples = 2\nvalue = [3, 1]\nclass = 0", fillcolor="#eeab7b"] ;
57 -> 59 ;
60 [label="gini = 0.0\nsamples = 1\nvalue = [3, 0]\nclass = 0", fillcolor="#e58139"] ;
59 -> 60 ;
61 [label="gini = 0.0\nsamples = 1\nvalue = [0, 1]\nclass = 1", fillcolor="#399de5"] ;
59 -> 61 ;
62 [label="gini = 0.0\nsamples = 2\nvalue = [0, 6]\nclass = 1", fillcolor="#399de5"] ;
56 -> 62 ;
63 [label="gini = 0.0\nsamples = 9\nvalue = [0, 15]\nclass = 1", fillcolor="#399de5"] ;
55 -> 63 ;
64 [label="gini = 0.0\nsamples = 4\nvalue = [0, 6]\nclass = 1", fillcolor="#399de5"] ;
54 -> 64 ;
65 [label="gini = 0.0\nsamples = 23\nvalue = [36, 0]\nclass = 0", fillcolor="#e58139"] ;
33 -> 65 ;
66 [label="gini = 0.0\nsamples = 72\nvalue = [0, 107]\nclass = 1", fillcolor="#399de5"] ;
32 -> 66 ;
67 [label="gini = 0.0\nsamples = 90\nvalue = [135, 0]\nclass = 0", fillcolor="#e58139"] ;
31 -> 67 ;
68 [label="veil-color_n <= 0.5\ngini = 0.134\nsamples = 1351\nvalue = [154, 1971]\nclass = 1", fillcolor="#48a5e7"] ;
30 -> 68 ;
69 [label="spore-print-color_b <= 0.5\ngini = 0.099\nsamples = 1323\nvalue = [109, 1971]\nclass = 1", fillcolor="#44a2e6"] ;
68 -> 69 ;
70 [label="stalk-surface-below-ring_s <= 0.5\ngini = 0.084\nsamples = 1314\nvalue = [91, 1971]\nclass = 1", fillcolor="#42a2e6"] ;
69 -> 70 ;
71 [label="cap-color_c <= 0.5\ngini = 0.046\nsamples = 813\nvalue = [30, 1234]\nclass = 1", fillcolor="#3e9fe6"] ;
70 -> 71 ;
72 [label="cap-color_w <= 0.5\ngini = 0.036\nsamples = 809\nvalue = [23, 1234]\nclass = 1", fillcolor="#3d9fe5"] ;
71 -> 72 ;
73 [label="gill-color_u <= 0.5\ngini = 0.025\nsamples = 803\nvalue = [16, 1234]\nclass = 1", fillcolor="#3c9ee5"] ;
72 -> 73 ;
74 [label="gill-size_b <= 0.5\ngini = 0.016\nsamples = 800\nvalue = [10, 1234]\nclass = 1", fillcolor="#3b9ee5"] ;
73 -> 74 ;
75 [label="stalk-surface-below-ring_f <= 0.5\ngini = 0.028\nsamples = 450\nvalue = [10, 685]\nclass = 1", fillcolor="#3c9ee5"] ;
74 -> 75 ;
76 [label="gini = 0.0\nsamples = 443\nvalue = [0, 685]\nclass = 1", fillcolor="#399de5"] ;
75 -> 76 ;
77 [label="gini = 0.0\nsamples = 7\nvalue = [10, 0]\nclass = 0", fillcolor="#e58139"] ;
75 -> 77 ;
78 [label="gini = 0.0\nsamples = 350\nvalue = [0, 549]\nclass = 1", fillcolor="#399de5"] ;
74 -> 78 ;
79 [label="gini = 0.0\nsamples = 3\nvalue = [6, 0]\nclass = 0", fillcolor="#e58139"] ;
73 -> 79 ;
80 [label="gini = 0.0\nsamples = 6\nvalue = [7, 0]\nclass = 0", fillcolor="#e58139"] ;
72 -> 80 ;
81 [label="gini = 0.0\nsamples = 4\nvalue = [7, 0]\nclass = 0", fillcolor="#e58139"] ;
71 -> 81 ;
82 [label="stalk-color-below-ring_o <= 0.5\ngini = 0.141\nsamples = 501\nvalue = [61, 737]\nclass = 1", fillcolor="#49a5e7"] ;
70 -> 82 ;
83 [label="habitat_u <= 0.5\ngini = 0.084\nsamples = 484\nvalue = [34, 737]\nclass = 1", fillcolor="#42a2e6"] ;
82 -> 83 ;
84 [label="stalk-surface-above-ring_f <= 0.5\ngini = 0.042\nsamples = 472\nvalue = [16, 737]\nclass = 1", fillcolor="#3d9fe6"] ;
83 -> 84 ;
85 [label="gill-spacing_c <= 0.5\ngini = 0.019\nsamples = 466\nvalue = [7, 737]\nclass = 1", fillcolor="#3b9ee5"] ;
84 -> 85 ;
86 [label="spore-print-color_w <= 0.5\ngini = 0.423\nsamples = 12\nvalue = [7, 16]\nclass = 1", fillcolor="#90c8f0"] ;
85 -> 86 ;
87 [label="gini = 0.0\nsamples = 8\nvalue = [0, 16]\nclass = 1", fillcolor="#399de5"] ;
86 -> 87 ;
88 [label="gini = 0.0\nsamples = 4\nvalue = [7, 0]\nclass = 0", fillcolor="#e58139"] ;
86 -> 88 ;
89 [label="gini = 0.0\nsamples = 454\nvalue = [0, 721]\nclass = 1", fillcolor="#399de5"] ;
85 -> 89 ;
90 [label="gini = 0.0\nsamples = 6\nvalue = [9, 0]\nclass = 0", fillcolor="#e58139"] ;
84 -> 90 ;
91 [label="gini = 0.0\nsamples = 12\nvalue = [18, 0]\nclass = 0", fillcolor="#e58139"] ;
83 -> 91 ;
92 [label="gini = 0.0\nsamples = 17\nvalue = [27, 0]\nclass = 0", fillcolor="#e58139"] ;
82 -> 92 ;
93 [label="gini = 0.0\nsamples = 9\nvalue = [18, 0]\nclass = 0", fillcolor="#e58139"] ;
69 -> 93 ;
94 [label="gini = 0.0\nsamples = 28\nvalue = [45, 0]\nclass = 0", fillcolor="#e58139"] ;
68 -> 94 ;
95 [label="gini = 0.0\nsamples = 71\nvalue = [120, 0]\nclass = 0", fillcolor="#e58139"] ;
29 -> 95 ;
96 [label="stalk-color-below-ring_w <= 0.5\ngini = 0.194\nsamples = 933\nvalue = [1286, 157]\nclass = 0", fillcolor="#e89051"] ;
0 -> 96 [labeldistance=2.5, labelangle=-45, headlabel="False"] ;
97 [label="gini = 0.0\nsamples = 281\nvalue = [443, 0]\nclass = 0", fillcolor="#e58139"] ;
96 -> 97 ;
98 [label="gill-size_b <= 0.5\ngini = 0.265\nsamples = 652\nvalue = [843, 157]\nclass = 0", fillcolor="#ea985e"] ;
96 -> 98 ;
99 [label="cap-surface_f <= 0.5\ngini = 0.342\nsamples = 131\nvalue = [44, 157]\nclass = 1", fillcolor="#70b8ec"] ;
98 -> 99 ;
100 [label="gini = 0.0\nsamples = 81\nvalue = [0, 122]\nclass = 1", fillcolor="#399de5"] ;
99 -> 100 ;
101 [label="population_v <= 0.5\ngini = 0.494\nsamples = 50\nvalue = [44, 35]\nclass = 0", fillcolor="#fae5d7"] ;
99 -> 101 ;
102 [label="habitat_u <= 0.5\ngini = 0.5\nsamples = 26\nvalue = [19, 19]\nclass = 0", fillcolor="#ffffff"] ;
101 -> 102 ;
103 [label="gini = 0.0\nsamples = 14\nvalue = [0, 19]\nclass = 1", fillcolor="#399de5"] ;
102 -> 103 ;
104 [label="gini = 0.0\nsamples = 12\nvalue = [19, 0]\nclass = 0", fillcolor="#e58139"] ;
102 -> 104 ;
105 [label="habitat_d <= 0.5\ngini = 0.476\nsamples = 24\nvalue = [25, 16]\nclass = 0", fillcolor="#f6d2b8"] ;
101 -> 105 ;
106 [label="gini = 0.0\nsamples = 14\nvalue = [25, 0]\nclass = 0", fillcolor="#e58139"] ;
105 -> 106 ;
107 [label="gini = 0.0\nsamples = 10\nvalue = [0, 16]\nclass = 1", fillcolor="#399de5"] ;
105 -> 107 ;
108 [label="gini = 0.0\nsamples = 521\nvalue = [799, 0]\nclass = 0", fillcolor="#e58139"] ;
98 -> 108 ;
}