digraph Tree {
node [shape=box, style="filled, rounded", color="black", fontname="helvetica"] ;
edge [fontname="helvetica"] ;
0 [label="bruises_t <= 0.5\ngini = 0.5\nsamples = 4106\nvalue = [3322, 3177]\nclass = 0", fillcolor="#fefaf6"] ;
1 [label="habitat_g <= 0.5\ngini = 0.414\nsamples = 2437\nvalue = [1128, 2724]\nclass = 1", fillcolor="#8bc6f0"] ;
0 -> 1 [labeldistance=2.5, labelangle=45, headlabel="True"] ;
2 [label="odor_n <= 0.5\ngini = 0.207\nsamples = 1689\nvalue = [314, 2360]\nclass = 1", fillcolor="#53aae8"] ;
1 -> 2 ;
3 [label="gini = 0.0\nsamples = 1465\nvalue = [0, 2329]\nclass = 1", fillcolor="#399de5"] ;
2 -> 3 ;
4 [label="cap-color_y <= 0.5\ngini = 0.164\nsamples = 224\nvalue = [314, 31]\nclass = 0", fillcolor="#e88d4d"] ;
2 -> 4 ;
5 [label="population_v <= 0.5\ngini = 0.082\nsamples = 213\nvalue = [314, 14]\nclass = 0", fillcolor="#e68742"] ;
4 -> 5 ;
6 [label="gini = 0.0\nsamples = 92\nvalue = [138, 0]\nclass = 0", fillcolor="#e58139"] ;
5 -> 6 ;
7 [label="stalk-color-below-ring_y <= 0.5\ngini = 0.137\nsamples = 121\nvalue = [176, 14]\nclass = 0", fillcolor="#e78b49"] ;
5 -> 7 ;
8 [label="habitat_l <= 0.5\ngini = 0.074\nsamples = 116\nvalue = [176, 7]\nclass = 0", fillcolor="#e68641"] ;
7 -> 8 ;
9 [label="spore-print-color_w <= 0.5\ngini = 0.169\nsamples = 46\nvalue = [68, 7]\nclass = 0", fillcolor="#e88e4d"] ;
8 -> 9 ;
10 [label="gini = 0.0\nsamples = 41\nvalue = [68, 0]\nclass = 0", fillcolor="#e58139"] ;
9 -> 10 ;
11 [label="gini = 0.0\nsamples = 5\nvalue = [0, 7]\nclass = 1", fillcolor="#399de5"] ;
9 -> 11 ;
12 [label="gini = 0.0\nsamples = 70\nvalue = [108, 0]\nclass = 0", fillcolor="#e58139"] ;
8 -> 12 ;
13 [label="gini = 0.0\nsamples = 5\nvalue = [0, 7]\nclass = 1", fillcolor="#399de5"] ;
7 -> 13 ;
14 [label="gini = 0.0\nsamples = 11\nvalue = [0, 17]\nclass = 1", fillcolor="#399de5"] ;
4 -> 14 ;
15 [label="odor_f <= 0.5\ngini = 0.427\nsamples = 748\nvalue = [814, 364]\nclass = 0", fillcolor="#f1b992"] ;
1 -> 15 ;
16 [label="gini = 0.0\nsamples = 526\nvalue = [814, 0]\nclass = 0", fillcolor="#e58139"] ;
15 -> 16 ;
17 [label="gini = 0.0\nsamples = 222\nvalue = [0, 364]\nclass = 1", fillcolor="#399de5"] ;
15 -> 17 ;
18 [label="cap-surface_f <= 0.5\ngini = 0.284\nsamples = 1669\nvalue = [2194, 453]\nclass = 0", fillcolor="#ea9b62"] ;
0 -> 18 [labeldistance=2.5, labelangle=-45, headlabel="False"] ;
19 [label="odor_p <= 0.5\ngini = 0.362\nsamples = 1203\nvalue = [1458, 453]\nclass = 0", fillcolor="#eda877"] ;
18 -> 19 ;
20 [label="stalk-surface-above-ring_s <= 0.5\ngini = 0.264\nsamples = 1083\nvalue = [1458, 270]\nclass = 0", fillcolor="#ea985e"] ;
19 -> 20 ;
21 [label="gini = 0.0\nsamples = 66\nvalue = [0, 107]\nclass = 1", fillcolor="#399de5"] ;
20 -> 21 ;
22 [label="stalk-root_c <= 0.5\ngini = 0.181\nsamples = 1017\nvalue = [1458, 163]\nclass = 0", fillcolor="#e88f4f"] ;
20 -> 22 ;
23 [label="stalk-surface-below-ring_f <= 0.5\ngini = 0.237\nsamples = 742\nvalue = [1022, 163]\nclass = 0", fillcolor="#e99559"] ;
22 -> 23 ;
24 [label="spore-print-color_r <= 0.5\ngini = 0.177\nsamples = 707\nvalue = [1022, 111]\nclass = 0", fillcolor="#e88f4f"] ;
23 -> 24 ;
25 [label="habitat_g <= 0.5\ngini = 0.089\nsamples = 674\nvalue = [1022, 50]\nclass = 0", fillcolor="#e68743"] ;
24 -> 25 ;
26 [label="spore-print-color_k <= 0.5\ngini = 0.054\nsamples = 605\nvalue = [939, 27]\nclass = 0", fillcolor="#e6853f"] ;
25 -> 26 ;
27 [label="population_s <= 0.5\ngini = 0.088\nsamples = 368\nvalue = [556, 27]\nclass = 0", fillcolor="#e68743"] ;
26 -> 27 ;
28 [label="habitat_l <= 0.5\ngini = 0.062\nsamples = 351\nvalue = [542, 18]\nclass = 0", fillcolor="#e68540"] ;
27 -> 28 ;
29 [label="cap-surface_s <= 0.5\ngini = 0.046\nsamples = 348\nvalue = [542, 13]\nclass = 0", fillcolor="#e6843e"] ;
28 -> 29 ;
30 [label="gini = 0.0\nsamples = 267\nvalue = [421, 0]\nclass = 0", fillcolor="#e58139"] ;
29 -> 30 ;
31 [label="cap-shape_x <= 0.5\ngini = 0.175\nsamples = 81\nvalue = [121, 13]\nclass = 0", fillcolor="#e88f4e"] ;
29 -> 31 ;
32 [label="spore-print-color_w <= 0.5\ngini = 0.055\nsamples = 46\nvalue = [69, 2]\nclass = 0", fillcolor="#e6853f"] ;
31 -> 32 ;
33 [label="gill-spacing_c <= 0.5\ngini = 0.153\nsamples = 17\nvalue = [22, 2]\nclass = 0", fillcolor="#e78c4b"] ;
32 -> 33 ;
34 [label="gini = 0.0\nsamples = 15\nvalue = [22, 0]\nclass = 0", fillcolor="#e58139"] ;
33 -> 34 ;
35 [label="gini = 0.0\nsamples = 2\nvalue = [0, 2]\nclass = 1", fillcolor="#399de5"] ;
33 -> 35 ;
36 [label="gini = 0.0\nsamples = 29\nvalue = [47, 0]\nclass = 0", fillcolor="#e58139"] ;
32 -> 36 ;
37 [label="spore-print-color_h <= 0.5\ngini = 0.288\nsamples = 35\nvalue = [52, 11]\nclass = 0", fillcolor="#ea9c63"] ;
31 -> 37 ;
38 [label="gini = 0.0\nsamples = 30\nvalue = [52, 0]\nclass = 0", fillcolor="#e58139"] ;
37 -> 38 ;
39 [label="gini = 0.0\nsamples = 5\nvalue = [0, 11]\nclass = 1", fillcolor="#399de5"] ;
37 -> 39 ;
40 [label="gini = 0.0\nsamples = 3\nvalue = [0, 5]\nclass = 1", fillcolor="#399de5"] ;
28 -> 40 ;
41 [label="stalk-surface-below-ring_s <= 0.5\ngini = 0.476\nsamples = 17\nvalue = [14, 9]\nclass = 0", fillcolor="#f6d2b8"] ;
27 -> 41 ;
42 [label="gini = 0.0\nsamples = 10\nvalue = [14, 0]\nclass = 0", fillcolor="#e58139"] ;
41 -> 42 ;
43 [label="gini = 0.0\nsamples = 7\nvalue = [0, 9]\nclass = 1", fillcolor="#399de5"] ;
41 -> 43 ;
44 [label="gini = 0.0\nsamples = 237\nvalue = [383, 0]\nclass = 0", fillcolor="#e58139"] ;
26 -> 44 ;
45 [label="cap-color_w <= 0.5\ngini = 0.34\nsamples = 69\nvalue = [83, 23]\nclass = 0", fillcolor="#eca470"] ;
25 -> 45 ;
46 [label="stalk-root_r <= 0.5\ngini = 0.259\nsamples = 62\nvalue = [83, 15]\nclass = 0", fillcolor="#ea985d"] ;
45 -> 46 ;
47 [label="gini = 0.0\nsamples = 8\nvalue = [0, 15]\nclass = 1", fillcolor="#399de5"] ;
46 -> 47 ;
48 [label="gini = 0.0\nsamples = 54\nvalue = [83, 0]\nclass = 0", fillcolor="#e58139"] ;
46 -> 48 ;
49 [label="gini = 0.0\nsamples = 7\nvalue = [0, 8]\nclass = 1", fillcolor="#399de5"] ;
45 -> 49 ;
50 [label="gini = 0.0\nsamples = 33\nvalue = [0, 61]\nclass = 1", fillcolor="#399de5"] ;
24 -> 50 ;
51 [label="gini = 0.0\nsamples = 35\nvalue = [0, 52]\nclass = 1", fillcolor="#399de5"] ;
23 -> 51 ;
52 [label="gini = 0.0\nsamples = 275\nvalue = [436, 0]\nclass = 0", fillcolor="#e58139"] ;
22 -> 52 ;
53 [label="gini = 0.0\nsamples = 120\nvalue = [0, 183]\nclass = 1", fillcolor="#399de5"] ;
19 -> 53 ;
54 [label="gini = 0.0\nsamples = 466\nvalue = [736, 0]\nclass = 0", fillcolor="#e58139"] ;
18 -> 54 ;
}