digraph Tree {
node [shape=box, style="filled, rounded", color="black", fontname="helvetica"] ;
edge [fontname="helvetica"] ;
0 [label="stalk-surface-below-ring_k <= 0.5\ngini = 0.5\nsamples = 4082\nvalue = [3334, 3165]\nclass = 0", fillcolor="#fef9f5"] ;
1 [label="spore-print-color_w <= 0.5\ngini = 0.429\nsamples = 2934\nvalue = [3216, 1453]\nclass = 0", fillcolor="#f1ba92"] ;
0 -> 1 [labeldistance=2.5, labelangle=45, headlabel="True"] ;
2 [label="spore-print-color_r <= 0.5\ngini = 0.304\nsamples = 2213\nvalue = [2854, 655]\nclass = 0", fillcolor="#eb9e66"] ;
1 -> 2 ;
3 [label="cap-surface_s <= 0.5\ngini = 0.286\nsamples = 2178\nvalue = [2854, 597]\nclass = 0", fillcolor="#ea9b62"] ;
2 -> 3 ;
4 [label="gill-size_b <= 0.5\ngini = 0.128\nsamples = 1457\nvalue = [2157, 159]\nclass = 0", fillcolor="#e78a48"] ;
3 -> 4 ;
5 [label="odor_p <= 0.5\ngini = 0.495\nsamples = 184\nvalue = [129, 159]\nclass = 1", fillcolor="#daedfa"] ;
4 -> 5 ;
6 [label="ring-type_f <= 0.5\ngini = 0.436\nsamples = 122\nvalue = [129, 61]\nclass = 0", fillcolor="#f1bd97"] ;
5 -> 6 ;
7 [label="habitat_d <= 0.5\ngini = 0.471\nsamples = 101\nvalue = [100, 61]\nclass = 0", fillcolor="#f5ceb2"] ;
6 -> 7 ;
8 [label="gini = 0.0\nsamples = 45\nvalue = [70, 0]\nclass = 0", fillcolor="#e58139"] ;
7 -> 8 ;
9 [label="cap-shape_f <= 0.5\ngini = 0.442\nsamples = 56\nvalue = [30, 61]\nclass = 1", fillcolor="#9acdf2"] ;
7 -> 9 ;
10 [label="odor_l <= 0.5\ngini = 0.304\nsamples = 46\nvalue = [14, 61]\nclass = 1", fillcolor="#66b3eb"] ;
9 -> 10 ;
11 [label="spore-print-color_u <= 0.5\ngini = 0.259\nsamples = 44\nvalue = [11, 61]\nclass = 1", fillcolor="#5dafea"] ;
10 -> 11 ;
12 [label="gill-color_g <= 0.5\ngini = 0.116\nsamples = 40\nvalue = [4, 61]\nclass = 1", fillcolor="#46a3e7"] ;
11 -> 12 ;
13 [label="spore-print-color_k <= 0.5\ngini = 0.15\nsamples = 30\nvalue = [4, 45]\nclass = 1", fillcolor="#4ba6e7"] ;
12 -> 13 ;
14 [label="population_s <= 0.5\ngini = 0.26\nsamples = 16\nvalue = [4, 22]\nclass = 1", fillcolor="#5dafea"] ;
13 -> 14 ;
15 [label="bruises_f <= 0.5\ngini = 0.463\nsamples = 8\nvalue = [4, 7]\nclass = 1", fillcolor="#aad5f4"] ;
14 -> 15 ;
16 [label="gini = 0.0\nsamples = 3\nvalue = [4, 0]\nclass = 0", fillcolor="#e58139"] ;
15 -> 16 ;
17 [label="gini = 0.0\nsamples = 5\nvalue = [0, 7]\nclass = 1", fillcolor="#399de5"] ;
15 -> 17 ;
18 [label="gini = 0.0\nsamples = 8\nvalue = [0, 15]\nclass = 1", fillcolor="#399de5"] ;
14 -> 18 ;
19 [label="gini = 0.0\nsamples = 14\nvalue = [0, 23]\nclass = 1", fillcolor="#399de5"] ;
13 -> 19 ;
20 [label="gini = 0.0\nsamples = 10\nvalue = [0, 16]\nclass = 1", fillcolor="#399de5"] ;
12 -> 20 ;
21 [label="gini = 0.0\nsamples = 4\nvalue = [7, 0]\nclass = 0", fillcolor="#e58139"] ;
11 -> 21 ;
22 [label="gini = 0.0\nsamples = 2\nvalue = [3, 0]\nclass = 0", fillcolor="#e58139"] ;
10 -> 22 ;
23 [label="gini = 0.0\nsamples = 10\nvalue = [16, 0]\nclass = 0", fillcolor="#e58139"] ;
9 -> 23 ;
24 [label="gini = 0.0\nsamples = 21\nvalue = [29, 0]\nclass = 0", fillcolor="#e58139"] ;
6 -> 24 ;
25 [label="gini = 0.0\nsamples = 62\nvalue = [0, 98]\nclass = 1", fillcolor="#399de5"] ;
5 -> 25 ;
26 [label="gini = 0.0\nsamples = 1273\nvalue = [2028, 0]\nclass = 0", fillcolor="#e58139"] ;
4 -> 26 ;
27 [label="habitat_l <= 0.5\ngini = 0.474\nsamples = 721\nvalue = [697, 438]\nclass = 0", fillcolor="#f5d0b5"] ;
3 -> 27 ;
28 [label="gill-spacing_w <= 0.5\ngini = 0.495\nsamples = 624\nvalue = [540, 438]\nclass = 0", fillcolor="#fae7da"] ;
27 -> 28 ;
29 [label="stalk-root_b <= 0.5\ngini = 0.454\nsamples = 373\nvalue = [209, 392]\nclass = 1", fillcolor="#a3d1f3"] ;
28 -> 29 ;
30 [label="stalk-root_c <= 0.5\ngini = 0.452\nsamples = 197\nvalue = [209, 110]\nclass = 0", fillcolor="#f3c3a1"] ;
29 -> 30 ;
31 [label="gini = 0.0\nsamples = 63\nvalue = [0, 110]\nclass = 1", fillcolor="#399de5"] ;
30 -> 31 ;
32 [label="gini = 0.0\nsamples = 134\nvalue = [209, 0]\nclass = 0", fillcolor="#e58139"] ;
30 -> 32 ;
33 [label="gini = 0.0\nsamples = 176\nvalue = [0, 282]\nclass = 1", fillcolor="#399de5"] ;
29 -> 33 ;
34 [label="gill-color_k <= 0.5\ngini = 0.214\nsamples = 251\nvalue = [331, 46]\nclass = 0", fillcolor="#e99355"] ;
28 -> 34 ;
35 [label="odor_n <= 0.5\ngini = 0.258\nsamples = 200\nvalue = [257, 46]\nclass = 0", fillcolor="#ea985c"] ;
34 -> 35 ;
36 [label="gill-color_u <= 0.5\ngini = 0.493\nsamples = 52\nvalue = [36, 46]\nclass = 1", fillcolor="#d4eaf9"] ;
35 -> 36 ;
37 [label="spore-print-color_u <= 0.5\ngini = 0.499\nsamples = 48\nvalue = [36, 40]\nclass = 1", fillcolor="#ebf5fc"] ;
36 -> 37 ;
38 [label="stalk-shape_e <= 0.5\ngini = 0.408\nsamples = 34\nvalue = [16, 40]\nclass = 1", fillcolor="#88c4ef"] ;
37 -> 38 ;
39 [label="gini = 0.0\nsamples = 10\nvalue = [16, 0]\nclass = 0", fillcolor="#e58139"] ;
38 -> 39 ;
40 [label="gini = 0.0\nsamples = 24\nvalue = [0, 40]\nclass = 1", fillcolor="#399de5"] ;
38 -> 40 ;
41 [label="gini = 0.0\nsamples = 14\nvalue = [20, 0]\nclass = 0", fillcolor="#e58139"] ;
37 -> 41 ;
42 [label="gini = 0.0\nsamples = 4\nvalue = [0, 6]\nclass = 1", fillcolor="#399de5"] ;
36 -> 42 ;
43 [label="gini = 0.0\nsamples = 148\nvalue = [221, 0]\nclass = 0", fillcolor="#e58139"] ;
35 -> 43 ;
44 [label="gini = 0.0\nsamples = 51\nvalue = [74, 0]\nclass = 0", fillcolor="#e58139"] ;
34 -> 44 ;
45 [label="gini = 0.0\nsamples = 97\nvalue = [157, 0]\nclass = 0", fillcolor="#e58139"] ;
27 -> 45 ;
46 [label="gini = 0.0\nsamples = 35\nvalue = [0, 58]\nclass = 1", fillcolor="#399de5"] ;
2 -> 46 ;
47 [label="stalk-root_b <= 0.5\ngini = 0.429\nsamples = 721\nvalue = [362, 798]\nclass = 1", fillcolor="#93c9f1"] ;
1 -> 47 ;
48 [label="habitat_g <= 0.5\ngini = 0.381\nsamples = 665\nvalue = [274, 794]\nclass = 1", fillcolor="#7dbfee"] ;
47 -> 48 ;
49 [label="bruises_t <= 0.5\ngini = 0.274\nsamples = 595\nvalue = [156, 794]\nclass = 1", fillcolor="#60b0ea"] ;
48 -> 49 ;
50 [label="gini = 0.0\nsamples = 497\nvalue = [0, 794]\nclass = 1", fillcolor="#399de5"] ;
49 -> 50 ;
51 [label="gini = 0.0\nsamples = 98\nvalue = [156, 0]\nclass = 0", fillcolor="#e58139"] ;
49 -> 51 ;
52 [label="gini = 0.0\nsamples = 70\nvalue = [118, 0]\nclass = 0", fillcolor="#e58139"] ;
48 -> 52 ;
53 [label="bruises_f <= 0.5\ngini = 0.083\nsamples = 56\nvalue = [88, 4]\nclass = 0", fillcolor="#e68742"] ;
47 -> 53 ;
54 [label="cap-color_w <= 0.5\ngini = 0.202\nsamples = 22\nvalue = [31, 4]\nclass = 0", fillcolor="#e89153"] ;
53 -> 54 ;
55 [label="gini = 0.0\nsamples = 19\nvalue = [31, 0]\nclass = 0", fillcolor="#e58139"] ;
54 -> 55 ;
56 [label="gini = 0.0\nsamples = 3\nvalue = [0, 4]\nclass = 1", fillcolor="#399de5"] ;
54 -> 56 ;
57 [label="gini = 0.0\nsamples = 34\nvalue = [57, 0]\nclass = 0", fillcolor="#e58139"] ;
53 -> 57 ;
58 [label="ring-type_e <= 0.5\ngini = 0.121\nsamples = 1148\nvalue = [118, 1712]\nclass = 1", fillcolor="#47a4e7"] ;
0 -> 58 [labeldistance=2.5, labelangle=-45, headlabel="False"] ;
59 [label="cap-color_y <= 0.5\ngini = 0.185\nsamples = 705\nvalue = [118, 1023]\nclass = 1", fillcolor="#50a8e8"] ;
58 -> 59 ;
60 [label="stalk-color-above-ring_w <= 0.5\ngini = 0.304\nsamples = 398\nvalue = [118, 512]\nclass = 1", fillcolor="#67b4eb"] ;
59 -> 60 ;
61 [label="gini = 0.0\nsamples = 327\nvalue = [0, 512]\nclass = 1", fillcolor="#399de5"] ;
60 -> 61 ;
62 [label="gini = 0.0\nsamples = 71\nvalue = [118, 0]\nclass = 0", fillcolor="#e58139"] ;
60 -> 62 ;
63 [label="gini = 0.0\nsamples = 307\nvalue = [0, 511]\nclass = 1", fillcolor="#399de5"] ;
59 -> 63 ;
64 [label="gini = 0.0\nsamples = 443\nvalue = [0, 689]\nclass = 1", fillcolor="#399de5"] ;
58 -> 64 ;
}