digraph Tree {
node [shape=box, style="filled, rounded", color="black", fontname="helvetica"] ;
edge [fontname="helvetica"] ;
0 [label="odor_f <= 0.5\ngini = 0.498\nsamples = 4063\nvalue = [3444, 3055]\nclass = 0", fillcolor="#fcf1e9"] ;
1 [label="odor_n <= 0.5\ngini = 0.409\nsamples = 2996\nvalue = [3444, 1385]\nclass = 0", fillcolor="#efb489"] ;
0 -> 1 [labeldistance=2.5, labelangle=45, headlabel="True"] ;
2 [label="gill-size_b <= 0.5\ngini = 0.45\nsamples = 1226\nvalue = [669, 1292]\nclass = 1", fillcolor="#a0d0f2"] ;
1 -> 2 ;
3 [label="stalk-root_b <= 0.5\ngini = 0.108\nsamples = 840\nvalue = [76, 1256]\nclass = 1", fillcolor="#45a3e7"] ;
2 -> 3 ;
4 [label="gini = 0.0\nsamples = 707\nvalue = [0, 1128]\nclass = 1", fillcolor="#399de5"] ;
3 -> 4 ;
5 [label="gill-color_n <= 0.5\ngini = 0.468\nsamples = 133\nvalue = [76, 128]\nclass = 1", fillcolor="#afd7f4"] ;
3 -> 5 ;
6 [label="population_s <= 0.5\ngini = 0.47\nsamples = 97\nvalue = [57, 94]\nclass = 1", fillcolor="#b1d8f5"] ;
5 -> 6 ;
7 [label="cap-color_y <= 0.5\ngini = 0.5\nsamples = 70\nvalue = [57, 57]\nclass = 0", fillcolor="#ffffff"] ;
6 -> 7 ;
8 [label="odor_a <= 0.5\ngini = 0.436\nsamples = 51\nvalue = [27, 57]\nclass = 1", fillcolor="#97cbf1"] ;
7 -> 8 ;
9 [label="bruises_f <= 0.5\ngini = 0.302\nsamples = 43\nvalue = [13, 57]\nclass = 1", fillcolor="#66b3eb"] ;
8 -> 9 ;
10 [label="gini = 0.0\nsamples = 9\nvalue = [13, 0]\nclass = 0", fillcolor="#e58139"] ;
9 -> 10 ;
11 [label="gini = 0.0\nsamples = 34\nvalue = [0, 57]\nclass = 1", fillcolor="#399de5"] ;
9 -> 11 ;
12 [label="gini = 0.0\nsamples = 8\nvalue = [14, 0]\nclass = 0", fillcolor="#e58139"] ;
8 -> 12 ;
13 [label="gini = 0.0\nsamples = 19\nvalue = [30, 0]\nclass = 0", fillcolor="#e58139"] ;
7 -> 13 ;
14 [label="gini = 0.0\nsamples = 27\nvalue = [0, 37]\nclass = 1", fillcolor="#399de5"] ;
6 -> 14 ;
15 [label="spore-print-color_n <= 0.5\ngini = 0.46\nsamples = 36\nvalue = [19, 34]\nclass = 1", fillcolor="#a8d4f4"] ;
5 -> 15 ;
16 [label="stalk-shape_e <= 0.5\ngini = 0.49\nsamples = 20\nvalue = [12, 16]\nclass = 1", fillcolor="#cee6f8"] ;
15 -> 16 ;
17 [label="gini = 0.0\nsamples = 9\nvalue = [12, 0]\nclass = 0", fillcolor="#e58139"] ;
16 -> 17 ;
18 [label="gini = 0.0\nsamples = 11\nvalue = [0, 16]\nclass = 1", fillcolor="#399de5"] ;
16 -> 18 ;
19 [label="cap-shape_f <= 0.5\ngini = 0.403\nsamples = 16\nvalue = [7, 18]\nclass = 1", fillcolor="#86c3ef"] ;
15 -> 19 ;
20 [label="population_v <= 0.5\ngini = 0.245\nsamples = 13\nvalue = [3, 18]\nclass = 1", fillcolor="#5aade9"] ;
19 -> 20 ;
21 [label="gini = 0.0\nsamples = 4\nvalue = [0, 7]\nclass = 1", fillcolor="#399de5"] ;
20 -> 21 ;
22 [label="stalk-shape_t <= 0.5\ngini = 0.337\nsamples = 9\nvalue = [3, 11]\nclass = 1", fillcolor="#6fb8ec"] ;
20 -> 22 ;
23 [label="gini = 0.0\nsamples = 7\nvalue = [0, 11]\nclass = 1", fillcolor="#399de5"] ;
22 -> 23 ;
24 [label="gini = 0.0\nsamples = 2\nvalue = [3, 0]\nclass = 0", fillcolor="#e58139"] ;
22 -> 24 ;
25 [label="gini = 0.0\nsamples = 3\nvalue = [4, 0]\nclass = 0", fillcolor="#e58139"] ;
19 -> 25 ;
26 [label="stalk-surface-above-ring_k <= 0.5\ngini = 0.108\nsamples = 386\nvalue = [593, 36]\nclass = 0", fillcolor="#e78945"] ;
2 -> 26 ;
27 [label="gini = 0.0\nsamples = 366\nvalue = [593, 0]\nclass = 0", fillcolor="#e58139"] ;
26 -> 27 ;
28 [label="gini = 0.0\nsamples = 20\nvalue = [0, 36]\nclass = 1", fillcolor="#399de5"] ;
26 -> 28 ;
29 [label="stalk-surface-below-ring_y <= 0.5\ngini = 0.063\nsamples = 1770\nvalue = [2775, 93]\nclass = 0", fillcolor="#e68540"] ;
1 -> 29 ;
30 [label="stalk-color-below-ring_w <= 0.5\ngini = 0.042\nsamples = 1746\nvalue = [2763, 61]\nclass = 0", fillcolor="#e6843d"] ;
29 -> 30 ;
31 [label="gini = 0.0\nsamples = 713\nvalue = [1158, 0]\nclass = 0", fillcolor="#e58139"] ;
30 -> 31 ;
32 [label="habitat_l <= 0.5\ngini = 0.071\nsamples = 1033\nvalue = [1605, 61]\nclass = 0", fillcolor="#e68641"] ;
30 -> 32 ;
33 [label="gill-color_g <= 0.5\ngini = 0.063\nsamples = 1029\nvalue = [1605, 54]\nclass = 0", fillcolor="#e68540"] ;
32 -> 33 ;
34 [label="spore-print-color_r <= 0.5\ngini = 0.043\nsamples = 964\nvalue = [1518, 34]\nclass = 0", fillcolor="#e6843d"] ;
33 -> 34 ;
35 [label="gini = 0.0\nsamples = 944\nvalue = [1518, 0]\nclass = 0", fillcolor="#e58139"] ;
34 -> 35 ;
36 [label="gini = 0.0\nsamples = 20\nvalue = [0, 34]\nclass = 1", fillcolor="#399de5"] ;
34 -> 36 ;
37 [label="bruises_t <= 0.5\ngini = 0.304\nsamples = 65\nvalue = [87, 20]\nclass = 0", fillcolor="#eb9e67"] ;
33 -> 37 ;
38 [label="gini = 0.0\nsamples = 55\nvalue = [87, 0]\nclass = 0", fillcolor="#e58139"] ;
37 -> 38 ;
39 [label="gini = 0.0\nsamples = 10\nvalue = [0, 20]\nclass = 1", fillcolor="#399de5"] ;
37 -> 39 ;
40 [label="gini = 0.0\nsamples = 4\nvalue = [0, 7]\nclass = 1", fillcolor="#399de5"] ;
32 -> 40 ;
41 [label="population_y <= 0.5\ngini = 0.397\nsamples = 24\nvalue = [12, 32]\nclass = 1", fillcolor="#83c2ef"] ;
29 -> 41 ;
42 [label="gini = 0.0\nsamples = 16\nvalue = [0, 32]\nclass = 1", fillcolor="#399de5"] ;
41 -> 42 ;
43 [label="gini = 0.0\nsamples = 8\nvalue = [12, 0]\nclass = 0", fillcolor="#e58139"] ;
41 -> 43 ;
44 [label="gini = 0.0\nsamples = 1067\nvalue = [0, 1670]\nclass = 1", fillcolor="#399de5"] ;
0 -> 44 [labeldistance=2.5, labelangle=-45, headlabel="False"] ;
}