digraph Tree {
node [shape=box, style="filled, rounded", color="black", fontname="helvetica"] ;
edge [fontname="helvetica"] ;
0 [label="stalk-surface-below-ring_s <= 0.5\ngini = 0.499\nsamples = 4105\nvalue = [3366, 3133]\nclass = 0", fillcolor="#fdf6f1"] ;
1 [label="stalk-color-above-ring_w <= 0.5\ngini = 0.378\nsamples = 1625\nvalue = [653, 1932]\nclass = 1", fillcolor="#7cbeee"] ;
0 -> 1 [labeldistance=2.5, labelangle=45, headlabel="True"] ;
2 [label="gill-size_n <= 0.5\ngini = 0.01\nsamples = 923\nvalue = [7, 1455]\nclass = 1", fillcolor="#3a9de5"] ;
1 -> 2 ;
3 [label="cap-surface_s <= 0.5\ngini = 0.013\nsamples = 693\nvalue = [7, 1086]\nclass = 1", fillcolor="#3a9ee5"] ;
2 -> 3 ;
4 [label="stalk-surface-above-ring_y <= 0.5\ngini = 0.004\nsamples = 688\nvalue = [2, 1086]\nclass = 1", fillcolor="#399de5"] ;
3 -> 4 ;
5 [label="gini = 0.0\nsamples = 686\nvalue = [0, 1086]\nclass = 1", fillcolor="#399de5"] ;
4 -> 5 ;
6 [label="gini = 0.0\nsamples = 2\nvalue = [2, 0]\nclass = 0", fillcolor="#e58139"] ;
4 -> 6 ;
7 [label="gini = 0.0\nsamples = 5\nvalue = [5, 0]\nclass = 0", fillcolor="#e58139"] ;
3 -> 7 ;
8 [label="gini = 0.0\nsamples = 230\nvalue = [0, 369]\nclass = 1", fillcolor="#399de5"] ;
2 -> 8 ;
9 [label="spore-print-color_k <= 0.5\ngini = 0.489\nsamples = 702\nvalue = [646, 477]\nclass = 0", fillcolor="#f8decb"] ;
1 -> 9 ;
10 [label="gill-color_b <= 0.5\ngini = 0.498\nsamples = 565\nvalue = [425, 477]\nclass = 1", fillcolor="#e9f4fc"] ;
9 -> 10 ;
11 [label="bruises_t <= 0.5\ngini = 0.35\nsamples = 345\nvalue = [425, 124]\nclass = 0", fillcolor="#eda673"] ;
10 -> 11 ;
12 [label="stalk-root_? <= 0.5\ngini = 0.105\nsamples = 226\nvalue = [339, 20]\nclass = 0", fillcolor="#e78845"] ;
11 -> 12 ;
13 [label="gini = 0.0\nsamples = 119\nvalue = [186, 0]\nclass = 0", fillcolor="#e58139"] ;
12 -> 13 ;
14 [label="stalk-surface-below-ring_y <= 0.5\ngini = 0.204\nsamples = 107\nvalue = [153, 20]\nclass = 0", fillcolor="#e89153"] ;
12 -> 14 ;
15 [label="gini = 0.0\nsamples = 94\nvalue = [153, 0]\nclass = 0", fillcolor="#e58139"] ;
14 -> 15 ;
16 [label="gini = 0.0\nsamples = 13\nvalue = [0, 20]\nclass = 1", fillcolor="#399de5"] ;
14 -> 16 ;
17 [label="stalk-surface-above-ring_f <= 0.5\ngini = 0.496\nsamples = 119\nvalue = [86, 104]\nclass = 1", fillcolor="#ddeefa"] ;
11 -> 17 ;
18 [label="spore-print-color_n <= 0.5\ngini = 0.474\nsamples = 88\nvalue = [86, 54]\nclass = 0", fillcolor="#f5d0b5"] ;
17 -> 18 ;
19 [label="gini = 0.0\nsamples = 37\nvalue = [0, 54]\nclass = 1", fillcolor="#399de5"] ;
18 -> 19 ;
20 [label="gini = 0.0\nsamples = 51\nvalue = [86, 0]\nclass = 0", fillcolor="#e58139"] ;
18 -> 20 ;
21 [label="gini = 0.0\nsamples = 31\nvalue = [0, 50]\nclass = 1", fillcolor="#399de5"] ;
17 -> 21 ;
22 [label="gini = 0.0\nsamples = 220\nvalue = [0, 353]\nclass = 1", fillcolor="#399de5"] ;
10 -> 22 ;
23 [label="gini = 0.0\nsamples = 137\nvalue = [221, 0]\nclass = 0", fillcolor="#e58139"] ;
9 -> 23 ;
24 [label="spore-print-color_n <= 0.5\ngini = 0.425\nsamples = 2480\nvalue = [2713, 1201]\nclass = 0", fillcolor="#f1b991"] ;
0 -> 24 [labeldistance=2.5, labelangle=-45, headlabel="False"] ;
25 [label="habitat_p <= 0.5\ngini = 0.48\nsamples = 1636\nvalue = [1543, 1030]\nclass = 0", fillcolor="#f6d5bd"] ;
24 -> 25 ;
26 [label="gill-size_n <= 0.5\ngini = 0.448\nsamples = 1467\nvalue = [1518, 775]\nclass = 0", fillcolor="#f2c19e"] ;
25 -> 26 ;
27 [label="habitat_d <= 0.5\ngini = 0.186\nsamples = 1005\nvalue = [1420, 164]\nclass = 0", fillcolor="#e89050"] ;
26 -> 27 ;
28 [label="stalk-shape_t <= 0.5\ngini = 0.292\nsamples = 587\nvalue = [759, 164]\nclass = 0", fillcolor="#eb9c64"] ;
27 -> 28 ;
29 [label="cap-color_p <= 0.5\ngini = 0.155\nsamples = 417\nvalue = [594, 55]\nclass = 0", fillcolor="#e78d4b"] ;
28 -> 29 ;
30 [label="spore-print-color_r <= 0.5\ngini = 0.118\nsamples = 378\nvalue = [552, 37]\nclass = 0", fillcolor="#e78946"] ;
29 -> 30 ;
31 [label="gini = 0.0\nsamples = 355\nvalue = [552, 0]\nclass = 0", fillcolor="#e58139"] ;
30 -> 31 ;
32 [label="gini = 0.0\nsamples = 23\nvalue = [0, 37]\nclass = 1", fillcolor="#399de5"] ;
30 -> 32 ;
33 [label="ring-type_p <= 0.5\ngini = 0.42\nsamples = 39\nvalue = [42, 18]\nclass = 0", fillcolor="#f0b78e"] ;
29 -> 33 ;
34 [label="gini = 0.0\nsamples = 25\nvalue = [42, 0]\nclass = 0", fillcolor="#e58139"] ;
33 -> 34 ;
35 [label="gini = 0.0\nsamples = 14\nvalue = [0, 18]\nclass = 1", fillcolor="#399de5"] ;
33 -> 35 ;
36 [label="cap-surface_s <= 0.5\ngini = 0.479\nsamples = 170\nvalue = [165, 109]\nclass = 0", fillcolor="#f6d4bc"] ;
28 -> 36 ;
37 [label="gini = 0.0\nsamples = 47\nvalue = [71, 0]\nclass = 0", fillcolor="#e58139"] ;
36 -> 37 ;
38 [label="ring-type_p <= 0.5\ngini = 0.497\nsamples = 123\nvalue = [94, 109]\nclass = 1", fillcolor="#e4f2fb"] ;
36 -> 38 ;
39 [label="gini = 0.0\nsamples = 56\nvalue = [94, 0]\nclass = 0", fillcolor="#e58139"] ;
38 -> 39 ;
40 [label="gini = 0.0\nsamples = 67\nvalue = [0, 109]\nclass = 1", fillcolor="#399de5"] ;
38 -> 40 ;
41 [label="gini = 0.0\nsamples = 418\nvalue = [661, 0]\nclass = 0", fillcolor="#e58139"] ;
27 -> 41 ;
42 [label="cap-surface_f <= 0.5\ngini = 0.238\nsamples = 462\nvalue = [98, 611]\nclass = 1", fillcolor="#59ade9"] ;
26 -> 42 ;
43 [label="cap-color_y <= 0.5\ngini = 0.082\nsamples = 395\nvalue = [26, 578]\nclass = 1", fillcolor="#42a1e6"] ;
42 -> 43 ;
44 [label="stalk-root_? <= 0.5\ngini = 0.033\nsamples = 386\nvalue = [10, 578]\nclass = 1", fillcolor="#3c9fe5"] ;
43 -> 44 ;
45 [label="stalk-shape_e <= 0.5\ngini = 0.125\nsamples = 102\nvalue = [10, 139]\nclass = 1", fillcolor="#47a4e7"] ;
44 -> 45 ;
46 [label="gini = 0.0\nsamples = 5\nvalue = [8, 0]\nclass = 0", fillcolor="#e58139"] ;
45 -> 46 ;
47 [label="ring-type_e <= 0.5\ngini = 0.028\nsamples = 97\nvalue = [2, 139]\nclass = 1", fillcolor="#3c9ee5"] ;
45 -> 47 ;
48 [label="gini = 0.0\nsamples = 95\nvalue = [0, 139]\nclass = 1", fillcolor="#399de5"] ;
47 -> 48 ;
49 [label="gini = 0.0\nsamples = 2\nvalue = [2, 0]\nclass = 0", fillcolor="#e58139"] ;
47 -> 49 ;
50 [label="gini = 0.0\nsamples = 284\nvalue = [0, 439]\nclass = 1", fillcolor="#399de5"] ;
44 -> 50 ;
51 [label="gini = 0.0\nsamples = 9\nvalue = [16, 0]\nclass = 0", fillcolor="#e58139"] ;
43 -> 51 ;
52 [label="stalk-color-below-ring_n <= 0.5\ngini = 0.431\nsamples = 67\nvalue = [72, 33]\nclass = 0", fillcolor="#f1bb94"] ;
42 -> 52 ;
53 [label="population_s <= 0.5\ngini = 0.447\nsamples = 62\nvalue = [65, 33]\nclass = 0", fillcolor="#f2c19e"] ;
52 -> 53 ;
54 [label="cap-shape_f <= 0.5\ngini = 0.34\nsamples = 49\nvalue = [65, 18]\nclass = 0", fillcolor="#eca470"] ;
53 -> 54 ;
55 [label="gill-color_w <= 0.5\ngini = 0.449\nsamples = 32\nvalue = [35, 18]\nclass = 0", fillcolor="#f2c29f"] ;
54 -> 55 ;
56 [label="gill-spacing_w <= 0.5\ngini = 0.461\nsamples = 30\nvalue = [32, 18]\nclass = 0", fillcolor="#f4c8a8"] ;
55 -> 56 ;
57 [label="population_y <= 0.5\ngini = 0.422\nsamples = 25\nvalue = [30, 13]\nclass = 0", fillcolor="#f0b88f"] ;
56 -> 57 ;
58 [label="gill-color_u <= 0.5\ngini = 0.499\nsamples = 17\nvalue = [14, 13]\nclass = 0", fillcolor="#fdf6f1"] ;
57 -> 58 ;
59 [label="stalk-root_b <= 0.5\ngini = 0.444\nsamples = 14\nvalue = [14, 7]\nclass = 0", fillcolor="#f2c09c"] ;
58 -> 59 ;
60 [label="gini = 0.0\nsamples = 10\nvalue = [14, 0]\nclass = 0", fillcolor="#e58139"] ;
59 -> 60 ;
61 [label="gini = 0.0\nsamples = 4\nvalue = [0, 7]\nclass = 1", fillcolor="#399de5"] ;
59 -> 61 ;
62 [label="gini = 0.0\nsamples = 3\nvalue = [0, 6]\nclass = 1", fillcolor="#399de5"] ;
58 -> 62 ;
63 [label="gini = 0.0\nsamples = 8\nvalue = [16, 0]\nclass = 0", fillcolor="#e58139"] ;
57 -> 63 ;
64 [label="bruises_f <= 0.5\ngini = 0.408\nsamples = 5\nvalue = [2, 5]\nclass = 1", fillcolor="#88c4ef"] ;
56 -> 64 ;
65 [label="gini = 0.0\nsamples = 2\nvalue = [2, 0]\nclass = 0", fillcolor="#e58139"] ;
64 -> 65 ;
66 [label="gini = 0.0\nsamples = 3\nvalue = [0, 5]\nclass = 1", fillcolor="#399de5"] ;
64 -> 66 ;
67 [label="gini = 0.0\nsamples = 2\nvalue = [3, 0]\nclass = 0", fillcolor="#e58139"] ;
55 -> 67 ;
68 [label="gini = 0.0\nsamples = 17\nvalue = [30, 0]\nclass = 0", fillcolor="#e58139"] ;
54 -> 68 ;
69 [label="gini = 0.0\nsamples = 13\nvalue = [0, 15]\nclass = 1", fillcolor="#399de5"] ;
53 -> 69 ;
70 [label="gini = 0.0\nsamples = 5\nvalue = [7, 0]\nclass = 0", fillcolor="#e58139"] ;
52 -> 70 ;
71 [label="stalk-root_? <= 0.5\ngini = 0.163\nsamples = 169\nvalue = [25, 255]\nclass = 1", fillcolor="#4ca7e8"] ;
25 -> 71 ;
72 [label="gini = 0.0\nsamples = 17\nvalue = [25, 0]\nclass = 0", fillcolor="#e58139"] ;
71 -> 72 ;
73 [label="gini = 0.0\nsamples = 152\nvalue = [0, 255]\nclass = 1", fillcolor="#399de5"] ;
71 -> 73 ;
74 [label="stalk-root_c <= 0.5\ngini = 0.223\nsamples = 844\nvalue = [1170, 171]\nclass = 0", fillcolor="#e99356"] ;
24 -> 74 ;
75 [label="odor_p <= 0.5\ngini = 0.258\nsamples = 703\nvalue = [952, 171]\nclass = 0", fillcolor="#ea985d"] ;
74 -> 75 ;
76 [label="odor_c <= 0.5\ngini = 0.137\nsamples = 642\nvalue = [952, 76]\nclass = 0", fillcolor="#e78b49"] ;
75 -> 76 ;
77 [label="gini = 0.0\nsamples = 599\nvalue = [952, 0]\nclass = 0", fillcolor="#e58139"] ;
76 -> 77 ;
78 [label="gini = 0.0\nsamples = 43\nvalue = [0, 76]\nclass = 1", fillcolor="#399de5"] ;
76 -> 78 ;
79 [label="gini = 0.0\nsamples = 61\nvalue = [0, 95]\nclass = 1", fillcolor="#399de5"] ;
75 -> 79 ;
80 [label="gini = 0.0\nsamples = 141\nvalue = [218, 0]\nclass = 0", fillcolor="#e58139"] ;
74 -> 80 ;
}