digraph Tree {
node [shape=box, style="filled, rounded", color="black", fontname="helvetica"] ;
edge [fontname="helvetica"] ;
0 [label="stalk-surface-above-ring_silky <= 0.5\ngini = 0.499\nsamples = 8124\nvalue = [4208, 3916]\nclass = 0", fillcolor="#fdf6f1"] ;
1 [label="gill-size_narrow <= 0.5\ngini = 0.415\nsamples = 5752\nvalue = [4064, 1688]\nclass = 0", fillcolor="#f0b58b"] ;
0 -> 1 [labeldistance=2.5, labelangle=45, headlabel="True"] ;
2 [label="spore-print-color_chocolate <= 0.5\ngini = 0.159\nsamples = 4136\nvalue = [3776, 360]\nclass = 0", fillcolor="#e78d4c"] ;
1 -> 2 ;
3 [label="spore-print-color_green <= 0.5\ngini = 0.037\nsamples = 3848\nvalue = [3776, 72]\nclass = 0", fillcolor="#e5833d"] ;
2 -> 3 ;
4 [label="gini = 0.0\nsamples = 3776\nvalue = [3776, 0]\nclass = 0", fillcolor="#e58139"] ;
3 -> 4 ;
5 [label="gini = 0.0\nsamples = 72\nvalue = [0, 72]\nclass = 1", fillcolor="#399de5"] ;
3 -> 5 ;
6 [label="gini = 0.0\nsamples = 288\nvalue = [0, 288]\nclass = 1", fillcolor="#399de5"] ;
2 -> 6 ;
7 [label="cap-surface_fibrous <= 0.5\ngini = 0.293\nsamples = 1616\nvalue = [288, 1328]\nclass = 1", fillcolor="#64b2eb"] ;
1 -> 7 ;
8 [label="stalk-surface-below-ring_fibrous <= 0.5\ngini = 0.162\nsamples = 1352\nvalue = [120, 1232]\nclass = 1", fillcolor="#4ca7e8"] ;
7 -> 8 ;
9 [label="gill-spacing_crowded <= 0.5\ngini = 0.089\nsamples = 1292\nvalue = [60, 1232]\nclass = 1", fillcolor="#43a2e6"] ;
8 -> 9 ;
10 [label="gini = 0.0\nsamples = 1168\nvalue = [0, 1168]\nclass = 1", fillcolor="#399de5"] ;
9 -> 10 ;
11 [label="stalk-shape_enlarging <= 0.5\ngini = 0.499\nsamples = 124\nvalue = [60, 64]\nclass = 1", fillcolor="#f3f9fd"] ;
9 -> 11 ;
12 [label="gini = 0.0\nsamples = 48\nvalue = [48, 0]\nclass = 0", fillcolor="#e58139"] ;
11 -> 12 ;
13 [label="stalk-color-below-ring_brown <= 0.5\ngini = 0.266\nsamples = 76\nvalue = [12, 64]\nclass = 1", fillcolor="#5eafea"] ;
11 -> 13 ;
14 [label="gini = 0.0\nsamples = 64\nvalue = [0, 64]\nclass = 1", fillcolor="#399de5"] ;
13 -> 14 ;
15 [label="gini = 0.0\nsamples = 12\nvalue = [12, 0]\nclass = 0", fillcolor="#e58139"] ;
13 -> 15 ;
16 [label="gini = 0.0\nsamples = 60\nvalue = [60, 0]\nclass = 0", fillcolor="#e58139"] ;
8 -> 16 ;
17 [label="cap-shape_convex <= 0.5\ngini = 0.463\nsamples = 264\nvalue = [168, 96]\nclass = 0", fillcolor="#f4c9aa"] ;
7 -> 17 ;
18 [label="gini = 0.0\nsamples = 104\nvalue = [104, 0]\nclass = 0", fillcolor="#e58139"] ;
17 -> 18 ;
19 [label="stalk-root_bulbous <= 0.5\ngini = 0.48\nsamples = 160\nvalue = [64, 96]\nclass = 1", fillcolor="#bddef6"] ;
17 -> 19 ;
20 [label="gini = 0.0\nsamples = 32\nvalue = [32, 0]\nclass = 0", fillcolor="#e58139"] ;
19 -> 20 ;
21 [label="stalk-shape_enlarging <= 0.5\ngini = 0.375\nsamples = 128\nvalue = [32, 96]\nclass = 1", fillcolor="#7bbeee"] ;
19 -> 21 ;
22 [label="gini = 0.0\nsamples = 24\nvalue = [24, 0]\nclass = 0", fillcolor="#e58139"] ;
21 -> 22 ;
23 [label="ring-type_evanescent <= 0.5\ngini = 0.142\nsamples = 104\nvalue = [8, 96]\nclass = 1", fillcolor="#49a5e7"] ;
21 -> 23 ;
24 [label="gini = 0.0\nsamples = 96\nvalue = [0, 96]\nclass = 1", fillcolor="#399de5"] ;
23 -> 24 ;
25 [label="gini = 0.0\nsamples = 8\nvalue = [8, 0]\nclass = 0", fillcolor="#e58139"] ;
23 -> 25 ;
26 [label="ring-type_pendant <= 0.5\ngini = 0.114\nsamples = 2372\nvalue = [144, 2228]\nclass = 1", fillcolor="#46a3e7"] ;
0 -> 26 [labeldistance=2.5, labelangle=-45, headlabel="False"] ;
27 [label="gini = 0.0\nsamples = 2228\nvalue = [0, 2228]\nclass = 1", fillcolor="#399de5"] ;
26 -> 27 ;
28 [label="gini = 0.0\nsamples = 144\nvalue = [144, 0]\nclass = 0", fillcolor="#e58139"] ;
26 -> 28 ;
}